tree
version=v2
num_class=1
num_tree_per_iteration=1
label_index=0
max_feature_idx=67
objective=binary sigmoid:1
feature_names=Column_0 Column_1 Column_2 Column_3 Column_4 Column_5 Column_6 Column_7 Column_8 Column_9 Column_10 Column_11 Column_12 Column_13 Column_14 Column_15 Column_16 Column_17 Column_18 Column_19 Column_20 Column_21 Column_22 Column_23 Column_24 Column_25 Column_26 Column_27 Column_28 Column_29 Column_30 Column_31 Column_32 Column_33 Column_34 Column_35 Column_36 Column_37 Column_38 Column_39 Column_40 Column_41 Column_42 Column_43 Column_44 Column_45 Column_46 Column_47 Column_48 Column_49 Column_50 Column_51 Column_52 Column_53 Column_54 Column_55 Column_56 Column_57 Column_58 Column_59 Column_60 Column_61 Column_62 Column_63 Column_64 Column_65 Column_66 Column_67
feature_infos=[413891:15290685] [14.500999999999999:647.98000000000002] [100:231] [10:101] [0:4685] [0:5691] [0:2253] [0:2253] [0:2255] [0:3331] [0:210] [0:3257] [0:3188] [0:3188] [0:2918] [0:1429] [0:640] [0:859] [-53:868] [0:3] [0:5] [0:14.997350326454947] [0:8] [0:4] [0:7] [0:22.972291473287196] [0:48] [0:48] [0:4] [0:5] [0:5] [0:5] [0:7] [0:1] [0:8] [0:5.9777780099100504] [0:8] [0:5.696056656939529] [0:4] [0:18.487207994766397] [0:4] [0:6] [0:29.802872716578239] [0:29.802872716578239] [0:5.9778278304608357] [0:1] [0:94901] [0:145787] [0:102935] [0:133915] [0:97916] [0:22] [0:68] [0:9] [0:1286] [0:88] [0:94901] [0:102880] [0:12307.5] [0:3906.6123471435176] [0:134021] [0:97916] [0:50820] [0:1] [0:1] [0:1] [0:1] [0:1]
tree_sizes=5592 5800 5768 5762 5799 5828 5797 5790 5785

Tree=0
num_leaves=70
num_cat=0
split_feature=45 5 54 15 10 54 54 52 56 15 53 30 65 54 31 52 52 53 54 44 13 47 35 35 33 65 54 57 38 26 54 7 65 65 67 52 52 52 52 47 27 50 51 54 45 52 36 54 58 41 15 45 52 53 65 56 52 45 38 52 52 0 45 43 25 53 51 46 7
split_gain=183002 68658.9 55817.4 23464.3 15017.2 10265 9154.87 7880.8 6591.9 5621.24 4912.61 8613.62 4389.56 3748.09 2992.85 2888.25 5577.43 2716.71 2642.1 2609.38 2565.24 2588.31 2466.55 10118.2 5309.63 2057.25 2034.3 2000.74 1875.73 1641.08 1547.87 1510.56 1501.27 8844.43 1489.34 1294.5 1245.64 1149.84 1525.62 1096.57 1230.19 1074.73 1055.1 1004.23 894.962 732.086 703.959 602.49 597.766 587.373 748.016 575.209 539.782 535.223 510.181 487.251 482.552 460.61 459.131 443.231 475.125 440.166 437.641 426.487 418.802 416.909 416.384 401.065 391.522
threshold=1.0000000180025095e-35 1.000000842569523 1.0000000180025095e-35 0.9999442514685456 1.0000000180025095e-35 0.9999851065001667 1.0001758007546555 1.0000000180025095e-35 1.0000000180025095e-35 1.0000000180025095e-35 0.99999915743047729 1.0000000180025095e-35 1.0000000180025095e-35 1.9916343516390829 1.0000000180025095e-35 1.0000000180025095e-35 1.9999755031649704 0.99999915743047729 2.0003325032730159 0.4204558335675509 10.098855977567785 1.0000000180025095e-35 0.99994340889902278 1.0000000180025095e-35 0.99966306370539881 0.99999113949014207 2.9862696710611316 1.0000000180025095e-35 0.136865694591182 1.0000007782668501 3.0001950028273838 1.0000016851390459 1.0000000180025095e-35 0.99999113949014207 1.0000000180025095e-35 1.0000000180025095e-35 1.0000105716184671 2.0000220983182984 2.999999481155434 1.0000000180025095e-35 1.0000007782668501 1.0000000180025095e-35 1.0000000180025095e-35 0.9999851065001667 0.99999235344163384 1.0000105716184671 0.9999924875907521 1.9916343516390829 1.0000000180025095e-35 0.88196564099091557 1.9999994811554338 0.13691324583223832 2.0000220983182984 0.99999915743047729 1.0000000180025095e-35 19.949374554377801 1.9999755031649704 0.99999235344163384 0.136865694591182 3.0000588567942521 3.9999340363667044 5418243.4755344791 0.13707808011531761 2.0000979873401197 0.17714240691811092 1.0000659636332963 1.999899011874759 1.0000000180025095e-35 1.0000016851390459
decision_type=2 2 2 2 2 2 2 2 2 2 2 2 2 2 2 2 2 2 2 2 2 2 2 2 2 2 2 2 2 2 2 2 2 2 2 2 2 2 2 2 2 2 2 2 2 2 2 2 2 2 2 2 2 2 2 2 2 2 2 2 2 2 2 2 2 2 2 2 2
left_child=2 3 8 9 28 -4 67 20 22 19 34 31 13 -8 27 55 17 -17 -15 29 21 -3 23 32 -25 -14 -20 -6 -5 46 -28 63 -1 -34 39 -32 -19 -18 -39 40 44 -21 47 -43 -9 -13 -2 -27 -30 50 56 -23 -33 -50 -46 -10 -42 58 -29 -40 -61 64 -53 65 -49 -12 -54 -7 -51
right_child=1 7 5 4 14 6 12 10 15 -11 11 45 25 18 -16 16 37 36 26 41 -22 51 -24 24 -26 42 30 57 48 -31 35 52 33 -35 -36 -37 -38 38 59 -41 49 43 -44 -45 54 -47 -48 61 53 68 -52 62 66 -55 -56 -57 -58 -59 -60 60 -62 -63 -64 -65 -66 -67 -68 -69 -70
leaf_value=-0.017738177158721495 0.016223602484472049 -0.01461629279811098 0.02 0.019487179487179488 -0.014887709269089425 -0.017724941724941726 0.02 0.018333333333333333 0.0099674267100977199 0.02 -0.01659371614301192 -0.0097674418604651158 0.02 -0.016366812227074236 0.02 0.01916178969227865 -0.016191055673866746 -0.017645448323066394 0.019918200408997954 -0.010681653372008701 0.017188598203826632 0.02 -0.019411602736534431 -0.018198370867273599 0.02 0.02 -0.015874369910818146 0.02 -0.018255981416957029 0.018704639412034912 -0.0069407496977025394 -0.0077941176470588238 0.02 -0.017216923166949501 0.019046975070807073 0.0060550916116166023 0.02 0.02 -0.017393132445690261 0.018427624111356712 0.016347546259050685 0.015249042145593869 0.014491094147582697 -0.0080802292263610319 -0.011167444963308872 0.018065507282000862 -0.0053048041986273721 0.0063381858902575583 0.011163708086785009 0.011054583995760465 -0.007285291214215203 -0.0068662301216089808 0.014786905497220506 -0.013659420289855074 0.004083175803402647 -0.015597351501775261 -0.0040845070422535212 -0.00067476383265856947 0.0020489977728285077 0.02 -0.0083942414174972314 -0.011056047197640117 0.011147842056932967 0.013448275862068966 -0.019199999999999998 -0.001244019138755981 -0.0040606060606060606 -0.010526315789473684 0.01882409638554217
leaf_count=84286 805 5082 14071 546 2449 6435 3303 1104 307 12617 4615 387 8784 4580 4972 5297 6574 1461 1956 5516 2561 1099 94426 2087 4811 494 2579 1560 43050 4354 4962 1088 3003 17089 156764 8023 463 926 1427 16739 2486 1566 3144 1396 1499 16273 2477 1786 507 3774 1013 1069 1619 1104 2116 10421 568 1482 898 319 903 1695 1089 232 300 836 660 5966 8300
internal_value=0 1.06177 -1.11523 -0.471635 -1.21921 0.47851 0.0821005 1.62806 -1.5793 1.00024 1.71028 0.888681 0.531654 0.0128331 0.83637 -0.670653 -0.166724 1.17685 -0.284163 0.217451 -0.0319266 -0.569613 -1.70342 -1.50167 0.844303 1.34506 0.0694064 -0.0691814 -1.73579 1.06548 -0.172192 -0.681989 -1.65671 -1.16544 1.81896 0.108895 -0.858628 -1.12267 -0.20979 1.46148 1.15551 -0.546355 0.569619 0.425388 0.257258 1.7419 -0.00243754 -0.077193 -1.78084 1.41813 0.760757 0.822229 0.379566 -0.58473 -0.224066 -1.48658 1.25475 0.813198 1.34418 -0.982257 -0.0981997 -0.348585 0.222428 -1.31093 0.266539 -1.42396 0.932865 -1.42618 1.63956
internal_count=618150 316272 301878 85299 56568 68078 54007 230973 233800 28731 220073 25710 41606 25403 11361 28098 17370 7221 22100 16114 10900 8339 205702 111276 6898 16203 17520 6389 45207 7636 15564 9050 104378 20092 194363 12985 1924 10149 3575 37599 20860 8478 7419 2962 4719 16660 3282 4275 44661 16141 4067 3257 3367 1611 3615 10728 3054 3940 2458 2649 1222 3781 2158 5683 2086 5451 2279 12401 12074
shrinkage=0.01


Tree=1
num_leaves=70
num_cat=0
split_feature=45 4 54 10 15 54 54 46 14 65 31 54 66 24 54 23 23 21 46 38 57 65 54 38 4 4 10 15 53 53 44 31 2 65 65 54 58 53 4 54 53 51 53 53 45 57 45 15 7 1 54 35 44 12 0 42 35 57 57 0 25 61 54 46 14 31 1 47 15
split_gain=179375 76328.5 54711.6 26398.4 15198.3 10061.9 8973.18 6067.78 4659.7 4302.57 4108.93 3673.84 3286.64 2592.09 2589.71 2525.86 11210 3955.67 2509.05 2465.86 2112.3 2016.67 1994.01 1979.32 1713.83 10226.4 3559.9 2022.23 1669.62 3928.85 1565.59 1941.19 1559.22 1521.86 8758.67 1517.16 1220.64 1138.93 1068.61 1042.48 1041.7 1034.17 1003.61 1130.51 900.579 744.576 684.515 671.322 676.057 640.451 590.552 540.209 1202.81 527.875 524.112 507.74 471.43 466.034 850.633 431.42 410.494 399.207 406.5 393.183 370.674 351.503 316.098 314.098 313.982
threshold=1.0000000180025095e-35 1.000000842569523 1.0000000180025095e-35 1.0000000180025095e-35 0.9999442514685456 0.9999851065001667 1.0001758007546555 1.0000000180025095e-35 1.0000000180025095e-35 1.0000000180025095e-35 1.0000000180025095e-35 1.9916343516390829 0.99989989502519905 1.0000000180025095e-35 2.0003325032730159 0.99397680012413814 1.0000000180025095e-35 0.1340380829816242 23.535665336126261 0.136865694591182 1.0000000180025095e-35 0.99999113949014207 2.9862696710611316 0.136865694591182 2.0000005188445669 1.998096957433851 1.0000000180025095e-35 0.9999442514685456 1.0000000180025095e-35 0.99999915743047729 0.4204558335675509 0.99813313141430615 150.00064681721966 1.0000000180025095e-35 0.99999113949014207 3.0001950028273838 1.0000000180025095e-35 0.99999915743047729 1.998096957433851 3.9597921214031473 1.0000000180025095e-35 1.0000000180025095e-35 1.0000659636332963 1.9935328958962144 0.99999235344163384 1.0000000180025095e-35 0.13691324583223832 0.9999442514685456 4.0001895117366058 25.950357116391618 1.9916343516390829 0.99994340889902278 1.0000000180025095e-35 640.00962378191946 2407161.5000000005 1.0648846547235629 1.0000000180025095e-35 1.0000000180025095e-35 23.589160374449751 5418243.4755344791 0.17714240691811092 1.0000000180025095e-35 0.9999851065001667 1.0000000180025095e-35 1.0000000180025095e-35 0.99813313141430615 159.95500000000001 1.0000000180025095e-35 0.9999442514685456
decision_type=2 2 2 2 2 2 2 2 2 2 2 2 2 2 2 2 2 2 2 2 2 2 2 2 2 2 2 2 2 2 2 2 2 2 2 2 2 2 2 2 2 2 2 2 2 2 2 2 2 2 2 2 2 2 2 2 2 2 2 2 2 2 2 2 2 2 2 2 2
left_child=2 3 7 4 8 -4 63 15 30 11 20 -8 13 19 -13 16 33 -18 49 -3 46 -11 -16 -6 25 -15 27 64 51 -30 31 -2 38 57 -35 -24 -25 40 -21 -37 -38 50 -31 -44 55 -29 -5 -14 -49 -9 -23 52 -20 -26 -32 -22 -54 -1 -59 60 -52 -56 -63 -7 -27 -47 -40 -55 -60
right_child=1 12 5 10 23 6 9 18 -10 21 -12 14 47 24 22 -17 17 -19 28 32 44 41 35 36 53 26 -28 45 29 42 54 -33 -34 34 -36 39 37 -39 66 -41 -42 -43 43 -45 -46 65 -48 48 -50 -51 59 -53 56 67 61 -57 -58 58 68 -61 -62 62 -64 -65 -66 -67 -68 -69 -70
leaf_value=-0.018255947872966742 0.019257846100833136 0.018642449670382654 0.019801986678460028 0.019933612333134353 0.01928762247247277 -0.017549075221294258 0.019801986678460028 -0.016860527889557456 0.018995742855548947 0.019801986678460028 0.019810041417494137 -0.016204232056001685 0.011054578870110908 0.019819611994618389 0.019720981496945497 -0.01923679767157347 0.019834425536192638 -0.016994193401089902 -0.012170777640564132 0.019855563556611232 0.019811394779312035 0.019801986678460028 -0.015716619686000934 -0.018110566681471575 0.018800576824334135 0.0037597373165184373 0.017551843933242817 -0.016524440632458844 0.018832372037991315 -0.015272786305383774 -0.0156886762503138 -0.0049622726917322004 0.015766247307576892 0.019808967250365656 -0.016993597943015703 0.019959624925095867 -0.016956296261663069 -0.013288879164863687 -0.01503225435571566 -0.0006227294715001585 0.019557649244388402 0.014346939101438472 0.019841342147490958 -0.0090474478116759453 -0.0029722497265352345 0.0042149521481478066 -0.015850734619669557 -0.016942341455151777 0.0067069893470826231 0.018026830103987847 0.0062748675290792135 -0.017963157340112803 -0.011436075850787928 0.0023975356801963442 -0.0086615587450174312 0.0043650662835657793 0.019891859765934751 0.0078959279673129958 0.0077235067969291691 -0.010945822426552043 -0.019009758012645695 0.019872683198666367 -0.0025598035297903199 -0.010421342826403666 0.019714803583541066 -0.0096393672934753146 0.00057476433722351914 0.015751112321164214 -0.015795218746390657
leaf_count=67789 2392 4108 14071 235 610 6435 3303 237 6050 8784 15255 4580 902 38183 1956 93639 4842 1537 9472 472 2526 494 2579 44327 155504 2202 3420 4565 2632 4624 2556 2964 1462 3055 16884 1073 471 4679 2865 11912 929 3144 813 1625 1680 1285 2375 1516 710 1882 1786 5069 265 1208 3091 1284 699 644 230 1695 300 445 1180 5966 792 1704 634 1691 17862
internal_value=0 1.05124 -1.10417 -0.470613 -1.08731 0.473756 0.081284 -1.56364 0.456273 0.526367 1.36969 0.0127054 1.68562 1.71455 -0.281331 -1.68084 -1.47933 1.09606 -0.677799 0.6949 0.218416 1.33171 0.0687143 -1.65246 1.76075 1.44627 -0.0180745 -0.593013 -0.85357 -0.202469 -0.235167 0.585411 -0.189247 -1.63363 -1.13549 -0.170474 -1.69579 -0.855343 -0.839372 0.107807 0.727316 0.563946 -0.979794 0.0585881 0.922641 -1.14434 -1.26289 -0.350115 -0.939928 1.41248 -0.0764237 -1.26065 -1.00046 1.86429 -0.839532 1.46057 1.12798 -1.74843 -1.46922 -0.345108 0.263879 -0.444241 0.358313 -1.41199 0.798026 -0.368331 -1.22044 1.01867 -1.54962
internal_count=618150 316272 301878 93049 69694 68078 54007 233800 18678 41606 23355 25403 223223 220095 22100 206482 112843 6379 27318 9541 8100 16203 17520 51016 210554 52151 13968 10548 25199 9694 12628 5356 5433 106464 19939 15564 50406 6079 3971 12985 1400 7419 7062 2438 5490 7554 2610 3128 2226 2119 4275 15505 10436 158403 7272 3810 964 86525 18736 3781 2086 4716 1625 12401 2994 2989 3499 2899 18092
shrinkage=0.01


Tree=2
num_leaves=70
num_cat=0
split_feature=45 4 54 10 15 54 54 56 14 65 52 31 54 52 52 54 55 23 23 21 67 4 4 57 65 54 38 13 47 44 31 54 65 65 52 58 52 52 52 52 51 38 45 5 14 45 15 7 54 5 33 14 0 42 16 45 56 52 52 45 0 4 15 10 25 61 54 46 15
split_gain=175847 74828.5 53637 25878.8 14899.6 9865 8796.04 6345.56 4568.27 4218.04 4029.25 4028.86 3601.72 2790.02 5391.35 2538.73 2371.07 2329.51 11235.7 3829.2 2235.01 2141.06 5938.69 2070.58 1977.58 1954.89 1940.38 1620.9 1805.29 1534.58 1903.08 1487.26 1445.04 8526.62 1265.52 1196.99 1132.7 2621.32 1111.47 1472.68 1013.76 996.584 882.894 695.414 900.162 671.004 601.565 587.592 578.95 548.073 1446.54 626.481 513.79 497.944 486.813 484.027 469.16 431.48 462.732 431.117 422.874 403.224 820.03 1091.17 402.401 391.286 398.506 385.65 380.484
threshold=1.0000000180025095e-35 1.000000842569523 1.0000000180025095e-35 1.0000000180025095e-35 0.9999442514685456 0.9999851065001667 1.0001758007546555 1.0000000180025095e-35 1.0000000180025095e-35 1.0000000180025095e-35 1.0000000180025095e-35 1.0000000180025095e-35 1.9916343516390829 1.0000000180025095e-35 1.9999755031649704 2.0003325032730159 31.500000000000004 0.99397680012413814 1.0000000180025095e-35 0.1340380829816242 1.0000000180025095e-35 2.0000005188445669 1.998096957433851 1.0000000180025095e-35 0.99999113949014207 2.9862696710611316 0.136865694591182 10.098855977567785 1.0000000180025095e-35 0.4204558335675509 0.99813313141430615 3.0001950028273838 1.0000000180025095e-35 0.99999113949014207 1.0000000180025095e-35 1.0000000180025095e-35 1.0000105716184671 0.99998213300195271 2.0000220983182984 2.999999481155434 1.0000000180025095e-35 0.136865694591182 0.99999235344163384 1.9999018628885052 1.9999911394901422 0.13691324583223832 0.9999442514685456 508.92136299718112 1.9916343516390829 1.000000842569523 0.99966306370539881 0.99991743990899173 2407161.5000000005 1.0648846547235629 42.001762370242595 0.13691324583223832 19.949374554377801 3.0000588567942521 3.9999340363667044 0.13707808011531761 5418243.4755344791 4.0000638452914039 1.9999994811554338 0.0083145386215841572 0.17714240691811092 1.0000000180025095e-35 0.9999851065001667 1.0000000180025095e-35 0.9999442514685456
decision_type=2 2 2 2 2 2 2 2 2 2 2 2 2 2 2 2 2 2 2 2 2 2 2 2 2 2 2 2 2 2 2 2 2 2 2 2 2 2 2 2 2 2 2 2 2 2 2 2 2 2 2 2 2 2 2 2 2 2 2 2 2 2 2 2 2 2 2 2 2
left_child=2 3 7 4 8 -4 67 17 29 12 27 23 -8 56 36 -14 20 18 32 -20 21 22 -12 45 -11 -17 -6 28 -3 30 -2 -27 68 -34 -33 -28 37 -15 -16 -40 48 -24 53 44 -37 -5 -43 61 -26 50 51 -22 -31 -25 -48 -30 -9 -41 -59 -57 64 62 -23 -64 -50 -54 -67 -7 -1
right_child=1 10 5 11 26 6 9 13 -10 24 16 -13 15 14 38 25 -18 -19 19 -21 49 47 41 42 40 31 35 -29 55 52 -32 34 33 -35 -36 43 -38 -39 39 57 -42 46 -44 -45 -46 -47 54 -49 60 -51 -52 -53 65 -55 -56 59 -58 58 -60 -61 -62 -63 63 -65 -66 66 -68 -69 -70
leaf_value=-0.011383492701875801 0.019070273516329454 -0.012607756141354953 0.019609797470843723 0.019737587493772822 0.019100035586214023 -0.017377643067285769 0.019609797470843723 0.0097816295723182102 0.018810830130172037 0.019609797470843723 0.01965545559732056 0.019617617024630427 -0.016045384996110988 0.019336048789621609 -0.015895231775517472 0.019529530445882976 -0.01887540868113453 -0.019031933729385945 0.0196416042079838 -0.016569839454436155 0.009163367948065073 0.016468859479627892 0.014684372589039416 0.019618930751740236 0.019609797470843723 -0.015562368713066635 -0.017933784948069683 0.016843816436154346 0.019618007652437749 -0.01553380547519319 -0.0049127018304867751 -0.0068720641914353951 0.019627611364749373 -0.016872471971893576 0.0059776292146759228 0.011966941243917482 0.019691698407691322 -0.014512597303561761 0.019677170274832428 -0.017098088338780532 0.014205687405347863 0.0016063059647369602 -0.0029425247837914317 -0.013063743288606131 -0.016424076498174553 -0.015694776835720022 -0.015696263967921495 0.0018317735485659725 0.0062123038868071388 0.018641700450551919 0.017566347897823065 -0.014478710448296517 -0.0085754512970910371 0.0043214920033822664 0.015195036643105671 -0.005783649246726843 -0.015305874735376996 0.019803604319545053 -0.0082197781772050289 0.012885136411579194 -0.010837348208300221 0.018398750249832941 -0.014093925067498252 0.015559339573507873 -0.018824817701218539 0.019678430561069118 -0.002534215699535883 -0.010317978502977722 -0.017760978943032663
leaf_count=3924 2392 3182 14071 235 610 6435 3303 307 6050 8784 6568 15255 4580 2000 6574 1956 725 93581 4873 1537 909 7136 709 2526 494 2579 44327 2561 1087 2556 2964 4962 2997 17603 8023 1211 3533 1688 926 1427 3144 1262 1680 4160 708 2375 4018 1096 1786 162394 7231 885 3091 1284 215 1050 10421 319 903 936 1695 19259 916 1084 300 445 1180 5966 81187
internal_value=0 1.04097 -1.09338 -0.466008 -1.07666 0.469107 0.0804843 -1.54838 0.451781 0.521187 1.66917 1.35631 0.0125801 -0.656772 -0.161422 -0.278545 1.72367 -1.67018 -1.47571 1.09583 1.73592 1.32393 0.639816 0.216264 1.31868 0.068032 -1.63631 0.34391 -0.204845 -0.232838 0.579629 -0.168776 -1.63164 -1.15626 0.10673 -1.67922 1.15974 0.384352 -1.10138 -0.203771 0.558377 -0.763443 0.913539 -0.846903 0.149177 -1.25046 -1.05138 1.62022 -0.0756671 1.83751 1.35772 -0.249955 -0.831208 1.44624 -1.41272 0.888653 -1.45879 -0.962746 -0.0904616 0.301428 -0.341683 1.6757 1.32961 0.197675 0.261257 -0.439826 0.354753 -1.3981 -1.74669
internal_count=618150 316272 301878 93049 69694 68078 54007 233800 18678 41606 223223 23355 25403 28098 17370 22100 214407 205702 112121 6410 213682 42263 12772 8100 16203 17520 51016 8816 6255 12628 5356 15564 105711 20600 12985 50406 7221 3688 10149 3575 7419 6204 5490 6079 1919 2610 5495 29491 4275 171419 9025 1794 7272 3810 4233 3073 10728 2649 1222 1986 3781 28395 9136 2000 2086 4716 1625 12401 85111
shrinkage=0.01


Tree=3
num_leaves=70
num_cat=0
split_feature=36 4 54 10 15 54 54 46 36 15 54 54 3 66 52 52 51 52 35 35 52 52 54 31 3 65 65 20 10 12 5 33 54 31 8 54 15 36 4 15 52 52 58 34 53 53 4 4 15 4 38 57 15 8 4 36 46 33 15 12 57 3 61 54 55 55 51 51 64
split_gain=171072 73298.9 48940.7 26643.7 14498.4 10026.2 8477.25 7545.93 4661.73 4278.8 4176.55 4459.39 3683.16 3392.43 3084.55 2910.25 2839.05 2795.66 2439.11 13365.3 2160.28 2841.14 2062.75 1894.2 1772.2 1717.08 8789.9 1623.41 1600.27 1896.23 1548.03 2469.52 1521.96 1473.01 1384.43 1318.65 1170.94 1151.38 2351.22 3151.92 1114.02 1111.48 1077.26 1067.06 1023.96 1002.06 887.873 2026.42 848.554 820.833 740.28 650.285 646.881 652.267 618.425 600.196 527.567 521.152 668.078 1244.24 551.471 520.35 500.419 571.773 419.482 903.268 684.445 406.362 393.252
threshold=1.0000000180025095e-35 1.000000842569523 1.0000000180025095e-35 1.0000000180025095e-35 0.9999442514685456 0.9999851065001667 1.0001758007546555 1.0000000180025095e-35 0.9999924875907521 1.0000000180025095e-35 1.9916343516390829 2.0003325032730159 86.999774448771987 0.99989989502519905 1.0000000180025095e-35 1.9999755031649704 1.0000000180025095e-35 1.0000000180025095e-35 0.99994340889902278 1.0000000180025095e-35 1.0000105716184671 0.98674374256312192 2.9862696710611316 0.13195708732919501 86.999774448771987 1.0000000180025095e-35 0.99999113949014207 0.59876205929349202 1.0000000180025095e-35 12.000468120215881 1.000000842569523 0.99966306370539881 3.0001950028273838 0.99813313141430615 1.0000000180025095e-35 35.500000000000007 0.9999442514685456 0.9999924875907521 3.0000650009424614 1.9999994811554338 2.0000220983182984 2.999999481155434 1.0000000180025095e-35 1.0136474591047422 0.99999915743047729 1.0000000180025095e-35 1.998096957433851 2.0000005188445669 1.9999994811554338 1.000000842569523 1.0000000180025095e-35 366.80088437186163 0.9999442514685456 7.2526898763344958 7.1606142012834759 0.9999924875907521 19.951986405016669 0.99966306370539881 1.9999994811554338 3.0000158659008123 1.0000000180025095e-35 86.802527654036325 1.0000000180025095e-35 0.9999851065001667 1.0000000180025095e-35 0.99998295355291245 0.087689281139214897 2.0002383815873936 0.9999997405777169
decision_type=2 2 2 2 2 2 2 2 2 2 2 2 2 2 2 2 2 2 2 2 2 2 2 2 2 2 2 2 2 2 2 2 2 2 2 2 2 2 2 2 2 2 2 2 2 2 2 2 2 2 2 2 2 2 2 2 2 2 2 2 2 2 2 2 2 2 2 2 2
left_child=2 3 7 4 9 -4 -7 12 -5 27 -8 -12 49 17 56 20 22 28 19 25 21 -16 -13 -6 -23 64 -27 33 29 54 31 36 -24 -2 51 -34 -19 57 39 46 -17 -42 -25 -41 45 -44 -39 -48 -33 61 -40 -10 -15 -54 -3 -50 -9 58 -32 60 -60 -1 -29 -64 -14 66 -66 -43 -18
right_child=1 13 5 8 23 6 10 14 34 -11 11 16 18 52 15 40 68 30 -20 -21 -22 24 32 42 -26 26 -28 62 -30 -31 37 48 35 -35 -36 -37 -38 38 50 43 41 67 44 -45 -46 -47 47 -49 55 -51 -52 -53 53 -55 -56 -57 -58 -59 59 -61 -62 -63 63 -65 65 -67 -68 -69 -70
leaf_value=-0.013053704813008974 0.014522158471915942 -0.013038254046364313 0.019435493892573853 0.019438220436084338 0.018665078858842998 -0.01431877752100973 0.01944499775840134 0.011937619852384481 -0.013732547395538934 0.019446693452017716 -0.014355793528931234 0.01941760081243615 -0.017485996567662705 0.010511637251654207 0.019550078828278191 -0.015436896897123402 0.015752326615114234 0.0078860154692309697 -0.018854087144241666 0.019468970374516951 0.019513822993751401 0.018539130889741327 -0.015931313884139004 -0.017853135268049082 -0.012628278492864851 0.019471148165841463 -0.016424477902809244 -0.012200917731218692 0.017244997127907034 0.015771046619665989 0.018091233970002445 0.017989216690598973 0.0027456231795931086 -0.0047944896319610441 0.019441229077465049 -0.018962380543917582 -0.015864492312498028 0.019457034349667474 -0.0064202022293328165 -0.015497376106574468 0.019505012974805187 -0.012038481212368651 -0.016690689206788175 0.009882721380434157 -0.013273074616624459 0.019447935878372079 -0.0031119611069948968 0.016565170846667338 0.019468452653813129 0.014491244557837898 0.018274184279836642 0.0033610195298510392 -0.014271329448299522 0.01382602529432474 0.012295326446430069 -0.013872336299110982 -0.01508883764322006 0.01945882964306302 -0.016619705183687546 0.015799026092528441 0.0077398094461518119 0.019631432333557183 0.01954112182958059 -0.0057998610579135627 0.020189591534516948 -0.015381664354272653 -0.015838774716593427 0.012997278998791587 0.0044354297515094157
leaf_count=1003 3390 3018 14139 17069 611 11996 6553 298 2601 5337 5578 2104 81758 911 2174 5005 8178 1629 95580 4452 3376 872 2520 44046 4492 3253 17015 4685 2935 1746 17497 8180 13263 2958 914 1223 1695 5908 491 2333 845 1616 476 926 4545 865 3268 5832 335 1774 46059 1354 1906 400 442 609 9577 109261 811 4182 687 242 448 1742 559 4509 339 309 1446
internal_value=0 1.04091 -1.0642 -0.469883 -1.07966 0.44689 0.0467215 -1.48779 1.45112 0.432416 0.48077 0.201339 -1.61875 1.66316 -0.522943 -0.0450534 0.519058 1.69329 -1.65068 -1.45018 0.621309 0.0256717 0.0728748 -1.63503 -0.756222 -1.59094 -1.06641 -0.177665 0.543108 -0.122763 1.73795 1.05369 -0.15823 0.551792 -0.275339 0.0913209 -0.422431 1.78114 1.56264 0.954395 -0.98034 0.0375368 -1.67787 -0.828671 -0.87413 0.661957 1.34171 0.949659 1.59163 0.575156 1.80136 -0.78799 -0.376001 -0.939785 -0.980201 -0.204297 -1.42731 1.88808 1.61558 1.01942 -0.54494 -0.670076 -0.851118 -0.0618083 -1.71291 -1.17323 0.65894 -0.80191 1.40518
internal_count=618150 312102 306048 91041 69103 67000 52861 239048 21938 18560 40865 34312 210484 221061 28564 18689 28734 217844 207465 111885 10914 7538 19110 50543 5364 107433 20268 13223 8141 5206 209703 12448 17006 6348 4869 14486 3324 197255 64817 18267 7775 2770 49932 3259 5886 1341 15008 9100 9124 3019 46550 3955 3217 2306 3460 944 9875 132438 23177 5680 1498 1245 6875 2190 87165 5407 898 1925 9624
shrinkage=0.01


Tree=4
num_leaves=70
num_cat=0
split_feature=45 4 54 9 15 54 54 9 46 65 14 52 54 57 66 54 23 23 21 46 55 65 54 52 16 13 47 4 4 16 15 65 65 54 53 53 52 45 51 3 30 15 1 46 42 1 51 51 31 54 15 15 7 61 54 45 57 57 7 44 45 45 25 54 52 5 21 23 37
split_gain=169122 71949.1 51576.7 24162.6 10499.8 9495.27 8456.3 8397.62 5728.81 4095.25 3882.24 3873.26 3474.22 3460.59 2521.05 2436.19 2385.02 10577.7 3745.04 2382.86 2312.99 1916.03 1890.73 1815.29 2306.74 1558.68 1747.5 1450.55 9142.45 2134.09 2154 1433.47 8262.56 1430.63 1401.31 1874.01 1228.23 1153.02 979.779 938.087 1217.37 890.969 863.821 797.692 711.094 612.901 605.277 946.835 579.601 557.616 516.726 505.274 620.075 501.205 595.263 464.277 451.792 827.732 448.64 444.077 413.576 410.91 409.547 405.582 400.779 399.016 398.357 538.315 394.977
threshold=1.0000000180025095e-35 1.000000842569523 1.0000000180025095e-35 0.99998797020413932 0.9999442514685456 0.9999851065001667 1.0001758007546555 1.0000000180025095e-35 1.0000000180025095e-35 1.0000000180025095e-35 1.0000000180025095e-35 1.0000000180025095e-35 1.9916343516390829 1.0000000180025095e-35 0.99989989502519905 2.0003325032730159 0.99397680012413814 1.0000000180025095e-35 0.1340380829816242 23.535665336126261 31.500000000000004 0.99999113949014207 2.9862696710611316 1.0000000180025095e-35 44.000765244810403 10.098855977567785 1.0000000180025095e-35 2.0000005188445669 1.998096957433851 1.0000000180025095e-35 0.9999442514685456 1.0000000180025095e-35 0.99999113949014207 3.0001950028273838 1.0000000180025095e-35 0.99999915743047729 1.0000000180025095e-35 0.99999235344163384 1.0000000180025095e-35 86.999774448771987 1.0000000180025095e-35 0.9999442514685456 59.000144478785721 95.823553485947443 1.0648846547235629 25.950357116391618 1.0000000180025095e-35 0.99828719626514173 0.99813313141430615 1.9916343516390829 1.0000000180025095e-35 0.9999442514685456 4.0001895117366058 1.0000000180025095e-35 0.9999851065001667 0.13691324583223832 1.0000000180025095e-35 23.589160374449751 508.92136299718112 0.4204558335675509 0.13707808011531761 0.13691324583223832 0.17714240691811092 2.0003325032730159 1.9999755031649704 1.000000842569523 1.0000000180025095e-35 0.99397680012413814 0.58756056833166792
decision_type=2 2 2 2 2 2 2 2 2 2 2 2 2 2 2 2 2 2 2 2 2 2 2 2 2 2 2 2 2 2 2 2 2 2 2 2 2 2 2 2 2 2 2 2 2 2 2 2 2 2 2 2 2 2 2 2 2 2 2 2 2 2 2 2 2 2 2 2 2
left_child=2 3 8 7 10 -4 -7 13 16 12 39 25 -8 41 20 -14 17 31 -19 45 27 -11 -17 -21 42 26 -3 28 -13 30 65 56 -33 -24 -6 -36 -35 44 49 40 -5 50 -25 64 -15 -10 -45 -48 59 -23 -2 -16 -53 -41 -55 -28 -1 -58 66 -31 -57 -43 63 -51 -44 -30 67 -29 -32
right_child=1 11 5 4 34 6 9 -9 19 21 -12 14 15 37 51 22 -18 18 -20 23 -22 38 33 24 -26 -27 55 58 29 48 68 32 -34 36 35 -37 -38 -39 -40 53 -42 61 43 46 -46 -47 47 -49 -50 62 -52 52 -54 54 -56 60 57 -59 -60 -61 -62 -63 -64 -65 -66 -67 -68 -69 -70
leaf_value=-0.017747033059165359 -0.0070939422926479135 -0.012392224585326957 0.019245011210354785 -0.0050069912679200903 -0.01782010049804866 -0.013715517364229542 0.019244263224113833 0.019290641965414072 -0.016522361154589677 0.019295875910995401 0.018359849476559303 0.019274245299270808 -0.015757180337033005 0.019273822700026391 0.010602353795861537 0.019180640619903912 -0.018692894117797124 0.019301387071091105 -0.016552143909297976 -0.015236678255218548 -0.018523881045542773 0.019251464409370485 -0.015308471706825545 -0.0139736664084197 0.017154637236727589 0.016530838705245122 0.019277104330926564 0.014782751823668356 -0.0036265318910185134 0.017835465106820905 -0.014551348529649649 0.019256039035052561 -0.016513410668231417 -0.0068157146726094521 0.017612775968162218 -0.012326691284306699 0.0058436705369005739 -0.0040649639808591695 0.013964163671256974 -0.01224110939536008 0.016780230079934181 0.019535869258553853 0.012929963757415569 -0.011324277621720903 0.0029887792662750146 0.017619039846766524 0.019349137939621969 -0.0074061679267333523 -0.0018088434270166209 -0.015371307247621703 0.019379349606505874 -0.016167329328530034 0.0079572210992848256 0.019348226831657059 -0.0061133578647366519 -0.0056076047010863422 0.0080491436435932463 -0.015030143404270929 0.010306406974419773 0.001980962892342039 0.012680347335285974 -0.016611751119345385 -0.01670701495648641 0.0033851794477734892 -0.0034760254240217034 0.012990276476948994 0.018595288847339811 -0.012135222299005715 0.0081790224166608059
leaf_count=67789 772 3182 14071 2632 40332 12401 3303 17139 237 8784 4456 39585 4580 3092 860 1956 93639 4842 1537 9434 725 494 2579 4615 1804 2561 1087 5911 811 3004 5238 3055 16884 4962 982 5674 8023 2144 3144 4541 1683 129 1483 4421 1644 1882 776 1669 1195 567 478 1243 649 472 1663 1050 644 18092 2800 925 936 5216 740 2474 997 2016 148807 313 325
internal_value=0 1.02136 -1.07274 -0.456946 -1.17096 0.459925 0.0786342 0.999446 -1.51917 0.510856 0.259969 1.63767 0.00962632 -0.182314 1.69114 -0.276254 -1.63314 -1.43723 1.06601 -0.658075 1.7159 1.29697 0.0632392 -0.829436 -0.413978 0.337963 -0.200204 1.72817 1.44205 0.0213733 -0.59984 -1.5872 -1.10347 -0.169577 -1.64158 -0.791071 0.100584 0.810334 0.548529 -0.378393 0.348568 -1.21816 -0.689093 -0.33933 1.36168 1.37994 -0.69065 0.108294 1.03888 -0.0748525 0.302539 -0.21127 -0.789169 -0.848254 -0.0488842 0.876006 -1.69867 -1.42363 1.82444 1.41015 0.300936 -1.5739 -0.335842 -0.0111626 0.633382 0.822227 1.83878 1.34279 -1.32238
internal_count=618150 316272 301878 93049 62435 68078 54007 30614 233800 41606 15447 223223 25403 13475 214407 22100 206482 112843 6379 27318 211655 16203 17520 25199 15765 8816 6255 210930 53099 13514 8390 106464 19939 15564 46988 6656 12985 6880 7419 10991 4315 6595 13961 9346 4736 2119 6866 2445 5124 4275 1250 2752 1892 6676 2135 3073 86525 18736 157831 3929 1986 5345 3781 3041 2480 2827 155031 6224 5563
shrinkage=0.01


Tree=5
num_leaves=70
num_cat=0
split_feature=45 4 60 9 15 9 65 56 14 52 65 57 52 52 64 64 53 66 48 35 35 31 46 13 47 58 4 4 16 15 15 14 51 52 45 52 52 46 53 52 3 30 51 15 65 65 42 52 16 15 46 61 15 15 13 56 40 40 46 45 52 52 4 45 8 30 21 13 38
split_gain=165180 70515 50485.6 23984.7 10268.5 8297.26 6387.05 6099.74 3902.2 3874.98 3686.28 3439.16 2767.76 5081.12 2707.36 4949.17 2453.04 2418.9 2291.83 2257.05 9212.86 4907.1 1907.66 1573.66 1746.55 1481.73 1458.68 9068.54 2157.19 2140.24 1333.57 3544.36 1269.98 1150.56 1099.27 1077.11 1361.98 948.255 936.831 921.999 912.123 1199.38 840.148 807.277 770.912 6326.9 683.317 647.953 1258.66 584.595 553.455 519.909 515.549 513.449 604.12 511.123 510.581 1030.97 468.489 446.35 437.471 491.391 425.979 419.368 415.744 383.575 379.043 494.914 404.327
threshold=1.0000000180025095e-35 1.000000842569523 1.0000000180025095e-35 0.99998797020413932 0.9999442514685456 1.0000000180025095e-35 1.0000000180025095e-35 1.0000000180025095e-35 1.0000000180025095e-35 1.0000000180025095e-35 0.99999113949014207 1.0000000180025095e-35 1.0000000180025095e-35 1.9999755031649704 0.9999997405777169 1.0000000180025095e-35 0.99999915743047729 0.99989989502519905 8884.3247704133992 0.99994340889902278 1.0000000180025095e-35 0.13195708732919501 1.0000000180025095e-35 10.098855977567785 1.0000000180025095e-35 1.0000000180025095e-35 2.0000005188445669 1.998096957433851 1.0000000180025095e-35 0.9999442514685456 0.9999442514685456 1.0000000180025095e-35 1.0000000180025095e-35 1.0000105716184671 0.99999235344163384 2.0000220983182984 2.999999481155434 28.890250790039612 0.99999915743047729 1.0000000180025095e-35 86.999774448771987 1.0000000180025095e-35 1.0000000180025095e-35 0.9999442514685456 1.0000000180025095e-35 0.99999113949014207 1.0648846547235629 1.0000000180025095e-35 50.001454108708927 1.9999994811554338 1.0000000180025095e-35 0.49915335885164791 1.0000000180025095e-35 0.9999442514685456 9.0006066724199414 19.949374554377801 0.99984978857994744 1.0000000180025095e-35 1.0000000180025095e-35 0.13691324583223832 3.0000588567942521 3.9999340363667044 1043.4996471267707 0.13691324583223832 0.065680286577853811 0.57759374033421573 1.0000000180025095e-35 1.0000000180025095e-35 0.136865694591182
decision_type=2 2 2 2 2 2 2 2 2 2 2 2 2 2 2 2 2 2 2 2 2 2 2 2 2 2 2 2 2 2 2 2 2 2 2 2 2 2 2 2 2 2 2 2 2 2 2 2 2 2 2 2 2 2 2 2 2 2 2 2 2 2 2 2 2 2 2 2 2
left_child=2 3 7 5 8 11 14 19 40 23 -8 43 55 16 15 22 -14 18 26 20 30 -22 47 24 -3 -6 27 -11 29 -29 31 -1 50 -18 46 -15 -37 -24 39 -27 41 -5 56 52 -32 -46 -13 -4 -49 -30 -12 -42 -2 -19 -55 -9 57 -39 -16 -26 -38 -62 66 -45 -61 -31 67 68 -28
right_child=1 9 6 4 25 -7 10 12 -10 17 32 34 13 35 58 -17 33 53 -20 -21 21 -23 37 -25 59 38 62 28 49 65 44 -33 -34 -35 -36 36 60 42 -40 -41 51 -43 -44 63 45 -47 -48 48 -50 -51 -52 -53 -54 54 -56 -57 -58 -59 -60 64 61 -63 -64 -65 -66 -67 -68 -69 -70
leaf_value=-0.015506012346712034 -0.0075237300324195204 -0.012328288528211362 -0.014316030453728659 -0.0051929525981444244 -0.017625883943454542 0.01911341694972387 0.019136927316102847 0.010658869328201457 0.018257175967780821 0.019097251512809856 -0.008272152074659896 0.019094981790560059 0.018428279958691309 -0.015426994873347913 -0.01493377072187666 0.019309648558547953 -0.016823006131394772 0.01084892365765008 -0.019160174846049104 -0.018516036548056218 0.019147722235367051 -0.017485000022922328 0.016606371484630632 0.016448965215746698 0.019100794258861017 -0.016628463106878905 0.019219632864804173 0.0081556221856139803 0.013966863792610145 -0.01446582632124304 -0.017197295492532533 0.01996597633058746 0.012703408135956868 0.019286389687839384 -0.0038469039478396488 0.019325929026099625 -0.016677894694907415 -0.0027027269935392039 -0.011292125549298107 0.018690421783795867 -0.012308947792777339 0.016320351366871676 0.0094668068984145003 0.019362791048265632 0.019118580366784186 -0.017052223175902718 0.0031131736811934141 -0.0070299114931731957 0.018919080741250854 -0.0022146063381203456 0.0031067881836511204 -0.00034750837489512146 0.019203445036769549 -0.013804675842258368 0.014407405597728752 -0.015012700924391028 -0.0048557760438171374 0.019451188382941194 -0.0057562136097521859 -0.0045031166931333837 0.019595029906402217 -0.0081873749147838796 0.009541601573386068 -0.016495460781909436 0.013890719879297948 0.0071896577475889616 0.018394010108504912 0.016041618529956236 -0.0064184321207202714
leaf_count=4523 784 3247 3732 2644 41192 17339 14353 320 4476 39504 2686 3054 5331 6457 4178 5716 1445 844 701 94365 4833 2103 1877 2586 1075 432 357 2841 4027 5307 80024 1504 4251 468 2128 915 1401 2667 4540 941 4587 1708 3854 134 2210 15783 1650 6659 844 1149 4719 2130 458 1471 383 10460 6588 1229 4771 1183 353 916 2314 5192 842 349 149156 5095 795
internal_value=0 1.00868 -1.06161 -0.451798 -1.16231 0.996606 0.454209 -1.50425 0.247876 1.61984 1.23423 -0.185976 -0.629137 -0.13281 -0.0272854 0.236317 1.14498 1.67372 1.69775 -1.62394 -1.43043 0.80368 -0.116377 0.328471 -0.207448 -1.62801 1.70977 1.42304 0.0187422 -0.601412 -1.57934 -0.665437 0.398399 -0.799128 0.807947 -1.05426 -0.174767 0.322721 -0.691316 0.75752 -0.389247 0.324269 0.14768 -1.22031 -1.63554 -1.26115 1.34823 -0.750241 -0.411206 1.03733 -0.10202 -0.851555 0.232415 -0.208826 -0.797724 -1.42502 -0.145983 0.428245 -1.00403 0.867049 -0.896653 -0.0459307 1.80646 -1.55929 0.314213 -1.31299 1.81916 1.33613 0.151916
internal_count=618150 316615 301535 93389 62650 30739 68124 233411 15545 223226 26009 13400 28066 17286 42115 33166 7244 214293 211595 205345 110980 6936 27450 8933 6347 47105 210894 53177 13673 8497 104044 6027 11656 1913 6832 10042 3585 16215 5913 1373 11069 4352 14338 6568 98017 17993 4704 11235 7503 5176 7405 6717 1242 2698 1854 10780 10484 3896 8949 3100 2670 1269 157717 5326 2025 5656 155403 6247 1152
shrinkage=0.01


Tree=6
num_leaves=70
num_cat=0
split_feature=45 4 54 10 15 54 54 56 14 54 54 52 31 52 52 52 53 66 48 35 35 31 57 45 13 47 4 4 10 15 44 31 15 14 58 65 12 52 53 36 52 52 52 54 30 45 65 65 16 12 45 54 65 34 15 7 56 61 54 5 42 45 52 52 4 45 21 23 46
split_gain=162022 69174.5 49530.2 24192.7 13783.8 9275.23 8374.86 5986.71 4361.85 3938.68 4522.34 3803.28 3737.91 2938.73 2714.27 4983.36 2406.13 2373.83 2248.24 2216.77 9036.6 4813.85 1912.76 1580.52 1543.56 1712.47 1432.04 8901.62 2260.19 1790.85 1405.73 1791.07 1308.93 3475.52 1257.06 1181.15 1363.51 1128.48 1097.38 1065.29 1056.39 1335.77 974.745 887.066 835.162 786.002 756.277 6206.1 743.749 721.325 665.871 656.314 624.813 585.687 503.416 594.693 502.494 500.46 601.166 472.777 457.594 438.154 429.153 481.81 418.663 399.364 372.528 534.496 345.831
threshold=1.0000000180025095e-35 1.000000842569523 1.0000000180025095e-35 1.0000000180025095e-35 0.9999442514685456 0.9999851065001667 1.0001758007546555 1.0000000180025095e-35 1.0000000180025095e-35 1.9916343516390829 2.0003325032730159 1.0000000180025095e-35 1.0000000180025095e-35 1.0000000180025095e-35 1.0000000180025095e-35 1.9999755031649704 0.99999915743047729 0.99989989502519905 8884.3247704133992 0.99994340889902278 1.0000000180025095e-35 0.13195708732919501 1.0000000180025095e-35 0.13691324583223832 10.098855977567785 1.0000000180025095e-35 2.0000005188445669 1.998096957433851 1.0000000180025095e-35 0.9999442514685456 0.4204558335675509 0.99813313141430615 0.9999442514685456 1.0000000180025095e-35 1.0000000180025095e-35 1.0000000180025095e-35 1.0000016851390459 1.0000105716184671 0.99999915743047729 1.0000000180025095e-35 2.0000220983182984 2.999999481155434 0.031021604890053182 2.9862696710611316 1.0001142217554762 0.99999235344163384 1.0000000180025095e-35 0.99999113949014207 1.0000000180025095e-35 1.999999740577717 0.13691324583223832 2.9862696710611316 0.99999113949014207 1.0263916356230343 0.9999442514685456 4.0001895117366058 14.853602692773844 0.49915335885164791 0.9999851065001667 1.000000842569523 1.0648846547235629 0.13691324583223832 3.0000588567942521 3.9999340363667044 1043.4996471267707 0.13707808011531761 1.0000000180025095e-35 0.99397680012413814 1.0000000180025095e-35
decision_type=2 2 2 2 2 2 2 2 2 2 2 2 2 2 2 2 2 2 2 2 2 2 2 2 2 2 2 2 2 2 2 2 2 2 2 2 2 2 2 2 2 2 2 2 2 2 2 2 2 2 2 2 2 2 2 2 2 2 2 2 2 2 2 2 2 2 2 2 2
left_child=2 3 7 4 8 -4 68 19 30 -8 -11 24 22 44 56 16 -16 18 26 20 32 -22 50 -6 25 -3 27 -13 29 59 31 -2 33 -1 -25 36 43 -18 42 -30 -17 -42 -36 -15 51 60 -34 -48 -31 -38 -5 -12 -37 -53 -19 -56 -9 -32 -59 -29 -24 -27 -43 -64 66 -63 67 -28 -7
right_child=1 11 5 12 23 6 9 14 -10 10 13 17 -14 35 15 40 37 54 -20 -21 21 -23 45 34 -26 61 64 28 39 48 57 -33 46 -35 38 52 49 -39 -40 -41 41 62 -44 -45 -46 -47 47 -49 -50 -51 -52 53 -54 -55 55 -57 -58 58 -60 -61 -62 65 63 -65 -66 -67 -68 -69 -70
leaf_value=-0.015361307408943746 0.018335451097569809 -0.012209148325465219 0.018959688006039921 0.019067589422636345 0.018969901571099061 -0.016859102801826498 0.018976204950712856 0.016840188429236368 0.018164548086291844 -0.013968037309374593 0.018695540018130247 0.018925170294570411 0.018920694474657693 0.019042053282654403 0.018258172610634602 -0.015282187630514473 -0.016665919913034125 0.010744162675071294 -0.018986337210827153 -0.01834858588117478 0.018974297922127081 -0.017323855727680009 0.01892494738449816 -0.017305473091756566 0.016296924694766381 0.018928613500972226 0.014611821232922664 -0.0056557898655665503 -0.011206549012126839 -0.014796241437812704 -0.011626797895641772 -0.0049452447915368097 -0.017039344224150765 0.019769634175939826 -0.017005619820764643 0.018954082037205288 0.019465197028104599 0.019109087338889403 -0.012334866859272717 0.017172408186757266 0.019147482759336639 -0.016522196522025148 0.018585548712123267 -0.009959723689982632 0.017781761201903234 -0.0025973192868604454 0.018945937062486248 -0.016894912880220485 0.00060459096409140264 0.0059295574073228519 -0.015159873222923533 -0.0098578712853605015 0.0085764778508245834 0.0087439586443782344 -0.016023865015701654 0.0079129015883286288 -0.014719885224468866 0.019194722667365133 -0.0057481925341212317 0.01243712867865052 0.0042240866809630994 -0.0053538110661883803 0.019408909594473035 -0.0081070377016086541 0.009449429415408845 0.012438462496269009 0.018227116051223621 -0.011699246503608349 -0.010184648968163417
leaf_count=4523 2379 3247 14113 252 520 6502 6807 206 6121 5710 393 39504 15383 497 5331 6457 1445 844 701 94365 4833 2103 2498 44448 2586 1075 5921 781 627 4947 5051 2985 80024 1504 446 5632 2165 468 4707 3411 915 1401 1000 2833 613 1658 2210 15783 1682 5798 2386 6383 3960 758 1225 629 10574 495 1776 2225 1284 1061 353 916 2314 964 149156 326 5960
internal_value=0 0.999431 -1.05179 -0.447615 -1.03787 0.449854 0.0725461 -1.49048 0.427203 0.504225 0.23166 1.60504 1.31233 0.551821 -0.623246 -0.131569 1.13439 1.65845 1.68228 -1.60912 -1.41727 0.796363 0.209996 -1.57734 0.325355 -0.205457 1.69418 1.40997 0.018561 -0.507918 -0.24175 0.536629 -1.5648 -0.659145 -1.61303 0.949655 0.511293 -0.791694 -0.765212 1.27607 -1.04434 -0.173116 0.760527 -0.563855 -0.467218 0.888138 -1.62051 -1.24955 -1.08876 0.960874 -1.18917 -0.649961 1.46648 -0.788361 -0.206814 -0.790047 -1.41164 -0.811815 -0.0318312 0.773304 1.39244 0.858803 -0.888117 -0.0454832 1.79003 0.311142 1.80263 1.32362 -1.3665
internal_count=618150 316615 301535 93389 69928 68124 54011 233411 18807 41549 34742 223226 23461 29032 28066 17286 7244 214293 211595 205345 110980 6936 8078 51121 8933 6347 210894 53177 13673 9635 12686 5364 104044 6027 50601 20885 11293 1913 6153 4038 10042 3585 1446 3330 8147 5440 98017 17993 6629 7963 2638 7534 9592 7141 2698 1854 10780 7322 2271 3006 3782 3100 2670 1269 157717 2025 155403 6247 12462
shrinkage=0.01


Tree=7
num_leaves=70
num_cat=0
split_feature=45 4 54 10 15 54 54 56 14 54 54 52 6 52 52 52 53 66 48 35 35 33 38 65 13 47 4 4 10 15 37 36 15 14 65 12 52 48 53 53 36 52 52 54 30 65 65 16 12 54 65 34 54 54 56 15 13 5 45 45 52 52 13 4 8 51 21 23 51
split_gain=158951 67870 48598.4 23732.9 13523.6 9102.57 8212.91 5877.05 4280.03 3865.84 4434.49 3733.79 3508.39 2881.66 2662.01 4888.15 2360.49 2330.1 2205.83 2177.88 8864.89 4723.16 1788.93 1710.09 1514.24 1679.18 1406.02 8739.52 2216.61 1755.78 1375.73 1745.41 1284.94 3408.5 1159.46 1336.69 1106.98 1073.43 1052.04 1923.9 1045.04 1036.17 1310.26 869.867 818.632 742.014 6088.48 729.461 707.871 643.6 614.366 574.128 498.294 591.055 493.694 493.619 584.185 463.624 456.554 430.217 421.062 472.481 416.034 411.685 401.07 374.889 366.414 524.266 346.11
threshold=1.0000000180025095e-35 1.000000842569523 1.0000000180025095e-35 1.0000000180025095e-35 0.9999442514685456 0.9999851065001667 1.0001758007546555 1.0000000180025095e-35 1.0000000180025095e-35 1.9916343516390829 2.0003325032730159 1.0000000180025095e-35 1.0000000180025095e-35 1.0000000180025095e-35 1.0000000180025095e-35 1.9999755031649704 0.99999915743047729 0.99989989502519905 8884.3247704133992 0.99994340889902278 1.0000000180025095e-35 0.99966443986699483 0.136865694591182 1.0000000180025095e-35 10.098855977567785 1.0000000180025095e-35 2.0000005188445669 1.998096957433851 1.0000000180025095e-35 0.9999442514685456 0.58754609730133212 0.9999924875907521 0.9999442514685456 1.0000000180025095e-35 1.0000000180025095e-35 1.0000016851390459 1.0000105716184671 1.0000000180025095e-35 1.0000000180025095e-35 0.99999915743047729 1.0000000180025095e-35 2.0000220983182984 2.999999481155434 2.9862696710611316 1.0001142217554762 1.0000000180025095e-35 0.99999113949014207 1.0000000180025095e-35 1.999999740577717 2.9862696710611316 0.99999113949014207 1.0263916356230343 1.0000000180025095e-35 0.9999851065001667 19.949374554377801 0.9999442514685456 9.0006066724199414 1.000000842569523 0.13691324583223832 0.13691324583223832 3.0000588567942521 3.9999340363667044 0.99998295355291245 1043.4996471267707 0.065680286577853811 1.0000000180025095e-35 1.0000000180025095e-35 0.99397680012413814 1.0000000180025095e-35
decision_type=2 2 2 2 2 2 2 2 2 2 2 2 2 2 2 2 2 2 2 2 2 2 2 2 2 2 2 2 2 2 2 2 2 2 2 2 2 2 2 2 2 2 2 2 2 2 2 2 2 2 2 2 2 2 2 2 2 2 2 2 2 2 2 2 2 2 2 2 2
left_child=2 3 7 4 8 -4 68 19 30 -8 -11 24 23 44 54 16 -16 18 26 20 32 -22 -6 37 25 -3 27 -13 29 57 31 -2 33 -1 35 43 -18 58 -24 -40 -30 -17 -43 -15 49 -34 -47 -31 -37 -12 -36 -51 -32 -54 -9 -19 -57 -29 -5 -27 -44 -62 -39 66 -61 -52 67 -28 -7
right_child=1 11 5 12 22 6 9 14 -10 10 13 17 -14 34 15 41 36 55 -20 -21 21 -23 38 -25 -26 59 63 28 40 47 52 -33 45 -35 50 48 -38 62 39 -41 -42 42 60 -45 -46 46 -48 -49 -50 51 65 -53 53 -55 -56 56 -58 -59 -60 64 61 -63 -64 -65 -66 -67 -68 -69 -70
leaf_value=-0.015219667038574386 0.018241811811671577 -0.012092029351387876 0.018791425894185764 0.01886200129235216 0.0185108527298476 -0.015025513623334569 0.018807489795212236 0.010502565962452302 0.018002693002464067 -0.013835788962365337 0.018526615640031455 0.018757851315251317 0.018760166986998682 0.01887151766523797 0.018092541588578794 -0.015140433203668304 -0.016512508671079243 0.01064099681603217 -0.018817332467732088 -0.018185571700773347 -0.017166665330575297 0.018805688187715414 -0.017186828210655182 0.013421706328219724 0.01614833463539532 0.018761199002286552 0.014476355225440163 -0.0055987161690111758 -0.01109522344325318 -0.01465448271956012 -0.011547827685053292 -0.0047776483660949181 -0.016885185230906801 0.019579033778175797 0.018785968313459547 0.019282845397663468 0.01893675371349799 0.013232596261691787 0.016653386547812121 -0.013181961494909867 0.017015421542593352 0.018974051756614842 -0.016370100665577873 -0.0098606849161753211 0.017604427265981607 0.018778076258705069 -0.016741341056749435 0.00059854836727460641 0.0058707735549927255 -0.0097609648970115957 0.0013839850604039747 0.0086573714600448846 0.019018538543742931 -0.0056477961926929476 -0.014735201728098902 -0.013558441634330325 0.014195438285582972 0.012318718268524414 -0.01620321485220886 -0.0044268279945680177 0.019228116658324201 -0.0080277398684399284 -0.0036066327983304302 0.0093585381875213539 0.013645280226749537 0.0138265715052351 0.018064603624357446 -0.011583227078596632 -0.006061170523020837
leaf_count=4523 2354 3247 14113 159 609 10393 6807 320 6121 5710 393 39504 15130 497 5331 6457 1445 844 701 94365 2103 4833 43675 3430 2586 1075 5921 781 627 4947 5040 3007 80024 1504 5632 2165 468 1167 1019 5818 3411 915 1401 2833 613 2210 15783 1682 5798 6383 1696 758 498 1787 10460 1471 383 2225 2390 1183 353 916 1185 2314 842 2264 149156 326 2069
internal_value=0 0.990412 -1.04224 -0.443534 -1.02838 0.445654 0.0718609 -1.47705 0.423203 0.499449 0.22944 1.59062 1.30048 0.546519 -0.617484 -0.130356 1.12408 1.64357 1.6672 -1.59467 -1.40443 0.789241 -1.56304 0.257252 0.322301 -0.203502 1.67899 1.39725 0.0183847 -0.503001 -0.239431 0.531166 -1.55061 -0.653 0.940602 0.506296 -0.784442 -0.501461 -1.60419 -0.873947 1.26425 -1.03463 -0.171501 -0.55833 -0.462634 -1.60585 -1.23822 -1.07822 0.951491 -0.643593 1.45292 -0.780605 -0.803198 -0.0282076 -1.39851 -0.20484 -0.782524 0.765828 -1.40187 0.850719 -0.879753 -0.045043 0.473674 1.77402 0.308119 0.849245 1.78653 1.31131 -1.35363
internal_count=618150 316615 301535 93389 69928 68124 54011 233411 18807 41549 34742 223226 23461 29032 28066 17286 7244 214293 211595 205345 110980 6936 51121 8331 8933 6347 210894 53177 13673 9635 12686 5361 104044 6027 20885 11293 1913 4901 50512 6837 4038 10042 3585 3330 8147 98017 17993 6629 7963 7534 9592 7141 7325 2285 10780 2698 1854 3006 2549 3100 2670 1269 2352 157717 2025 3960 155403 6247 12462
shrinkage=0.01


Tree=8
num_leaves=70
num_cat=0
split_feature=45 4 54 10 15 54 54 56 14 54 54 52 31 52 52 52 53 66 48 35 35 31 57 38 13 47 4 4 10 15 44 31 15 14 65 12 58 52 36 52 52 53 52 54 30 45 65 65 16 12 45 30 30 65 0 56 67 15 7 5 42 45 52 52 4 61 8 21 23
split_gain=155958 66600.5 47691.3 23284.2 13270.2 8934.79 8054.77 5770.54 4200.42 3795.1 4348.75 3666.44 3606.18 2826.02 2611 4795.39 2316.09 2287.67 2164.54 2140.32 8697.57 4634.92 1849.69 1755.25 1485.66 1646.66 1380.72 8582.33 2174.12 1721.52 1351.81 1725.17 1261.58 3343.25 1138.55 1310.48 1109.26 1086.05 1025.33 1016.45 1285.42 1009.25 923.321 853.092 802.516 761.598 728.108 5973.92 715.572 694.926 643.901 637.964 985.405 604.175 490.167 485.386 484.457 484.041 575.311 454.684 447.03 422.541 413.19 463.395 405.027 400.511 393.325 360.584 514.283
threshold=1.0000000180025095e-35 1.000000842569523 1.0000000180025095e-35 1.0000000180025095e-35 0.9999442514685456 0.9999851065001667 1.0001758007546555 1.0000000180025095e-35 1.0000000180025095e-35 1.9916343516390829 2.0003325032730159 1.0000000180025095e-35 1.0000000180025095e-35 1.0000000180025095e-35 1.0000000180025095e-35 1.9999755031649704 0.99999915743047729 0.99989989502519905 8884.3247704133992 0.99994340889902278 1.0000000180025095e-35 0.13195708732919501 1.0000000180025095e-35 0.136865694591182 10.098855977567785 1.0000000180025095e-35 2.0000005188445669 1.998096957433851 1.0000000180025095e-35 0.9999442514685456 0.4204558335675509 0.99813313141430615 0.9999442514685456 1.0000000180025095e-35 1.0000000180025095e-35 1.0000016851390459 1.0000000180025095e-35 1.0000105716184671 1.0000000180025095e-35 2.0000220983182984 2.999999481155434 0.99999915743047729 0.031021604890053182 2.9862696710611316 1.0001142217554762 0.99999235344163384 1.0000000180025095e-35 0.99999113949014207 1.0000000180025095e-35 1.999999740577717 0.13691324583223832 0.999982688636189 1.0000000180025095e-35 0.99999113949014207 2407161.5000000005 14.853602692773844 0.99998797020413932 0.9999442514685456 4.0001895117366058 1.000000842569523 1.0648846547235629 0.13691324583223832 3.0000588567942521 3.9999340363667044 1043.4996471267707 0.49915335885164791 0.065680286577853811 1.0000000180025095e-35 0.99397680012413814
decision_type=2 2 2 2 2 2 2 2 2 2 2 2 2 2 2 2 2 2 2 2 2 2 2 2 2 2 2 2 2 2 2 2 2 2 2 2 2 2 2 2 2 2 2 2 2 2 2 2 2 2 2 2 2 2 2 2 2 2 2 2 2 2 2 2 2 2 2 2 2
left_child=2 3 7 4 8 -4 -7 19 30 -8 -11 24 22 44 55 16 -16 18 26 20 32 -22 50 -6 25 -3 27 -13 29 59 31 -2 33 -1 35 43 -25 -18 -30 -17 -41 42 -38 -15 51 60 -34 -48 -31 -37 -5 52 -12 -36 -32 -9 -53 -19 -59 -29 -24 -27 -42 -64 67 -56 -63 68 -28
right_child=1 11 5 12 23 6 9 14 -10 10 13 17 -14 34 15 39 37 57 -20 -21 21 -23 45 36 -26 61 64 28 38 48 54 -33 46 -35 53 49 41 -39 -40 40 62 -43 -44 -45 -46 -47 47 -49 -50 -51 -52 56 -54 -55 65 -57 -58 58 -60 -61 -62 66 63 -65 -66 -67 -68 -69 -70
leaf_value=-0.015080980858031053 0.018013484118708942 -0.011976868784547377 0.018627775383910347 0.018762742531523723 0.018348359055295194 -0.01340974838311162 0.018643403836795285 0.016584888407867669 0.01784501211946073 -0.013706043552738925 -0.0061718317715477311 0.018595106324815047 0.018592351388668889 0.018705682489610142 0.017931212090845267 -0.015001623326728273 -0.016362634260238991 0.010539382757669328 -0.018652967561814254 -0.018026821237443841 0.018641702908168807 -0.017013279065450679 0.01864901270208737 -0.016997278673145027 0.01600306836632864 0.01859836241568999 0.014343559752763557 -0.0055423112507328011 -0.010985677928996938 -0.014515593864442553 -0.014953438230878316 -0.0048492672304736644 -0.016734673352972823 0.019393935829933082 0.018622459493324361 0.019105665968542771 -0.016693803313642674 0.01876919092012657 0.016862193190429857 0.018805435451176137 -0.016221473414994123 -0.012328418974910889 0.018257734959385645 -0.0097631042953788081 0.017431582295201007 -0.0025685060674210786 0.01861481243890576 -0.016591364476867491 0.00059256631275686835 0.0058126684270694449 -0.014927401318346769 -0.0045871050519302407 0.018816767272550938 0.0084107803247764675 -0.0083387962565179292 -0.014450250988247428 -0.01820856502662991 -0.015747939189585797 0.0078049612706172699 0.012202311803171766 0.0041123734910218654 -0.0043828335423958436 0.0190524334473798 -0.0079494591700818816 0.0092688957286918248 0.0039332963061544128 0.013517530827665065 0.017906302612132975 -0.011469124710835069
leaf_count=4523 2379 3247 14113 252 609 12462 6807 206 6121 5710 2503 39504 15383 497 5331 6457 1445 844 701 94365 4833 2103 2498 44445 2586 1075 5921 781 627 4947 2596 2985 80024 1504 5632 2165 446 468 3411 915 1401 4671 950 2833 613 1658 2210 15783 1682 5798 2386 2036 846 3960 3104 10574 2149 1225 629 2225 1284 1183 353 916 2314 1622 842 149156 326
internal_value=0 0.981607 -1.03291 -0.439537 -1.01909 0.441544 0.0711896 -1.46395 0.41928 0.494773 0.227264 1.57655 1.28884 0.54132 -0.611848 -0.129171 1.11402 1.62907 1.6525 -1.58058 -1.3919 0.782309 0.205734 -1.54907 0.319302 -0.20158 1.66419 1.38484 0.0182118 -0.498168 -0.237148 0.526589 -1.53676 -0.646995 0.93174 0.50138 -1.58985 -0.777365 1.25269 -1.02513 -0.16992 -0.786675 0.708782 -0.552894 -0.458123 0.872856 -1.59153 -1.22717 -1.06786 0.942258 -1.17123 -0.637321 0.0137454 1.43972 -0.796356 -1.38565 -1.15817 -0.202896 -0.775121 0.758468 1.36987 0.84277 -0.871556 -0.0446098 1.75843 -0.412584 0.305132 1.77085 1.29923
internal_count=618150 316615 301535 93389 69928 68124 54011 233411 18807 41549 34742 223226 23461 29032 28066 17286 7244 214293 211595 205345 110980 6936 8078 51121 8933 6347 210894 53177 13673 9635 12686 5364 104044 6027 20885 11293 50512 1913 4038 10042 3585 6067 1396 3330 8147 5440 98017 17993 6629 7963 2638 7534 3349 9592 7322 10780 4185 2698 1854 3006 3782 3100 2670 1269 157717 4726 2025 155403 6247
shrinkage=0.01


end of trees

feature importances:
Column_52=72
Column_54=70
Column_15=42
Column_65=36
Column_45=35
Column_4=33
Column_53=23
Column_31=16
Column_46=15
Column_14=14
Column_35=14
Column_51=14
Column_57=14
Column_10=13
Column_56=12
Column_13=11
Column_23=10
Column_38=10
Column_12=9
Column_30=9
Column_36=9
Column_47=9
Column_5=8
Column_7=8
Column_16=8
Column_21=8
Column_44=7
Column_58=7
Column_61=7
Column_66=7
Column_0=6
Column_42=6
Column_3=5
Column_8=5
Column_33=5
Column_48=5
Column_1=4
Column_9=4
Column_25=4
Column_55=4
Column_34=3
Column_64=3
Column_67=3
Column_37=2
Column_40=2
Column_2=1
Column_6=1
Column_20=1
Column_24=1
Column_26=1
Column_27=1
Column_41=1
Column_43=1
Column_50=1
Column_60=1

parameters:
[boosting: gbdt]
[objective: binary]
[metric: auc]
[tree_learner: serial]
[device_type: cpu]
[data: ]
[valid: ]
[num_iterations: 100]
[learning_rate: 0.01]
[num_leaves: 70]
[num_threads: 0]
[max_depth: 10]
[min_data_in_leaf: 100]
[min_sum_hessian_in_leaf: 0.001]
[bagging_fraction: 0.8]
[bagging_freq: 5]
[bagging_seed: 3]
[feature_fraction: 0.9]
[feature_fraction_seed: 2]
[early_stopping_round: 0]
[max_delta_step: 0]
[lambda_l1: 0]
[lambda_l2: 0]
[min_gain_to_split: 0]
[drop_rate: 0.1]
[max_drop: 50]
[skip_drop: 0.5]
[xgboost_dart_mode: 0]
[uniform_drop: 0]
[drop_seed: 4]
[top_rate: 0.2]
[other_rate: 0.1]
[min_data_per_group: 100]
[max_cat_threshold: 32]
[cat_l2: 10]
[cat_smooth: 10]
[max_cat_to_onehot: 4]
[top_k: 20]
[monotone_constraints: ]
[feature_contri: ]
[forcedsplits_filename: ]
[refit_decay_rate: 0.9]
[verbosity: 0]
[max_bin: 255]
[min_data_in_bin: 3]
[bin_construct_sample_cnt: 200000]
[histogram_pool_size: -1]
[data_random_seed: 1]
[output_model: LightGBM_model.txt]
[snapshot_freq: -1]
[input_model: ]
[output_result: LightGBM_predict_result.txt]
[initscore_filename: ]
[valid_data_initscores: ]
[pre_partition: 0]
[enable_bundle: 1]
[max_conflict_rate: 0]
[is_enable_sparse: 1]
[sparse_threshold: 0.8]
[use_missing: 1]
[zero_as_missing: 0]
[two_round: 0]
[save_binary: 0]
[enable_load_from_binary_file: 1]
[header: 0]
[label_column: ]
[weight_column: ]
[group_column: ]
[ignore_column: ]
[categorical_feature: ]
[predict_raw_score: 0]
[predict_leaf_index: 0]
[predict_contrib: 0]
[num_iteration_predict: -1]
[pred_early_stop: 0]
[pred_early_stop_freq: 10]
[pred_early_stop_margin: 10]
[convert_model_language: ]
[convert_model: gbdt_prediction.cpp]
[num_class: 1]
[is_unbalance: 0]
[scale_pos_weight: 1]
[sigmoid: 1]
[boost_from_average: 1]
[reg_sqrt: 0]
[alpha: 0.9]
[fair_c: 1]
[poisson_max_delta_step: 0.7]
[tweedie_variance_power: 1.5]
[max_position: 20]
[label_gain: ]
[metric_freq: 1]
[is_provide_training_metric: 0]
[eval_at: ]
[num_machines: 1]
[local_listen_port: 12400]
[time_out: 120]
[machine_list_filename: ]
[machines: ]
[gpu_platform_id: -1]
[gpu_device_id: -1]
[gpu_use_dp: 0]

end of parameters

pandas_categorical:null
