tree
version=v2
num_class=1
num_tree_per_iteration=1
label_index=0
max_feature_idx=67
objective=binary sigmoid:1
feature_names=Column_0 Column_1 Column_2 Column_3 Column_4 Column_5 Column_6 Column_7 Column_8 Column_9 Column_10 Column_11 Column_12 Column_13 Column_14 Column_15 Column_16 Column_17 Column_18 Column_19 Column_20 Column_21 Column_22 Column_23 Column_24 Column_25 Column_26 Column_27 Column_28 Column_29 Column_30 Column_31 Column_32 Column_33 Column_34 Column_35 Column_36 Column_37 Column_38 Column_39 Column_40 Column_41 Column_42 Column_43 Column_44 Column_45 Column_46 Column_47 Column_48 Column_49 Column_50 Column_51 Column_52 Column_53 Column_54 Column_55 Column_56 Column_57 Column_58 Column_59 Column_60 Column_61 Column_62 Column_63 Column_64 Column_65 Column_66 Column_67
feature_infos=[413891:15290685] [14.500999999999999:647.98000000000002] [100:231] [10:101] [0:4685] [0:5691] [0:2253] [0:2253] [0:2255] [0:3331] [0:210] [0:3257] [0:3188] [0:3188] [0:2918] [0:1429] [0:640] [0:859] [-53:868] [0:3] [0:5] [0:14.679215380076174] [0:8] [0:4] [0:7] [0:23.623211115886761] [0:48] [0:48] [0:4] [0:5] [0:5] [0:5] [0:7] [0:1] [0:8] [0:5.0758231550733228] [0:8] [0:6] [0:4] [0:18.713630868042994] [0:4] [0:6] [0:29.878911255680364] [0:29.878911255680364] [0:5] [0:1] [0:94901] [0:145787] [0:102935] [0:133915] [0:97916] [0:22] [0:68] [0:9] [0:1286] [0:88] [0:94901] [0:102880] [0:12307.5] [0:3162.949951171875] [0:134021] [0:97916] [0:50820] [0:1] [0:1] [0:1] [0:1] [0:1]
tree_sizes=5002 4995 4977 4990 4991 5021 5004 5020 5025 5003 4997 5015 5002 4998 4994 5012 4983 5005 5009 5020

Tree=0
num_leaves=60
num_cat=0
split_feature=45 5 54 15 10 54 54 52 56 53 30 33 54 54 52 52 52 31 13 35 35 31 53 47 57 38 65 65 7 67 52 52 50 52 65 12 54 36 54 46 47 27 15 27 15 31 52 23 65 52 58 12 10 30 41 15 52 45 52
split_gain=201028 74617.5 63426.5 27277.5 17407.7 11166.5 10426.4 8588.22 8363.84 5772.49 9071.23 5634.53 4767.86 5921.36 3469.45 6248.32 3350.91 3169.41 3070.47 3014.17 12915.8 6115.77 2999.58 2888.83 2305.72 2222.1 1798.08 9864.13 1607.31 1558.25 1539.96 1558.84 1463.16 1459.51 1296.02 1520.44 1221.16 1205.03 1167.2 1148.51 1096.48 1265.77 1031.29 1014.71 1254.43 907.263 835.284 793.977 718.248 715.603 655.944 625.838 604.072 762.244 599.911 851.532 598.94 590.905 581.079
threshold=1.0000000180025095e-35 1.0000644413860242 1.0000000180025095e-35 0.99771444318839853 1.0000000180025095e-35 0.99995310207318966 1.0001403640836029 1.0000000180025095e-35 1.0000000180025095e-35 0.99983507919222514 1.0000000180025095e-35 0.99966306592900345 1.9997233864866684 2.0001958887595803 1.0000000180025095e-35 1.9999923869285381 1.0000000180025095e-35 1.0000000180025095e-35 10.00025699696752 0.99841426825323865 1.0000000180025095e-35 0.13244910009057545 0.99983507919222514 1.0000000180025095e-35 1.0000000180025095e-35 0.13661049288598598 1.0000000180025095e-35 0.9999813708023525 1.0000644413860242 1.0000000180025095e-35 2.0000215969207726 2.9942316734169059 1.0000000180025095e-35 1.0000570156007185 1.0000000180025095e-35 1.0000025350829158 0.99995310207318966 0.99778636132109477 2.9791451738837647 1.0000000180025095e-35 1.0000000180025095e-35 1.000003599622352 1.0000000180025095e-35 1.000003599622352 1.0000000180025095e-35 0.99997914545648314 1.0000570156007185 0.99555363742934222 0.9999813708023525 3.0000986763648103 1.0000000180025095e-35 5.9853473379864219 5.0006238932717197 0.99795604884110467 0.88196703168064849 1.9999282129479659 2.0000215969207726 0.13654799148958785 1.9999923869285381
decision_type=2 2 2 2 2 2 2 2 2 2 2 2 2 2 2 2 2 2 2 2 2 2 2 2 2 2 2 2 2 2 2 2 2 2 2 2 2 2 2 2 2 2 2 2 2 2 2 2 2 2 2 2 2 2 2 2 2 2 2
left_child=2 3 8 11 25 -4 -7 18 19 29 28 32 -8 -14 -10 22 39 24 23 20 26 -22 -16 -3 -6 -5 -1 -28 -11 40 -17 -32 42 -24 35 38 -34 -13 -18 -15 41 45 -2 44 -39 -9 -12 -37 -36 -33 -27 52 53 -41 55 58 -30 -25 -43
right_child=1 7 5 4 17 6 12 9 14 10 46 37 13 16 15 30 34 -19 -20 -21 21 -23 33 57 -26 50 27 -29 56 -31 31 49 36 -35 48 47 -38 43 -40 51 -42 54 -44 -45 -46 -47 -48 -49 -50 -51 -52 -53 -54 -55 -56 -57 -58 -59 -60
leaf_value=-0.053252237691116332 -0.028007979481333711 -0.043151426786086231 0.059993145990404374 0.058532961931290615 -0.043360685498511367 -0.041885493263059459 0.059986010725110749 0.051512944983818768 -0.043485411403378402 -0.037089611419508325 -0.031163007940214857 0.057686919565559575 -0.043946914644660669 -0.040119956379498369 0.057712801769741272 -0.048222423295220855 0.059836660617059882 0.059980701190093272 0.052101528035291868 -0.058234030444761865 0.059981922265742692 -0.054284011578409681 -0.051709956709956706 0.059907152682255847 0.026092189612315207 -0.054768276451148776 0.059968134072937565 -0.050994665894806487 -0.022399608227228206 0.057063387739556132 0.059898895337951695 -0.052033287790336606 0.050021291696238465 0.059809254680324962 0.05998193738292748 0.035903389134698711 -0.014994892747701735 -0.013866723259762308 -0.02745584955698873 0.026003265776582463 0.05528969229465118 0.050398281921124562 0.059792785878741359 0.053771612648741043 0.059908022483392949 -0.0030836037411719796 0.053661590446213658 -0.035193644488579937 0.028530622748327329 0.0044697438435837141 -0.017784211112348288 -0.040281862745098033 0.049459052085077872 -0.026364863461738136 0.049668302092506389 -0.019101085481682493 0.028641393925123618 0.0085081105780214755 -0.011209773539928485
leaf_count=94784 6315 5760 15756 645 2753 14115 7719 1482 12111 6556 427 15246 6494 3300 6237 7293 660 5595 3127 106132 5973 2348 1662 1162 4585 48233 3388 19346 1224 172234 1067 1609 2535 565 5978 8768 1761 2826 3317 2081 18874 3072 520 3041 1173 4190 17282 603 4662 1615 1795 978 1193 1925 14307 1178 2547 2625 670
internal_value=0 1.05755 -1.0934 -0.4366 -1.20525 0.496876 0.113616 1.62225 -1.56031 1.70561 0.851683 1.02641 0.560639 0.282601 -0.604374 -0.0937095 0.621786 0.865674 0.0169465 -1.69283 -1.48338 0.924371 1.21235 -0.546365 0.000926532 -1.73384 -1.65388 -1.14847 -0.637943 1.81643 -1.04813 -0.0971064 -0.135535 -0.779463 1.01958 0.604291 0.778833 1.60679 -0.431552 -0.384968 1.47925 1.2034 -0.710453 0.921832 0.259187 0.37277 1.72041 1.04402 1.54032 -0.790897 -1.78142 0.12379 0.400138 0.0276502 1.44833 0.845078 0.4021 0.810095 1.31193
internal_count=695419 353740 341679 97023 63606 77549 61793 256717 264130 244043 28036 33417 47678 39959 32159 20048 33465 12933 12674 231971 125839 8321 8464 9547 7338 50673 117518 22734 10327 216007 11584 4291 11131 2227 23988 13348 4296 22286 3977 9477 43773 24899 6835 7040 3999 5672 17709 9371 10640 3224 50028 6177 5199 4006 19227 4920 3771 3787 3742
shrinkage=0.03


Tree=1
num_leaves=60
num_cat=0
split_feature=45 4 54 10 15 54 54 51 51 14 54 54 31 35 35 31 66 51 24 38 54 57 38 55 55 54 4 4 10 15 2 65 65 37 31 58 54 54 53 51 53 57 4 34 30 61 57 15 7 45 54 45 55 55 4 62 39 55 54
split_gain=189285 80940.1 59727.3 28482.9 16605.3 10517.7 9814.92 7250.17 5926.7 4544.56 4491.29 5574.05 4291.34 4084.37 13858.5 6723.73 3293.24 3017.68 2854.17 2628.57 2261.98 2172.25 2127.66 2111.06 4788.06 2009.54 1929.55 10902.2 3713.35 2172.66 1802.82 1617.33 8966.36 1492.91 2174.66 1487 1311.04 1348.33 1292.02 1192.11 1170.53 1150.1 1096.55 1042.76 1017.05 927.158 926.944 875.576 864.433 819.036 764.919 757.834 672.972 1121.76 656.833 551.283 515.365 507.038 499.454
threshold=1.0000000180025095e-35 1.0000076052487465 1.0000000180025095e-35 1.0000000180025095e-35 0.99771444318839853 0.99995310207318966 1.0001403640836029 1.0000000180025095e-35 0.99789412624123641 1.0000000180025095e-35 1.9997233864866684 2.0001958887595803 1.0000000180025095e-35 0.99841426825323865 1.0000000180025095e-35 0.13244910009057545 0.9999813708023525 1.0000000180025095e-35 1.0000000180025095e-35 0.13661049288598598 2.9791451738837647 1.0000000180025095e-35 0.13661049288598598 1.0000000180025095e-35 0.99999746491708463 3.0004881818030666 2.0000053406197549 1.9944194461464353 1.0000000180025095e-35 0.99771444318839853 150.00065202191769 1.0000000180025095e-35 0.9999813708023525 0.58732731687454642 0.99997914545648314 1.0000000180025095e-35 3.996983603173216 4.0004751589414838 0.99983507919222514 1.0001521257599071 1.0000000180025095e-35 1.0000000180025095e-35 1.9944194461464353 1.0000193012391281 1.0001646906449053 1.0000000180025095e-35 1.0000000180025095e-35 0.99771444318839853 4.0002332685496951 0.13654799148958785 0.99995310207318966 0.99997925493608097 1.0000493381824052 1.9904221068203987 920.89309416766309 1.0000000180025095e-35 0.14395001988165981 0.99999746491708463 1.0001403640836029
decision_type=2 2 2 2 2 2 2 2 2 2 2 2 2 2 2 2 2 2 2 2 2 2 2 2 2 2 2 2 2 2 2 2 2 2 2 2 2 2 2 2 2 2 2 2 2 2 2 2 2 2 2 2 2 2 2 2 2 2 2
left_child=2 3 7 4 9 -4 55 13 46 33 -8 -12 21 14 23 -16 18 20 19 -3 -13 49 -6 31 -25 -22 27 -20 29 -29 42 -1 -33 34 -2 -24 -27 -38 40 -10 -37 -31 -21 44 -39 -35 -9 -18 -49 -5 -47 56 -26 -54 -28 -7 -23 -57 -52
right_child=1 16 5 12 22 6 10 8 39 -11 11 17 -14 -15 15 -17 47 -19 26 30 25 51 35 24 52 36 54 28 -30 41 -32 32 -34 45 -36 38 37 43 -40 -41 -42 -43 -44 -45 -46 50 -48 48 -50 -51 58 -53 53 -55 -56 57 -58 -59 -60
leaf_value=-0.052006924347738785 0.056906345848438629 0.054735538592036365 0.058246402992669151 0.059146584807136138 0.056766457699208725 -0.045811489455539596 0.058239600765110061 -0.022723217251423712 -0.047275220780292899 0.055963618240357477 -0.042649545529040718 0.058705921445748536 0.058338340690730545 -0.056195792743488231 0.058375519381617808 -0.053528229818005368 0.036385390947776944 0.042531399916739418 0.058418531261694787 0.058403705901250699 -0.047984548328108952 0.05871824570019487 -0.053210017864123868 0.059368743100480764 -0.05257192852986254 0.059165465410136654 0.055344568142094652 0.024395940551174528 0.051288603127415004 -0.049189081774850957 0.04614389382028336 0.058334516946402279 -0.049592204374142551 -0.034533184917845489 -0.014732161862912341 -0.05069339638208234 -0.046769585585435342 -0.0085786150855608964 -0.037794016943073605 0.010823063600975713 0.058486189463054575 -0.0054164556023801195 -0.035577876004414866 0.03939393942055535 0.051031263766411497 0.05858856386390357 0.05804240245042671 -0.051055911373885911 0.022226045381682453 -0.045054162579987699 -0.046858394768972286 -0.0016439681630641247 0.059422947954947611 -0.03274819302377191 0.026660422302599882 0.060494652717356399 0.01459638099419191 -0.024356528533118038 0.011171303572142776
leaf_count=94146 2827 4607 15756 301 685 11866 7719 576 5940 6420 6494 2482 17162 112187 7138 2652 1183 11793 42296 502 2921 2623 49678 2126 5991 1517 172370 3555 3983 5228 1784 3237 19321 5731 3313 520 1886 8826 5366 1617 1098 3690 4011 2874 1166 760 4521 1692 880 2685 862 2094 536 4142 2933 290 1503 1959 1398
internal_value=0 1.02656 -1.06136 -0.446086 -1.0493 0.482251 0.110264 -1.51465 -0.0368909 0.458372 0.544098 0.274242 1.35338 -1.58901 -1.36013 0.935066 1.6485 0.603386 1.67701 0.676202 0.160202 0.251392 -1.60971 -1.53364 -0.761914 -0.0721807 1.72363 1.40967 0.0279799 -0.508964 -0.163773 -1.61824 -1.13681 -0.148014 0.608007 -1.6521 0.202084 0.0198439 -0.787366 -1.16128 0.778673 -1.03612 -0.83685 0.251519 -0.0538253 -0.678534 1.63016 -0.210427 -0.865715 -1.15069 0.218024 0.924688 -1.30827 -0.738931 1.82883 -1.3549 1.42206 -0.445762 -0.365366
internal_count=695419 353740 341679 105026 78658 77549 61793 264130 12654 21311 47678 39959 26368 251476 139289 9790 248714 33465 244959 10904 21672 9206 57347 129499 12795 19190 234055 58752 16456 12473 6297 116704 22558 14891 6140 56662 16269 14752 6984 7557 1618 8918 4513 12866 9992 8751 5097 3755 2572 2986 3020 6220 10669 4678 175303 14115 4126 2249 2260
shrinkage=0.03


Tree=2
num_leaves=60
num_cat=0
split_feature=45 4 54 10 15 54 54 56 14 54 54 52 31 52 52 52 23 23 21 48 67 4 15 57 38 13 47 4 4 65 65 58 37 31 52 52 65 12 52 52 54 46 10 61 7 57 45 5 14 12 54 4 45 65 14 52 5 33 14
split_gain=178469 76326.6 56332.2 26851.1 15658.8 9926.7 9247.39 7508.63 4286.8 4240.5 5251.13 4141.74 4053.69 3085.83 5581.14 3019.25 2648.02 13006.7 4133.69 2542.52 2183.95 2297.35 3701.03 2046.14 2006.18 1832.18 1850.67 1747.78 2036.98 1638.39 8881.66 1406.02 1405.89 2050.88 1380.4 1418.85 1194.72 1393.17 1192.72 2779.58 1061.16 1050.26 990.644 872.965 867.459 802.99 771.764 741.842 978.921 723.09 721.267 717.215 714.765 659.542 659.513 656.22 558.694 1514.81 661.899
threshold=1.0000000180025095e-35 1.0000076052487465 1.0000000180025095e-35 1.0000000180025095e-35 0.99771444318839853 0.99995310207318966 1.0001403640836029 1.0000000180025095e-35 1.0000000180025095e-35 1.9997233864866684 2.0001958887595803 1.0000000180025095e-35 1.0000000180025095e-35 1.0000000180025095e-35 1.9999923869285381 1.0000000180025095e-35 0.99555363742934222 1.0000000180025095e-35 0.13403613932470318 8677.7298434416898 1.0000000180025095e-35 3.0000109061836335 1.9999282129479659 1.0000000180025095e-35 0.13661049288598598 10.00025699696752 1.0000000180025095e-35 1.9944194461464353 2.0000053406197549 1.0000000180025095e-35 0.9999813708023525 1.0000000180025095e-35 0.58732731687454642 0.99997914545648314 2.0000215969207726 2.9942316734169059 1.0000000180025095e-35 1.0000025350829158 1.0000570156007185 0.99999746491708463 2.9791451738837647 1.0000000180025095e-35 0.046339394345180647 1.0000000180025095e-35 455.32025887692555 1.0000000180025095e-35 0.13654799148958785 1.9999947159676887 1.9947856720541088 2.999902395985885 0.99995310207318966 2.999996221045691 0.99997925493608097 0.9999813708023525 79.002989566723983 3.0000986763648103 1.0000644413860242 0.99966306592900345 0.99975103482855565
decision_type=2 2 2 2 2 2 2 2 2 2 2 2 2 2 2 2 2 2 2 2 2 2 2 2 2 2 2 2 2 2 2 2 2 2 2 2 2 2 2 2 2 2 2 2 2 2 2 2 2 2 2 2 2 2 2 2 2 2 2
left_child=2 3 7 4 8 -4 -7 16 32 -8 -11 25 23 -9 38 41 17 29 -19 20 21 22 27 46 -6 26 -3 -13 45 -1 -31 -26 33 -2 -16 -36 37 40 39 -15 -17 -12 -24 -34 -23 -29 -5 48 -33 -39 -45 -30 -25 -38 -43 -37 57 58 -22
right_child=1 11 5 12 24 6 9 13 -10 10 15 19 -14 14 34 36 -18 18 -20 -21 56 44 42 52 31 -27 -28 28 51 30 -32 47 43 -35 35 55 53 49 -40 -41 -42 54 -44 50 -46 -47 -48 -49 -50 -51 -52 -53 -54 -55 -56 -57 -58 -59 -60
leaf_value=-0.050488400972131565 0.055319483036087309 -0.036113424546066211 0.056647872755928627 0.057460464490299068 0.055202521169099586 -0.039480970602520489 0.056641350889898669 -0.040905971630661613 0.054409146185291093 -0.041428680844315911 -0.038440840756842849 0.057006189774156397 0.056732223209134354 0.056194801937353725 -0.045492995273154764 0.056705635750204895 -0.05499259014404996 0.057075576299731076 -0.048110118654617097 -0.057625452691553593 0.026681823972952975 0.052383040605038143 -0.051341609002996794 0.041443415964871354 -0.051723262637032662 0.04910092317307177 0.024974700269549135 -0.034776993099457927 0.057066865414224947 0.056695143033917456 -0.048071814307989361 0.036434236896969036 -0.033519797526680987 -0.014291578290499207 0.057442536134316331 -0.04956377842893922 0.057149569090638432 0.041245122375623555 0.056867287811548047 -0.042229581167506462 -0.026636944535497274 0.010938843039153351 0.021557643735017791 0.056956499404446845 -0.00057466108278079 0.01306974994069896 -0.043757032610288626 -0.036264676427380349 -0.046152163080766445 0.0057163397502491857 -0.010635698800062295 0.0027750074849831534 -0.0015946427911947413 0.026985566320808358 -0.048191558783131444 0.0045761080218215625 0.053791092944975694 0.050862383812561203 -0.040513289708128952
leaf_count=95591 2827 3626 15756 301 685 14115 7719 12111 6420 6494 3300 7553 17162 2292 7293 660 105276 5997 1739 792 1089 26631 2594 4126 49678 3127 3523 2244 4100 3423 19945 1393 5731 3313 1067 1609 5978 6294 4285 1887 3317 5401 906 760 1162 2891 2685 4770 821 3077 2260 1119 2094 4662 776 1615 177763 8569 1025
internal_value=0 0.997813 -1.03162 -0.433498 -1.01964 0.468526 0.107101 -1.47242 0.44521 0.528456 0.266287 1.60245 1.31545 -0.565668 -0.0834487 0.585837 -1.5982 -1.40309 1.11371 1.65614 1.6681 1.29228 0.799178 0.244125 -1.56452 0.358004 -0.200472 1.16742 0.63311 -1.5667 -1.09109 -1.60571 -0.14368 0.5904 -0.986155 -0.0852227 0.963793 0.5649 1.15293 0.391263 -0.427082 -0.370128 -1.08256 -0.658638 1.67214 -0.261221 -1.11755 -0.764499 0.192339 0.986146 0.211665 1.51437 0.897833 1.4643 0.116525 -0.747289 1.76626 1.32066 -0.19623
internal_count=695419 353740 341679 105026 78658 77549 61793 264130 21311 47678 39959 248714 26368 32159 20048 33465 231971 126695 7736 238438 237646 49200 21407 9206 57347 10276 7149 17907 10354 118959 23368 56662 14891 6140 11584 4291 23988 13348 8464 4179 3977 9477 3500 8751 27793 5135 2986 6984 2214 9371 3020 5219 6220 10640 6177 3224 188446 10683 2114
shrinkage=0.03


Tree=3
num_leaves=60
num_cat=0
split_feature=36 4 54 10 15 54 54 46 36 54 54 15 3 52 66 51 52 52 23 23 21 52 52 54 3 31 65 65 54 4 4 10 15 7 10 15 52 0 31 58 16 53 53 52 50 56 12 36 12 15 8 4 19 42 16 46 52 61 4
split_gain=167233 72560.3 49421.1 26715.1 14654.5 9879.25 8647.74 8450.48 4334.3 4091.23 4543.58 3909.08 3857.31 3278.27 3244.09 2802.12 2716.19 2708.52 2696.29 13378.3 2432.69 2139.11 2943.47 2037.8 1934.7 1901.82 1859.56 8519.5 1675.61 1603.33 9256.3 2650.78 1964.63 1526.26 1771.2 1438.52 1395.83 1387.86 1233.27 1195.81 1138.64 1051.56 1068.39 1042.82 949.295 828.286 817.065 809.22 793.821 787.301 784.477 777.055 742.607 638.683 602.459 588.106 588.085 562.528 536.61
threshold=1.0000000180025095e-35 1.0000076052487465 1.0000000180025095e-35 1.0000000180025095e-35 0.99771444318839853 0.99995310207318966 1.0001403640836029 1.0000000180025095e-35 0.99778636132109477 1.9997233864866684 2.0001958887595803 1.0000000180025095e-35 86.999778933104821 1.0000000180025095e-35 0.9999813708023525 1.0000000180025095e-35 1.9999923869285381 1.0000000180025095e-35 0.99555363742934222 1.0000000180025095e-35 0.13403613932470318 1.0000570156007185 0.98315921791498606 2.9791451738837647 86.999778933104821 0.13244910009057545 1.0000000180025095e-35 0.9999813708023525 3.0004881818030666 2.0000053406197549 1.9944194461464353 1.0000000180025095e-35 0.99771444318839853 3.0003767875215779 1.0000000180025095e-35 4.9996289579049735 2.0000215969207726 2422649.0095004314 1.0000000180025095e-35 1.0000000180025095e-35 1.0000000180025095e-35 0.99983507919222514 1.0000000180025095e-35 2.9942316734169059 1.0000000180025095e-35 1.0000000180025095e-35 1.0000025350829158 0.99778636132109477 1.9944201640146348 0.99771444318839853 8.0003115558728606 1.0000076052487465 0.99998609640311309 1.0649067678005977 198.00827638613666 23.595075477000851 3.0000986763648103 1.0000000180025095e-35 920.89309416766309
decision_type=2 2 2 2 2 2 2 2 2 2 2 2 2 2 2 2 2 2 2 2 2 2 2 2 2 2 2 2 2 2 2 2 2 2 2 2 2 2 2 2 2 2 2 2 2 2 2 2 2 2 2 2 2 2 2 2 2 2 2
left_child=2 3 7 4 11 -4 -7 12 -5 -8 -11 37 51 55 17 23 21 33 19 26 -21 22 -15 -12 -24 -6 -14 -28 -25 30 -19 32 -32 34 44 46 -18 -2 45 -27 -34 42 -41 -38 -3 -10 52 -33 -48 -16 -51 -1 -30 -39 -50 -9 -45 -49 -31
right_child=1 14 5 8 25 6 9 13 38 10 15 -13 18 16 49 -17 36 29 -20 20 -22 -23 24 28 -26 39 27 -29 35 58 31 47 40 -35 -36 -37 43 53 -40 41 -42 -43 -44 56 -46 -47 48 57 54 50 -52 -53 -54 -55 -56 -57 -58 -59 -60
leaf_value=-0.016275124567695445 -0.033127581481323623 -0.041956051828137407 0.055290616018459526 0.055421728279479145 0.052800837235987913 -0.040200883103880945 0.055253837616478223 0.026697880397607655 -0.04982963554470525 -0.040400877367110344 0.056185193877268225 0.055410733646811081 -0.048853092111135824 0.056067934314516954 0.033009941332340705 0.040374242154644142 -0.042926884485975626 0.055432852353029326 -0.053662973291978736 0.055703570975130776 -0.053571253755523504 0.055674340324598594 0.053041775106991686 -0.046221295997446954 -0.036446708925260744 -0.050712564720242999 0.055695049007320585 -0.045807406309298707 0.019563746525679531 0.05266771331015898 0.023377514323483176 0.055768604686997986 -0.044731854908844355 0.044270346830869868 0.046167726869247368 -0.032548133761581395 0.056266058794431799 0.0032014897013632653 0.055282857466187801 -0.048839265600423593 0.0068138690462347488 -0.036620567964882285 0.056366962755731199 -0.046458217733521656 0.038084509149670626 0.0020340683548398038 0.057028167078651527 -0.042802329861089047 0.019579838538946251 -0.041523549937575767 0.041130588322932468 0.041587353636868114 -0.032737944763039109 0.053450392120738766 -0.032320729906729045 -0.042392088359127132 0.013010147620009052 0.027219816726111869 0.025987799553296505
leaf_count=1439 4100 3040 15971 18919 693 13568 7449 463 1724 6252 2337 5618 98195 2565 1196 10930 5623 43728 106662 5878 842 3913 1059 2799 5007 49460 3566 18744 1709 169805 3543 3344 5639 4071 1705 3157 1032 10461 1059 532 2127 5181 1006 1172 647 3126 1875 571 6819 2156 512 2014 2286 1003 913 10705 1227 1505 2777
internal_value=0 0.979685 -0.987713 -0.434724 -1.01083 0.439245 0.0674635 -1.39026 1.37807 0.477967 0.219049 0.411446 -1.5222 -0.43576 1.57078 0.516996 0.020456 1.59989 -1.55329 -1.35608 1.39936 0.625216 0.067411 0.103762 -0.693973 -1.54161 -1.50962 -0.986697 -0.107108 1.64268 1.36141 0.0946516 -0.456598 0.548843 -0.149472 0.132357 -0.815748 -0.104639 -0.118808 -1.58235 -1.0201 -0.789215 0.664803 0.190599 -0.929575 -0.545781 0.414999 1.24796 0.73158 -0.249759 -0.85494 0.581788 -0.34531 0.253052 0.447962 -1.3173 -0.532614 0.264814 1.74125
internal_count=695419 349248 346171 102882 78054 76065 60094 270106 24828 46526 39077 21182 237340 32766 246366 32825 21598 242502 233887 127225 6720 12544 8631 21895 6066 56872 120505 22310 19558 233039 60457 16729 11309 9463 5392 16759 9054 15564 5909 56179 7766 6719 1538 3431 3687 4850 13602 5420 9607 3864 2668 3453 3995 11464 7732 11168 2399 2076 172582
shrinkage=0.03


Tree=4
num_leaves=60
num_cat=0
split_feature=45 4 54 9 15 54 54 9 51 51 54 54 52 35 35 31 14 47 52 48 66 55 55 54 53 53 4 4 16 15 65 65 4 65 12 51 15 54 46 45 4 57 54 54 23 15 45 55 55 65 15 14 45 15 7 62 42 3 30
split_gain=159108 68598.2 50546.2 23049.8 10650 8879.51 8232.97 7940.33 6241.78 5047.86 3793.85 4650.32 3707.87 3490.23 11618.5 5816.17 3446.46 3231.93 2726.77 2316.46 2300.01 1831.49 4196.49 1616.11 1563.59 1916.08 1495.13 8907.9 2258.49 2444.63 1376.3 7595.96 1231.73 1076.72 1292 1039.83 995.207 978.391 964.288 929.434 894.034 815.631 718.751 1063.15 690.381 633.678 630.556 622.083 1003.58 615.116 614.998 595.066 576.8 576.024 739.009 563.713 552.025 544.317 734.675
threshold=1.0000000180025095e-35 1.0000076052487465 1.0000000180025095e-35 0.99996981978524124 0.99771444318839853 0.99995310207318966 1.0001403640836029 1.0000000180025095e-35 1.0000000180025095e-35 0.99789412624123641 1.9997233864866684 2.0001958887595803 1.0000000180025095e-35 0.99841426825323865 1.0000000180025095e-35 0.13244910009057545 1.0000000180025095e-35 1.0000000180025095e-35 1.0000000180025095e-35 8677.7298434416898 0.9999813708023525 1.0000000180025095e-35 0.99999746491708463 1.0000000180025095e-35 1.0000000180025095e-35 0.99983507919222514 2.0000053406197549 1.9944194461464353 1.0000000180025095e-35 0.99771444318839853 1.0000000180025095e-35 0.9999813708023525 8.000233268549696 1.0000000180025095e-35 1.0000025350829158 1.0001521257599071 0.99771444318839853 2.9791451738837647 1.0000000180025095e-35 0.13654799148958785 0.82915261938337681 1.0000000180025095e-35 1.0000000180025095e-35 0.99995310207318966 0.99555363742934222 1.0000000180025095e-35 0.13654799148958785 1.0000493381824052 1.9904221068203987 0.9999813708023525 1.9999282129479659 79.002989566723983 0.99997925493608097 0.99771444318839853 4.0002332685496951 1.0000000180025095e-35 1.0647360546941547 86.999778933104821 1.0000000180025095e-35
decision_type=2 2 2 2 2 2 2 2 2 2 2 2 2 2 2 2 2 2 2 2 2 2 2 2 2 2 2 2 2 2 2 2 2 2 2 2 2 2 2 2 2 2 2 2 2 2 2 2 2 2 2 2 2 2 2 2 2 2 2
left_child=2 3 8 7 16 -4 55 17 13 41 -8 -12 23 14 21 -16 40 36 38 20 26 30 -23 32 -6 -26 27 -14 29 -29 -1 -32 39 34 37 -11 45 -20 -13 -3 -5 -10 57 -44 -36 -2 -38 -24 -49 -35 -30 -40 56 -22 -55 -7 -19 58 -42
right_child=1 12 5 4 24 6 10 -9 9 35 11 18 19 -15 15 -17 -18 52 33 -21 53 22 47 -25 25 -27 -28 28 50 -31 31 -33 -34 49 44 -37 46 -39 51 -41 42 -43 43 -45 -46 -47 -48 48 -50 -51 -52 -53 -54 54 -56 -57 -58 -59 -60
leaf_value=-0.048025927368106465 -0.017068576444212429 0.055450175544036896 0.053848310557224069 0.054253498483054587 -0.050030467999828458 -0.042575671279833874 0.053837204603824851 0.054343686979698241 -0.021183275327585176 -0.04364435379806747 -0.03901362008397976 -0.036790137643990188 0.054050084363448811 -0.051935958402530832 0.054411561693994748 -0.05003620204937595 0.051489206733182684 0.054641496715424231 0.05406555369609628 -0.055445765408509214 0.032738825685503722 0.056761288315826428 -0.048994323743523339 0.038482091097687889 0.050221763540811017 -0.033402132453063622 0.051028751719309914 0.024708076766445562 0.040164047041859247 -0.0385957946878141 0.054215116280746996 -0.045717269135190641 0.032065030048207398 0.054642431143724753 0.032628955840239941 0.010485501855297721 0.055725019204871648 -0.02585418600702849 0.01039933849209255 -0.03736714239231613 -0.01969423287313617 0.054179777180631356 0.056437036627855625 -0.011754585912788941 -0.034052585367914591 0.054933721306226806 -0.042147989930346581 0.056964062127240388 -0.029815571740530952 0.025409170854966079 -0.0055980240560229121 -0.046395141069996829 0.0014339516537057036 -0.046612551109675972 0.025732438670547402 -0.0097591752985390478 0.010781488774796628 -0.03375109358492067 0.045314181539953757
leaf_count=93809 1131 435 15787 784 45230 11824 7727 18902 587 5946 6488 3306 43756 112449 7097 2665 4841 3015 668 793 1130 2114 5997 4262 1174 6454 174761 3379 4778 6347 3233 19331 1772 5971 8745 1636 246 3315 5415 3762 2338 4540 1202 2638 597 727 6641 546 4116 4646 1364 759 2101 1391 804 2259 1591 5237 860
internal_value=0 0.945082 -0.978327 -0.415477 -1.07071 0.446774 0.104197 0.935567 -1.39791 -0.0244029 0.502644 0.254442 1.52094 -1.46751 -1.25446 0.861064 0.265216 -0.130431 0.55571 1.57193 1.58341 -1.4142 -0.692153 0.338482 -1.52535 -0.685047 1.60704 1.33203 0.0463363 -0.553963 -1.49359 -1.0477 -0.334278 0.916549 0.537199 -1.06399 -0.935275 -0.417835 -0.352864 -0.9252 -0.268171 1.51706 -0.400443 0.317382 0.944945 0.366578 -1.28761 -1.20476 -0.654552 1.39372 0.999201 0.113954 0.916395 -0.0717086 -0.669999 -1.24349 1.315 -0.727467 -0.0760787
internal_count=695419 353846 341573 105112 70758 77507 61720 34354 264066 12709 47637 39910 248734 251357 138908 9762 17900 15452 33422 238503 237710 129146 12773 10231 52858 7628 234385 59624 15868 9726 116373 22564 5969 23942 13325 7582 8745 3983 9480 4197 13059 5127 12275 3840 9342 1858 6887 10659 4662 10617 6142 6174 6707 3325 2195 14083 4606 8435 3198
shrinkage=0.03


Tree=5
num_leaves=60
num_cat=0
split_feature=45 4 60 9 15 9 56 65 52 14 65 57 46 52 52 53 35 35 31 46 66 60 58 4 4 57 15 65 65 51 46 51 52 52 4 52 52 16 52 16 45 53 53 15 45 26 60 40 40 37 12 12 52 42 46 52 34 51 52
split_gain=150537 64938 47860.9 21795.8 10086.6 7530.87 6456.3 5864.66 3527.19 3263.01 3259.25 3076.73 2955.3 2584.01 4724.86 2322.73 2301.16 9649.13 4706.33 2192.77 2148.26 1525.26 1516.26 1415.62 8437.87 2174.2 1656.7 1366.89 7450.98 1225.05 1222.63 1232.43 1199.21 1224.78 1161.53 1143.93 1098.22 1854.24 1010.44 907.551 889.66 889.159 909.967 884.358 877.147 846.852 755.932 721.691 1379.95 671.077 667.697 1745.99 657.139 634.825 600.394 595.225 569.251 562.809 543.159
threshold=1.0000000180025095e-35 1.0000076052487465 1.0000000180025095e-35 0.99996981978524124 0.99771444318839853 1.0000000180025095e-35 1.0000000180025095e-35 1.0000000180025095e-35 1.0000000180025095e-35 1.0000000180025095e-35 0.9999813708023525 1.0000000180025095e-35 1.0000000180025095e-35 1.0000000180025095e-35 1.9999923869285381 0.99983507919222514 0.99841426825323865 1.0000000180025095e-35 0.13244910009057545 2006.9317474646796 0.9999813708023525 1.0000000180025095e-35 1.0000000180025095e-35 2.0000053406197549 1.9944194461464353 1.0000000180025095e-35 0.99771444318839853 1.0000000180025095e-35 0.9999813708023525 1.0000000180025095e-35 28.785555329009473 1.0000000180025095e-35 2.0000215969207726 2.9942316734169059 8.000233268549696 1.0000570156007185 1.0000000180025095e-35 50.109177044898445 1.9999923869285381 1.0000000180025095e-35 0.99997925493608097 0.99983507919222514 1.0000000180025095e-35 0.99771444318839853 0.13654799148958785 1.0839039383612186 1.0000000180025095e-35 0.99999626464767633 1.0000000180025095e-35 1.0002945272509602 1.0000025350829158 1.9944201640146348 1.9999923869285381 1.0647360546941547 1.0000000180025095e-35 3.0000986763648103 1.0000193012391281 0.99789412624123641 2.0000215969207726
decision_type=2 2 2 2 2 2 2 2 2 2 2 2 2 2 2 2 2 2 2 2 2 2 2 2 2 2 2 2 2 2 2 2 2 2 2 2 2 2 2 2 2 2 2 2 2 2 2 2 2 2 2 2 2 2 2 2 2 2 2
left_child=2 3 6 5 9 11 16 12 21 45 -9 43 36 -8 15 -15 17 27 -19 20 23 34 -6 24 -10 26 -26 -1 -29 54 -14 47 -16 -34 44 -17 -4 50 -27 -40 53 42 -24 -2 -3 46 -5 48 49 -32 -38 -52 -48 -13 -12 -35 -49 -33 -54
right_child=1 8 7 4 22 -7 13 10 19 -11 29 40 30 14 32 35 -18 18 -20 -21 -22 -23 41 -25 25 38 -28 28 -30 -31 31 57 33 55 -36 -37 37 -39 39 -41 -42 -43 -44 -45 -46 -47 52 56 -50 -51 51 -53 58 -55 -56 -57 -58 -59 -60
leaf_value=-0.046575415950706134 0.0099088890886591032 0.05406993251351009 -0.039122009112124462 -0.021971117578029959 -0.048574962024313051 0.053059211618199105 -0.037544459563278287 0.053607471150756959 0.052784761464897682 0.05025386398636375 -0.022541975601374682 0.053405273064571948 0.047148252813497944 0.051252168067556204 -0.042069664355110441 -0.04570140363744675 -0.051012061690650236 0.052890715901237485 -0.048003982219297525 -0.049189254104011204 -0.0018039862069360369 0.037441643719645236 -0.044542999008435988 0.049804542992375328 0.022942173379095203 0.049688968095398252 -0.039714758210858465 0.05280902596613072 -0.044505360349317201 0.036809191144100806 -0.015889857532782908 0.053815886348417774 0.054086765436632857 -0.04637608882107358 0.031174753905374997 0.053406882154784029 -0.031148684019360533 0.053029602995460653 -0.025316413100980133 0.026370144050826268 -0.0056340674982077975 -0.030071709549707767 0.053027324849217829 -0.041541523186810425 -0.036312478196045002 0.052241341278109164 0.050352645139287278 -0.015479096606676053 0.0547912039073086 0.040104239868646266 0.053620935404153962 -0.020779065632304018 -0.04321830066710005 0.0097816776856002839 0.010907504562176847 0.0051864581901243578 0.023231369466535225 0.017805431722312279 0.012958260764400193
leaf_count=94414 1515 435 6065 8333 46072 18902 12178 15446 43731 4841 3001 3275 3301 6205 7333 1671 106341 5948 2361 876 3308 4262 513 174739 2132 3135 5400 3389 19345 4980 3569 2248 1069 1615 1772 570 5768 1593 2001 3181 2654 5196 1077 6082 3762 804 1069 9598 2164 990 1524 4708 911 1926 5565 1627 1609 5378 1942
internal_value=0 0.921803 -0.954106 -0.404969 -1.0436 0.912102 -1.36381 0.435186 1.48386 0.258093 1.15221 -0.126887 0.0080365 -0.520384 -0.0765427 1.07232 -1.48171 -1.29689 0.804232 1.53381 1.54559 0.329191 -1.48761 1.56848 1.30006 0.0474894 -0.732985 -1.44561 -1.00183 0.433689 0.417568 0.269092 -0.906254 -0.0660438 -0.324931 -0.684036 -0.593268 -0.275314 0.755264 0.211652 0.753164 -0.601349 0.71577 -1.04111 -0.899362 -0.260596 -0.390807 -0.0183021 0.502127 -0.123358 -0.545457 -0.0887158 0.334304 1.23824 -0.0266613 -0.679032 -0.330467 0.946809 -0.165687
internal_count=695419 353846 341573 105112 70758 34354 264066 77507 248734 17900 28992 15452 48515 32268 20090 8446 231798 125457 8309 238503 237627 10231 52858 234319 59580 15849 7532 117148 22734 13546 28857 25556 11644 4311 5969 2241 19658 13593 8317 5182 7855 6786 1590 7597 4197 13059 12255 17930 6723 4559 12000 6232 3922 5201 8566 3242 11207 7626 2853
shrinkage=0.03


Tree=6
num_leaves=60
num_cat=0
split_feature=45 4 54 10 15 54 54 56 54 54 14 31 52 52 52 52 35 35 31 53 50 66 57 53 53 13 47 4 4 10 15 65 65 52 52 37 31 52 36 64 64 16 30 61 45 30 30 45 12 34 65 54 54 65 45 67 15 7 52
split_gain=142569 61649.4 45390.1 21391.6 12657.8 8201.5 7496.58 6197.54 3536.26 4264.73 3491.89 3356.8 3336.81 2517.07 4464.81 2444.39 2189.19 9051.54 4497.02 2148.71 2082.82 2042.36 1675.87 1504.69 2257.25 1480.26 1573.04 1342.3 8034.92 2122.85 1714.93 1287.42 7030.37 1162.09 1165.69 1141.12 1761.42 1070.46 1004.02 994.351 959.982 880.548 870.781 783.007 727.534 703.257 838.096 651.923 640.26 638.131 612.945 577.673 573.476 569.372 569.016 563.612 557.75 716.599 549.933
threshold=1.0000000180025095e-35 1.0000076052487465 1.0000000180025095e-35 1.0000000180025095e-35 0.99771444318839853 0.99995310207318966 1.0001403640836029 1.0000000180025095e-35 1.9997233864866684 2.0001958887595803 1.0000000180025095e-35 1.0000000180025095e-35 1.0000000180025095e-35 1.0000000180025095e-35 1.9999923869285381 1.0000000180025095e-35 0.99841426825323865 1.0000000180025095e-35 0.13244910009057545 0.99983507919222514 4733.3723609685103 0.9999813708023525 1.0000000180025095e-35 1.0000000180025095e-35 0.99983507919222514 10.00025699696752 1.0000000180025095e-35 2.0000053406197549 1.9944194461464353 1.0000000180025095e-35 0.99771444318839853 1.0000000180025095e-35 0.9999813708023525 2.0000215969207726 2.9942316734169059 0.58732731687454642 0.99997914545648314 1.0000570156007185 1.0000000180025095e-35 0.99999746491708463 1.0000000180025095e-35 1.0000000180025095e-35 1.0001646906449053 1.0000000180025095e-35 0.13654799148958785 0.99795604884110467 1.0000000180025095e-35 0.13654799148958785 1.0000025350829158 1.0785047010234405 0.01546748305450263 0.99995310207318966 2.9791451738837647 1.0000000180025095e-35 0.99997925493608097 0.99999471596768863 0.99771444318839853 4.0002332685496951 3.0000986763648103
decision_type=2 2 2 2 2 2 2 2 2 2 2 2 2 2 2 2 2 2 2 2 2 2 2 2 2 2 2 2 2 2 2 2 2 2 2 2 2 2 2 2 2 2 2 2 2 2 2 2 2 2 2 2 2 2 2 2 2 2 2
left_child=2 3 7 4 10 -4 -7 16 -8 -10 35 22 25 -9 19 42 17 31 -19 -15 21 27 47 44 -25 26 -3 28 -14 30 -30 -1 -33 -16 -35 36 -2 -21 -31 40 48 -32 45 -37 -6 46 49 -5 52 -11 -41 -45 -17 -54 -24 -47 -23 -58 -36
right_child=1 12 5 11 23 6 8 13 9 15 -12 -13 20 14 33 39 -18 18 -20 37 -22 56 54 24 -26 -27 -28 -29 29 38 41 32 -34 34 58 43 -38 -39 -40 50 -42 -43 -44 51 -46 55 -48 -49 -50 -51 -52 -53 53 -55 -56 -57 57 -59 -60
leaf_value=-0.045464334641338859 0.051642175744506684 -0.03307599591571337 0.051887425754210313 0.054025382696161459 0.051877242120913367 -0.035825525858242724 0.051897111789094487 -0.03679550771817957 -0.037714334060042078 -0.023909153295401463 0.049383040512762023 0.051640804255667951 0.051614980184233314 0.050107132002125604 -0.04095797221673244 0.052758370065725493 -0.049879736889805834 0.051712318370193154 -0.04696834266209015 -0.044161475999479942 -0.051988113260630506 0.032550148638937043 0.03716259391815438 0.048155490892811542 -0.033557607148629341 0.044510250442706477 0.023558067033273639 0.048648830069996742 0.021722543813811862 -0.029636873092443415 -0.041308362804590479 0.051639418072200793 -0.04344135004179632 0.052806018435418156 -0.045060710480077169 -0.0308245013257923 -0.013269565144184481 0.052162023082354909 0.047962022048191291 -0.017895353673434363 0.053568511831167044 0.0046445146546362009 0.050314083542211924 0.053058591016075886 -0.047095989427831574 -0.01032330403627434 0.055304058500403756 -0.039731366014155022 0.03257574610671992 0.050312720924814182 0.025618721472940257 -0.0080657779031418613 -0.025413102506267358 0.02280232450051899 -0.0014008467373048739 -0.051782027566094811 -0.045716125652551662 0.025729449250596479 0.0047240862395611797
leaf_count=94806 2786 3634 15735 299 274 14099 7737 12150 6487 2539 6461 17004 43738 6210 7283 754 106306 5921 2384 1646 807 1141 4170 1514 6761 3132 3490 174543 3570 714 5570 3374 19296 1091 1583 5769 3339 571 3910 2647 5482 2067 790 751 48972 2360 868 2737 9357 500 2113 2251 2108 1531 2070 2394 1380 803 1640
internal_value=0 0.899162 -0.931978 -0.396431 -0.921582 0.422689 0.093911 -1.33258 0.475484 0.235868 0.399638 1.18365 1.44937 -0.502839 -0.0625984 0.52497 -1.4483 -1.2679 0.775398 1.05913 1.49831 1.50939 0.212666 -1.4167 -0.62287 0.326019 -0.178223 1.53194 1.26974 0.0459641 -0.42484 -1.41189 -0.979004 -0.872605 -0.0456856 -0.131416 0.533922 -0.646933 1.19553 0.867107 1.0713 -0.961243 -0.338006 -0.595067 -1.55145 -0.521893 0.108019 -1.01533 0.787898 -0.388389 0.0453815 0.235169 0.155503 -0.172478 0.807905 -1.03998 -0.0523414 -0.646414 -0.651256
internal_count=695419 353657 341762 105158 78878 77501 61766 264261 47667 39930 21357 26280 248499 32174 20024 33443 232087 125781 8305 8427 238243 237436 9276 57521 8275 10256 7124 234112 59569 15831 11207 117476 22670 11597 4314 14896 6125 2217 4624 23992 19232 7637 9451 8771 49246 8661 3907 3036 13750 3039 4760 3002 4393 3639 6240 4754 3324 2183 3223
shrinkage=0.03


Tree=7
num_leaves=60
num_cat=0
split_feature=45 4 54 10 15 54 54 56 54 54 14 52 6 52 52 52 35 35 33 53 50 66 38 65 13 47 4 4 10 15 15 14 0 48 52 52 53 53 52 54 54 36 16 30 65 65 25 30 30 34 27 65 67 40 62 15 13 67 67
split_gain=135144 58485.4 43075.3 20266.2 12007.1 7797.8 7083.78 5903.42 3365.89 4029.14 3316.2 3186.82 3070.15 2378.83 4229.12 2309.21 2098.92 8576.98 4268.67 2038.35 1975.69 1945.95 1579.7 1538.23 1402.54 1483.49 1280.05 7665.49 2007.17 1617.59 1225.04 3486.82 1197.22 1113.21 1101.3 1104.2 1085.19 1808.56 1014.72 955.168 2472.62 951.374 832.753 822.102 731.108 5360.73 729.043 663.47 790.794 601.827 590.24 679.531 534.593 545.693 531.983 526.541 667.92 526.282 591.936
threshold=1.0000000180025095e-35 1.0000076052487465 1.0000000180025095e-35 1.0000000180025095e-35 0.99771444318839853 0.99995310207318966 1.0001403640836029 1.0000000180025095e-35 1.9997233864866684 2.0001958887595803 1.0000000180025095e-35 1.0000000180025095e-35 1.0000000180025095e-35 1.0000000180025095e-35 1.9999923869285381 1.0000000180025095e-35 0.99841426825323865 1.0000000180025095e-35 0.99966306592900345 0.99983507919222514 4733.3723609685103 0.9999813708023525 0.13661049288598598 1.0000000180025095e-35 10.00025699696752 1.0000000180025095e-35 2.0000053406197549 1.9944194461464353 1.0000000180025095e-35 0.99771444318839853 0.99771444318839853 1.0000000180025095e-35 2422649.0095004314 1.0000000180025095e-35 2.0000215969207726 2.9942316734169059 1.0000000180025095e-35 0.99983507919222514 1.0000570156007185 2.9791451738837647 3.0004881818030666 1.0000000180025095e-35 1.0000000180025095e-35 1.0001646906449053 1.0000000180025095e-35 0.9999813708023525 0.17713983821481741 0.99795604884110467 1.0000000180025095e-35 1.0785047010234405 1.000003599622352 1.0000000180025095e-35 0.99999471596768863 0.99999626464767633 1.0000000180025095e-35 0.99771444318839853 11.002633741216931 1.0000000180025095e-35 0.99999471596768863
decision_type=2 2 2 2 2 2 2 2 2 2 2 2 2 2 2 2 2 2 2 2 2 2 2 2 2 2 2 2 2 2 2 2 2 2 2 2 2 2 2 2 2 2 2 2 2 2 2 2 2 2 2 2 2 2 2 2 2 2 2
left_child=2 3 7 4 10 -4 54 16 -8 -10 32 24 23 -9 19 43 17 30 -19 -15 21 26 -6 33 25 -3 27 -13 29 -29 31 -1 -2 -5 -16 -36 -24 -38 -21 -17 -41 -30 -31 47 -32 -46 50 48 49 -11 51 -42 53 -49 -7 -23 -57 -34 -59
right_child=1 11 5 12 22 6 8 13 9 15 -12 20 -14 14 34 39 -18 18 -20 38 -22 55 36 -25 -26 -27 -28 28 41 42 44 -33 57 -35 35 -37 37 -39 -40 40 46 -43 -44 -45 45 -47 -48 52 -50 -51 -52 -53 -54 -55 -56 56 -58 58 -60
leaf_value=-0.040890963083825747 -0.032818346654919839 -0.032165288424003978 0.050780946721043253 -0.038731209826758047 0.049679159560331212 -0.040048215757553719 0.050789593934032234 -0.035869547768873876 -0.036747655378621388 -0.023218419875885864 0.048305144966307709 0.050527648188372055 0.050602948105307168 0.048991942357238472 -0.039966131786275623 0.052153888011426758 -0.048809184159961903 -0.045896441936373378 0.050618619910210071 -0.043120074936365847 -0.050793266466687213 0.031676318847909023 -0.046035065125633483 0.03739921809936167 0.043456839728420585 0.022889796297540833 0.047579889431907635 0.021113254569111665 -0.028758466378961917 -0.040205095559013103 -0.045265356530518885 0.061483533673649941 -0.0090805560743012891 0.014332131731169363 0.051632164681017799 -0.019011191135086584 0.046181492755857034 -0.03416409223809564 0.051031267127181007 -0.040435362228720954 0.0073647107235666077 0.046825487498455449 0.0045061143171120166 0.049003183598525735 0.050536548568022026 -0.044230381132673108 -0.0090595854795713134 0.027209239943921736 0.05380444934164489 0.048961034872427825 0.045936420523870564 0.039567529601045225 -0.050440892023110605 -0.032467291238404673 -0.0081126451147077779 -0.036884672141969631 0.042796322042088067 0.054573483064411898 0.0083963968322585819
leaf_count=5098 3840 3634 15735 2890 694 11837 7737 12150 6487 2539 6461 43738 16699 6210 7283 4072 106306 2384 5921 1646 807 1141 48965 3809 3132 3490 174543 3570 714 5570 90408 1625 4676 2882 1091 3223 1218 6644 571 2187 5200 3910 2067 790 2541 17804 1786 886 868 500 6307 4440 2394 1474 2262 1690 493 1269 5111
internal_value=0 0.878741 -0.910501 -0.38709 -0.899731 0.412193 0.0915134 -1.30261 0.463268 0.229614 0.389445 1.41692 1.15647 -0.490581 -0.0610835 0.510937 -1.41611 -1.23889 0.758632 1.03534 1.46505 1.47588 -1.38414 0.249554 0.317351 -0.173244 1.49804 1.24105 0.044747 -0.413072 -1.37947 -0.538018 -0.127797 -0.40493 -0.850953 -0.0444818 -1.42131 -0.726292 -0.631936 0.844264 0.663214 1.1661 -0.934768 -0.328587 -1.43053 -1.0829 0.913459 -0.50729 0.105006 -0.377257 1.05068 0.737311 -1.01115 -0.33392 -1.16309 -0.0509214 -0.629081 0.208063 0.584433
internal_count=695419 353657 341762 105158 78878 77501 61766 264261 47667 39930 21357 248499 26280 32174 20024 33443 232087 125781 8305 8427 238243 237436 57521 9581 10256 7124 234112 59569 15831 11207 117476 6723 14896 5772 11597 4314 56827 7862 2217 23992 19920 4624 7637 9451 110753 20345 17733 8661 3907 3039 15947 9640 4754 2360 14099 3324 2183 11056 6380
shrinkage=0.03


Tree=8
num_leaves=60
num_cat=0
split_feature=45 4 54 10 15 54 54 56 54 54 14 31 52 52 52 52 35 35 31 53 50 66 57 38 13 47 4 4 10 15 15 14 0 58 52 52 52 64 36 64 53 53 56 16 65 65 45 12 65 45 54 52 65 62 4 30 30 67 15
split_gain=128210 55542.9 40915.7 19207.9 11405.1 7423.02 6698.7 5633.5 3207.91 3808.89 3153.69 3073.86 3048.48 2249.52 4007.99 2182.68 2016.07 8134.06 4056.15 1935.7 1875.88 1856.86 1521.45 1498.8 1330.03 1399.58 1222.05 7323.93 1899.26 1526.51 1168.59 3295.52 1129.19 1058.37 1045.62 1046.29 962.749 924.444 902.399 898.293 893.464 831.08 799.46 788.43 694.694 5086.28 601.041 594.595 555.734 535.596 524.296 523.686 516.165 506.633 502.369 499.797 554.135 581.45 497.227
threshold=1.0000000180025095e-35 1.0000076052487465 1.0000000180025095e-35 1.0000000180025095e-35 0.99771444318839853 0.99995310207318966 1.0001403640836029 1.0000000180025095e-35 1.9997233864866684 2.0001958887595803 1.0000000180025095e-35 1.0000000180025095e-35 1.0000000180025095e-35 1.0000000180025095e-35 1.9999923869285381 1.0000000180025095e-35 0.99841426825323865 1.0000000180025095e-35 0.13244910009057545 0.99983507919222514 4733.3723609685103 0.9999813708023525 1.0000000180025095e-35 0.13661049288598598 10.00025699696752 1.0000000180025095e-35 2.0000053406197549 1.9944194461464353 1.0000000180025095e-35 0.99771444318839853 0.99771444318839853 1.0000000180025095e-35 2422649.0095004314 1.0000000180025095e-35 2.0000215969207726 2.9942316734169059 1.0000570156007185 0.99999746491708463 1.0000000180025095e-35 1.0000000180025095e-35 0.99983507919222514 1.0000000180025095e-35 1.0000000180025095e-35 1.0000000180025095e-35 1.0000000180025095e-35 0.9999813708023525 0.13654799148958785 1.0000025350829158 0.01546748305450263 0.99997925493608097 2.9791451738837647 3.0000986763648103 1.0000000180025095e-35 1.0000000180025095e-35 920.89309416766309 1.0001646906449053 0.99795604884110467 0.99999471596768863 0.99771444318839853
decision_type=2 2 2 2 2 2 2 2 2 2 2 2 2 2 2 2 2 2 2 2 2 2 2 2 2 2 2 2 2 2 2 2 2 2 2 2 2 2 2 2 2 2 2 2 2 2 2 2 2 2 2 2 2 2 2 2 2 2 2
left_child=2 3 7 4 10 -4 53 16 -8 -10 32 22 24 -9 19 42 17 30 -19 -15 21 26 46 -6 25 -3 27 -14 29 -29 31 -1 -2 -25 -16 -36 -21 39 -30 47 41 -35 -11 -31 -32 -46 -5 50 -39 -24 -17 -37 -52 -7 -28 56 -44 -58 -23
right_child=1 12 5 11 23 6 8 13 9 15 -12 -13 20 14 34 37 -18 18 -20 36 -22 58 49 33 -26 -27 54 28 38 43 44 -33 -34 40 35 51 -38 48 -40 -41 -42 -43 55 -45 45 -47 -48 -49 -50 -51 52 -53 -54 -55 -56 -57 57 -59 -60
leaf_value=-0.039946925904706922 -0.031911538844795487 -0.031293854783372883 0.049752215115072308 0.052261639460119101 0.048620726659428182 -0.039064209754118381 0.049759914107007516 -0.034985134659090387 -0.035826097315069576 -0.03654290748976826 0.047296867175634423 0.049554154202376736 0.049516210620669666 0.047950111918244942 -0.039023927738461001 0.050482539970193363 -0.047809045641934667 0.049601355023042297 -0.04488862545589397 -0.042135884895298729 -0.049681774837875461 0.030838998467727599 0.035670496573740502 -0.044836155410634994 0.042462012135315447 0.022245303954999435 0.046997234715544012 0.020524559089976774 -0.027917494218339486 -0.039159815677234894 -0.044272032342917461 0.059702994569817702 0.0060608473421740455 -0.043204085516747155 0.050542480186462083 -0.043543254547647861 0.049980198561449043 -0.017444279898768175 0.045759140237303639 0.051509317346503762 -0.031463304722532177 0.050066590087262913 0.015458177464407051 0.0043718593049468044 0.049523404766713221 -0.043236304346918601 -0.03820917771963725 0.031038492262867708 0.024081858037376318 -0.001798468288193088 -0.024588200981329956 0.0051522809951585601 0.021408326065469545 -0.0078751325389501744 0.020737264370598352 0.049298520978260936 0.003126604638980221 -0.049093812928662578 -0.018369348865211788
leaf_count=5098 3840 3634 15735 299 694 11837 7737 12150 6487 2826 6461 17004 43738 6210 7283 754 106306 5921 2384 1646 807 1141 4170 49885 3132 3490 171794 3570 714 5570 90408 1625 11056 521 1091 1583 571 2647 3910 5482 5318 1103 2803 2067 2541 17804 2737 9357 2113 2070 2108 1640 1531 2262 2749 723 1632 1467 2183
internal_value=0 0.859436 -0.890269 -0.378126 -0.878776 0.402271 0.0892403 -1.27442 0.451683 0.22367 0.379212 1.13031 1.38647 -0.478838 -0.0596188 0.497598 -1.3859 -1.21159 0.742986 1.01306 1.43385 1.44446 0.200106 -1.35351 0.309059 -0.168462 1.46626 1.21413 0.0435857 -0.4018 -1.34894 -0.524872 -0.124115 -1.38985 -0.829869 -0.0432244 -0.617814 0.822484 1.13836 1.02065 -0.65115 0.669202 -0.319692 -0.909506 -1.39907 -1.05887 -0.975775 0.746177 0.0290763 0.768203 0.135213 -0.615569 -0.177163 -1.13363 1.55261 0.0607582 -0.131331 -0.716222 -0.0495248
internal_count=695419 353657 341762 105158 78878 77501 61766 264261 47667 39930 21357 26280 248499 32174 20024 33443 232087 125781 8305 8427 238243 237436 9276 57521 10256 7124 234112 59569 15831 11207 117476 6723 14896 56827 11597 4314 2217 23992 4624 19232 6942 1624 9451 7637 110753 20345 3036 13750 4760 6240 4393 3223 3639 14099 174543 6625 5902 3099 3324
shrinkage=0.03


Tree=9
num_leaves=60
num_cat=0
split_feature=45 4 54 10 15 54 54 57 52 53 52 54 54 31 14 52 51 46 66 54 54 38 57 54 15 15 4 4 57 15 0 58 54 54 58 4 52 10 53 53 45 34 30 53 53 65 65 45 45 4 67 67 46 52 15 7 38 62 21
split_gain=121867 52580.9 38924.2 18182.4 10752.9 7104.3 6334.85 5017.06 4701.03 8129.68 4901.34 3061.9 3600.99 2981.18 2977.05 2964.58 2108.12 1819.03 1803.41 1721.87 1525.02 1434.4 1405.55 1313.58 1281.07 3462.48 1173.42 7006.45 1845.75 1332.77 1071.89 1048.96 1046.68 1067.4 1017.52 1003.71 893.073 858.531 834.866 808.159 807.277 765.134 810.439 693.462 2405.62 693.112 6455.6 565.971 517.469 498.46 498.35 562 483.085 478.043 457.328 636.865 448.034 435.958 415.201
threshold=1.0000000180025095e-35 1.0000076052487465 1.0000000180025095e-35 1.0000000180025095e-35 0.99771444318839853 0.99995310207318966 1.0001403640836029 1.0000000180025095e-35 1.0000000180025095e-35 0.99983507919222514 1.9999923869285381 1.9997233864866684 2.0001958887595803 1.0000000180025095e-35 1.0000000180025095e-35 1.0000000180025095e-35 1.0000000180025095e-35 2006.9317474646796 0.9999813708023525 2.9791451738837647 3.0004881818030666 0.13661049288598598 1.0000000180025095e-35 1.0000000180025095e-35 0.99771444318839853 1.0000000180025095e-35 2.0000053406197549 1.9944194461464353 1.0000000180025095e-35 0.99771444318839853 2422649.0095004314 1.0000000180025095e-35 3.996983603173216 4.0004751589414838 1.0000000180025095e-35 7.0000487887583818 1.9999923869285381 1.0000000180025095e-35 0.99983507919222514 1.0000000180025095e-35 0.13654799148958785 1.0000193012391281 1.0001646906449053 1.0000885815822516 1.999889953588853 1.0000000180025095e-35 0.9999813708023525 0.13654799148958785 0.99997925493608097 920.89309416766309 1.0000000180025095e-35 0.99999471596768863 1.0000000180025095e-35 0.98315921791498606 0.99771444318839853 4.0002332685496951 0.13661049288598598 1.0000000180025095e-35 1.0000000180025095e-35
decision_type=2 2 2 2 2 2 2 2 2 2 2 2 2 2 2 2 2 2 2 2 2 2 2 2 2 2 2 2 2 2 2 2 2 2 2 2 2 2 2 2 2 2 2 2 2 2 2 2 2 2 2 2 2 2 2 2 2 2 2
left_child=2 3 7 4 14 -4 52 24 -9 10 -10 -8 -13 22 30 23 19 18 26 -14 -21 -6 47 35 25 -1 27 -17 29 -29 -2 -12 -22 -34 -23 40 -30 -38 39 -36 -3 42 -35 -11 -45 -26 -47 -5 56 58 -32 -52 -7 -31 -20 -56 -24 -54 -28
right_child=1 15 5 13 21 6 11 8 9 43 31 12 16 -15 -16 17 -18 -19 54 20 32 34 48 -25 45 -27 49 28 36 53 50 -33 33 41 38 -37 37 -39 -40 -41 -42 -43 -44 44 -46 46 -48 -49 -50 -51 51 -53 57 -55 55 -57 -58 -59 -60
leaf_value=-0.039640655945598333 -0.031030034598238068 0.05196143367383025 0.048794861826110161 0.051074876167145247 0.047653337685480621 -0.044104493631958466 0.048794268966046266 -0.039917426069432729 0.050175675905925789 -0.039048307924740143 -0.04301029706107546 -0.034921882209164354 0.051239333933866343 0.048611345309085029 0.046257219290938019 0.048571917348377472 0.035243916046547544 -0.045554184905112163 0.029590208509533634 -0.043083248027401835 0.053381184003910898 -0.043867806271613158 0.050253400465903687 0.034716758362594004 -0.045284473736971934 0.056160207178926336 0.031280810132089089 0.019838000794008208 0.046780429797547492 0.05281011546150001 -0.0089519130541711543 0.048145409857544043 -0.042950662538486173 -0.0082606890481015469 -0.043005912643224328 0.028053031254697689 -0.013528014586562227 0.037589802868283617 -0.03055564638671902 0.049049744475573864 -0.034799882518462 0.033428328095238768 0.045380321786333062 0.053067217602598318 -0.034131899386873263 0.05088673825887103 -0.04411815493341343 -0.036911594721642453 -0.0020784935884961076 0.019848508269210214 0.05316592073131747 0.0080543749534366937 -0.029701433790488049 -0.040053945899659008 -0.042953564922527505 0.024265562603541412 0.0086355132169084921 0.0071536828508060556 0.046723600120430683
leaf_count=6623 3860 442 15801 300 700 7251 7739 33258 10399 14753 3367 6493 2479 17077 6416 43853 11821 881 1129 2903 1466 49646 2602 4264 153949 1798 6861 2160 3129 211 4687 544 1869 8820 525 1844 3183 1951 5311 1108 3736 2873 1174 1499 5611 2998 29347 2755 2090 2738 1270 5110 5395 5194 1378 816 1505 1490 164967
internal_value=0 0.843185 -0.870168 -0.366832 -0.857134 0.393354 0.0865052 -1.2473 -0.77598 -0.265974 0.933996 0.440469 0.217666 1.10509 0.365435 1.35796 0.484762 1.40506 1.41603 0.111077 -0.0921071 -1.3225 0.185871 0.294967 -1.41654 -0.636155 1.43768 1.18978 0.0429644 -0.677366 -0.120134 -1.00761 0.148913 -0.0118601 -1.35848 -0.310958 0.703807 0.187303 -0.632755 0.645343 -0.8565 0.194994 -0.0673731 -1.04827 -0.52559 -1.45203 -1.17901 -0.942225 0.736668 1.52279 0.19766 0.564621 -1.10379 -1.21393 -0.0578144 -0.593128 1.15875 -0.720402 1.53679
internal_count=695419 353699 341720 104962 78633 77574 61773 264146 69431 36173 14310 47637 39898 26329 21343 248737 33405 238451 237570 21584 19105 57290 9252 10286 194715 8421 234247 59681 15828 7565 14927 3911 16202 14736 56590 6022 8263 5134 6944 1633 4178 12867 9994 21863 7110 186294 32345 3055 6197 174566 11067 6380 14136 5405 3323 2194 4107 6885 171828
shrinkage=0.03


Tree=10
num_leaves=60
num_cat=0
split_feature=36 4 54 10 15 54 46 54 36 54 54 14 65 65 67 52 4 15 52 54 54 54 4 52 52 4 52 3 31 10 0 7 52 31 23 23 24 58 7 4 56 52 53 53 57 2 46 64 10 67 4 4 15 46 26 0 52 64 10
split_gain=115859 50185.8 34133.9 18459.1 10231.6 7207.16 6201.29 6037.22 3166.22 3013.79 3154.13 2798.28 2798.26 11919.2 2443.69 2305.14 2170.47 3247.17 1923.8 1785.86 2304.45 1537.19 1514.72 1477.11 2090.43 1462.37 1401.55 1387.61 1360.21 1340.84 1092.52 1035.6 1027.75 896.897 896.095 6790.9 1065.26 887.753 840.755 787.922 754.121 748.994 739.239 767.931 715.732 714.238 702.136 627.463 601.445 526.952 910.198 4361.24 671.707 512.737 482.104 485.167 469.5 463.207 451.792
threshold=1.0000000180025095e-35 1.0000076052487465 1.0000000180025095e-35 1.0000000180025095e-35 0.99771444318839853 0.99995310207318966 1.0000000180025095e-35 1.0001403640836029 0.99778636132109477 1.9997233864866684 2.0001958887595803 1.0000000180025095e-35 1.0000000180025095e-35 0.9999813708023525 1.0000000180025095e-35 1.0000000180025095e-35 3.0000109061836335 1.9999282129479659 1.9999923869285381 2.9791451738837647 3.0004881818030666 35.986008253010091 1.9944194461464353 1.0000570156007185 0.98315921791498606 2.0000053406197549 1.0000000180025095e-35 86.999778933104821 0.13244910009057545 0.008648464873322383 2422649.0095004314 1.0000000180025095e-35 2.0000215969207726 1.0000000180025095e-35 0.99555363742934222 1.0000000180025095e-35 0.13915003428494468 1.0000000180025095e-35 455.32025887692555 2.999996221045691 1.0000000180025095e-35 2.9942316734169059 0.99983507919222514 1.0000000180025095e-35 353.6098241832874 150.00065202191769 1.0000000180025095e-35 0.99999746491708463 1.0000000180025095e-35 0.99999471596768863 2.0000053406197549 1.9944194461464353 1.9999282129479659 23.595075477000851 1.0839039383612186 6300999.5000000009 3.0000986763648103 1.0000000180025095e-35 1.0000000180025095e-35
decision_type=2 2 2 2 2 2 2 2 2 2 2 2 2 2 2 2 2 2 2 2 2 2 2 2 2 2 2 2 2 2 2 2 2 2 2 2 2 2 2 2 2 2 2 2 2 2 2 2 2 2 2 2 2 2 2 2 2 2 2
left_child=2 3 6 4 11 -4 12 -7 -5 -9 -11 30 34 -14 16 53 17 22 23 -12 -21 26 -3 24 -17 48 46 -26 -6 -19 -2 40 -20 44 35 -1 -37 -30 -18 -27 -16 -34 43 -39 -10 -15 -22 57 -24 -33 51 -51 58 -8 55 -32 -43 -28 -53
right_child=1 14 5 8 28 7 15 9 33 10 19 -13 13 45 31 18 38 29 32 20 21 -23 25 -25 27 39 47 -29 37 -31 54 49 41 -35 -36 36 -38 42 -40 -41 -42 56 -44 -45 -46 -47 -48 -49 -50 50 -52 52 -54 -55 -56 -57 -58 -59 -60
leaf_value=-0.041607451441209753 -0.030984952182150371 0.048211170444987093 0.048078097164679798 0.048097534589569932 0.046556124893369202 -0.034301222489753896 0.030639738938303313 0.048023583625284728 -0.032039111683687532 -0.034516159578703007 0.049942594656179361 0.045256531900028922 0.049817951913838469 -0.040633906882734362 -0.011926621175443042 0.04936534174493637 0.042004642211055085 -0.048814733335903679 -0.036391968770253323 -0.039641378722581951 -0.032200202015209484 -0.046723958506915124 -0.018525388879493798 0.048543802748493112 0.046359079330095261 0.048386271983164843 0.025401360960375152 -0.030620784935464138 -0.043324872382239761 0.019004359773797014 0.018184258965271077 0.048226527321423421 0.049524387477920373 0.048118078961983925 -0.046633267581761478 0.050589013282369158 -0.025331485279822867 -0.042173218703097648 -0.0089685708780067042 -0.0084295709099571903 0.035532624001776258 -0.040543004921504255 -0.030676907896279013 0.048485158464553618 0.016352268791229661 0.014671898166580561 0.0081932833656058138 0.0019452294176424438 0.03531584034610509 0.047814417522616517 0.044587453245711672 -0.0064432950939999995 -0.037160926642322296 -0.035845247078906552 0.049375009185954763 -0.0086467620172605165 0.013461490872983491 0.050085477360359218 0.038599956348434675
leaf_count=99108 3946 7585 15943 18884 692 13629 444 7466 3060 6261 4233 6288 6901 33962 2081 2583 28277 3552 5633 3376 2342 1481 4551 3907 1088 4126 9564 4975 49342 1564 4180 77822 1049 1074 92153 3613 863 535 1246 1182 3179 1166 5142 1034 1758 904 4808 2974 928 17609 85617 3713 2183 10689 884 5934 1203 4057 1076
internal_value=0 0.837659 -0.840494 -0.364505 -0.852187 0.363592 -1.18585 0.0456338 1.18439 0.394372 0.172435 0.344755 -1.30236 -0.818736 1.3438 -0.351344 0.953775 0.490461 0.0401211 0.423147 0.243171 0.454096 0.895455 0.563864 0.0915387 0.408202 0.578271 -0.564521 -1.3121 -0.938867 -0.121226 1.4518 -0.674063 -0.107194 -1.40577 -1.27485 1.19595 -1.34746 1.32606 1.18447 0.556553 0.201971 -0.654618 0.580875 -0.472993 -1.30622 -0.16569 0.903204 -0.317535 1.47727 1.38548 1.03669 -0.309533 -1.10468 0.203985 0.0807062 -0.421277 1.0888 0.114984
internal_count=695419 349044 346375 102753 77977 76134 270241 60191 24776 46562 39096 21232 237504 41767 246291 32737 53011 23488 21604 32835 28602 25226 18372 12553 8646 10787 23745 6063 56745 5116 14944 193280 9051 5892 195737 103584 4476 56053 29523 5308 5260 3418 6711 1569 4818 34866 7150 16595 5479 188020 110198 24581 6972 11133 10998 10114 2369 13621 4789
shrinkage=0.03


Tree=11
num_leaves=60
num_cat=0
split_feature=45 4 54 10 15 54 54 56 54 54 52 14 6 51 35 35 33 52 52 66 53 48 54 54 65 38 54 4 4 57 15 15 14 37 36 54 54 53 53 48 4 52 52 52 52 10 45 61 34 30 65 65 54 4 52 46 54 56 52
split_gain=110190 47628.6 35236.8 16414.2 9746.87 6488.96 5677.76 4972.16 2805.81 3227.27 2783.22 2706.77 2619.71 1933.99 1859.63 7174.95 3535.52 1844.15 3500.02 1684.76 1675.78 1670.85 1569.03 1364.05 1339.44 1299.68 1197.88 1084.7 6452.86 1680.52 1226.36 1057.42 2961.79 1004.83 1592.76 977.029 1000.46 946.594 1457.14 940.911 912.755 899.595 924.02 856.752 844.696 782.931 737.334 734.59 710.12 760.55 610.458 4414.19 530.579 477.146 471.136 464.128 455.118 446.724 445.142
threshold=1.0000000180025095e-35 1.0000076052487465 1.0000000180025095e-35 1.0000000180025095e-35 0.99771444318839853 0.99995310207318966 1.0001403640836029 1.0000000180025095e-35 1.9997233864866684 2.0001958887595803 1.0000000180025095e-35 1.0000000180025095e-35 1.0000000180025095e-35 1.0000000180025095e-35 0.99841426825323865 1.0000000180025095e-35 0.99966415488145344 1.0000000180025095e-35 1.9999923869285381 0.9999813708023525 0.99983507919222514 8677.7298434416898 2.9791451738837647 3.0004881818030666 1.0000000180025095e-35 0.13661049288598598 1.0000000180025095e-35 2.0000053406197549 1.9944194461464353 1.0000000180025095e-35 0.99771444318839853 0.99771444318839853 1.0000000180025095e-35 0.58732731687454642 0.99778636132109477 3.996983603173216 4.0004751589414838 1.0000000180025095e-35 0.99983507919222514 1.0000000180025095e-35 7.0000487887583818 2.0000215969207726 2.9942316734169059 1.0000570156007185 1.9999923869285381 1.0000000180025095e-35 0.13654799148958785 1.0000000180025095e-35 1.0000193012391281 1.0001646906449053 1.0000000180025095e-35 0.9999813708023525 0.99995310207318966 920.89309416766309 3.0000986763648103 1.0000000180025095e-35 1.0001403640836029 19.854115951197951 3.999798049619022
decision_type=2 2 2 2 2 2 2 2 2 2 2 2 2 2 2 2 2 2 2 2 2 2 2 2 2 2 2 2 2 2 2 2 2 2 2 2 2 2 2 2 2 2 2 2 2 2 2 2 2 2 2 2 2 2 2 2 2 2 2
left_child=2 3 7 4 11 -4 55 14 -8 -10 26 33 24 22 15 31 -17 57 20 21 -19 27 -11 -24 39 -6 40 28 -12 30 -30 32 -1 34 -2 -25 -37 -27 -39 -5 46 -20 -43 -22 -31 -46 -3 -35 49 -38 -33 -52 -49 -29 -44 -7 -54 -9 -56
right_child=1 10 5 12 25 6 8 17 9 13 19 -13 -14 -15 -16 16 -18 18 41 -21 43 -23 23 35 -26 37 -28 53 29 44 -32 50 -34 47 -36 36 48 38 -40 -41 -42 42 54 -45 45 -47 -48 52 -50 -51 51 -53 56 -55 58 -57 -58 -59 -60
leaf_value=-0.037617160077016598 0.049781305620204865 0.049942762518908404 0.047081461025221399 -0.036661218725069451 0.045937718838414 -0.042422296015126995 0.047073752772374799 0.036234224078139338 -0.033320389717684994 0.049230469299421577 0.046879027667744953 0.044546829153079989 0.046946666992302537 0.033739071197634786 -0.045242962772374974 -0.041948244851083324 0.047837109720551968 0.04530502509476237 -0.036755420971394094 -0.0022252778690602065 -0.039718581073689009 -0.047988521737900858 -0.041105138192583275 0.051641661739491786 0.034891859058357684 -0.042385548071700752 0.033000177282523649 0.044411410497110872 0.019091802017811115 0.045361839081364611 -0.035022595438458148 -0.041622483728759735 0.057062626319311277 -0.029154083907499916 -0.012109465710926288 -0.041923546503025294 -0.0081806637647114915 0.042308550448783296 -0.030672903371425902 0.012570529566018528 0.026551751471777539 0.048094188846031997 -0.041334251218957417 0.047962935084015938 -0.012979856281614853 0.035993141317442121 -0.033637383286396892 0.051798746154173056 0.03212177338386614 0.044009883736469364 0.046991216280766225 -0.040574458345289444 -0.042305685933929298 0.018598629909394485 0.057065985696901737 -0.020249263726686294 0.013912574220455401 -0.034213314490968545 -0.014147737586752938
leaf_count=5135 2779 442 15801 2888 700 7251 7739 339 6493 2479 43879 6416 16778 11821 106182 2359 5870 6237 7319 3343 1652 800 2903 1466 3790 48724 4264 171844 2161 3129 5405 90408 1648 5770 3391 1869 8820 1231 6635 2873 1844 1089 1610 575 3200 1952 3736 756 2873 1174 2562 17790 831 2738 435 6885 1400 11774 1162
internal_value=0 0.810038 -0.834872 -0.351007 -0.820175 0.375029 0.0815352 -1.19809 0.418607 0.205671 1.30572 0.347277 1.06193 0.459289 -1.30486 -1.13539 0.731843 -0.442766 -0.0593954 1.35209 0.956733 1.37337 0.100613 -0.0927042 0.217866 -1.26929 0.270737 1.38364 1.14305 0.0412797 -0.649179 -1.26579 -0.476814 -0.113364 0.510652 0.13538 -0.0196654 -1.30384 -0.648414 -0.396694 -0.309683 -0.784707 -0.0473952 -0.573744 0.673325 0.172101 -0.83154 -0.551368 0.180969 -0.0716544 -1.31449 -0.991213 0.257073 1.46645 -0.587288 -1.05188 -0.23089 -1.07271 0.174406
internal_count=695419 353699 341720 104962 78633 77574 61773 264146 47637 39898 248737 21343 26329 33405 231954 125772 8229 32192 20079 238451 8464 235108 21584 19105 9551 57290 10286 234308 59726 15847 7566 117543 6783 14927 6170 16202 14736 56590 7866 5761 6022 11615 4296 2227 8281 5152 4178 8757 12867 9994 110760 20352 2987 174582 3207 14136 2231 12113 1597
shrinkage=0.03


Tree=12
num_leaves=60
num_cat=0
split_feature=45 4 54 10 14 54 54 56 65 52 31 14 54 35 35 31 56 54 58 66 48 54 52 52 53 65 54 57 54 4 4 57 53 65 65 37 31 14 54 54 52 4 30 52 52 51 52 52 52 10 61 45 45 52 45 1 54 45 5
split_gain=104333 45631 33683.2 15657.3 8372.7 6145.87 5463.68 4786.32 2689.11 2662.46 2605.18 2563.12 2329.68 1793.97 6811.17 3423.3 1785.59 1764.79 1627.13 1587.01 1552.85 1475.56 1402.54 2450.87 1510.77 1395.83 1252.67 1235.78 1161.3 1044.42 6212.24 1578.02 1043.78 969.676 5201.91 923.162 1541.96 910.315 895.108 1011.43 832.424 808.522 778.42 829.786 766.988 762.368 758.379 850.169 737.859 720.486 708.976 692.353 624.852 584.606 513.342 509.31 504.083 492.37 463.882
threshold=1.0000000180025095e-35 1.0000076052487465 1.0000000180025095e-35 1.0000000180025095e-35 0.99975103482855565 0.99995310207318966 1.0001403640836029 1.0000000180025095e-35 1.0000000180025095e-35 1.0000000180025095e-35 1.0000000180025095e-35 1.0000000180025095e-35 1.9997233864866684 0.99841426825323865 1.0000000180025095e-35 0.13244910009057545 23.481402363918743 2.0001958887595803 1.0000000180025095e-35 0.9999813708023525 8677.7298434416898 2.9791451738837647 1.0000000180025095e-35 1.9999923869285381 0.99983507919222514 0.9999813708023525 3.0004881818030666 1.0000000180025095e-35 1.0000000180025095e-35 2.0000053406197549 1.9944194461464353 1.0000000180025095e-35 0.99983507919222514 1.0000000180025095e-35 0.9999813708023525 0.58732731687454642 0.99997914545648314 0.99975103482855565 3.996983603173216 4.0004751589414838 1.9999923869285381 8.000233268549696 1.0001646906449053 1.0000000180025095e-35 0.013436310373124873 1.0000000180025095e-35 2.0000215969207726 2.9942316734169059 1.0000570156007185 1.0000000180025095e-35 1.0000000180025095e-35 0.13654799148958785 0.13654799148958785 0.98315921791498606 0.13654799148958785 25.950563283415168 0.99995310207318966 0.99997925493608097 719.27071171872683
decision_type=2 2 2 2 2 2 2 2 2 2 2 2 2 2 2 2 2 2 2 2 2 2 2 2 2 2 2 2 2 2 2 2 2 2 2 2 2 2 2 2 2 2 2 2 2 2 2 2 2 2 2 2 2 2 2 2 2 2 2
left_child=2 3 7 4 11 -4 -7 13 12 28 27 35 -8 14 33 -16 55 -14 52 20 29 -19 -18 24 -24 -10 -23 54 41 30 -11 37 44 -1 -35 36 -2 -32 -28 -40 -33 51 43 -41 -20 -27 -25 -48 -26 -42 -37 -3 -6 -39 -5 -9 -52 -29 -31
right_child=1 9 5 10 18 6 8 16 25 19 -12 -13 17 -15 15 -17 22 21 32 -21 -22 26 23 46 48 45 38 57 -30 58 31 40 -34 34 -36 50 -38 53 39 42 49 -43 -44 -45 -46 -47 47 -49 -50 -51 56 -53 -54 -55 -56 -57 -58 -59 -60
leaf_value=-0.040017254488165545 0.048421735217062931 0.048984923599464388 0.046293805102786141 0.049095704129654631 0.046607267680185707 -0.030971529255279715 0.046475320722659814 -0.041638572867689058 0.047985279084313708 0.046106739671405848 0.046132978933822219 0.046517986171200426 -0.037766601200509953 -0.044436920098765174 0.047018810078875303 -0.041587582724388256 -0.033845000401390303 0.048594073141419239 -0.040693586800033051 -0.0016803953264299448 -0.047121442755440585 -0.040545040802530151 0.043724422230451955 -0.036092884019561559 -0.040222215006062517 -0.00163967360146556 0.051904106990521733 0.033416736081487534 0.032413994657019406 0.043671681900241677 0.016040487869247069 0.04447648884360441 -0.024106885627078564 0.046309006828020041 -0.037985630399720041 -0.028349143289800996 -0.012615276187342726 0.051203341069199597 -0.044073460467266345 -0.022267231449919669 -0.01262601323966756 0.02582733033120033 0.039746994230614681 0.012753078466735788 0.046040566635345372 0.035056727028934975 0.047261016336577158 -0.018342035148735631 0.047085869458698693 0.034548202718043264 0.050672580706055077 -0.032013368762018372 -0.041042331645006161 -0.036553600517617246 -0.035011823983108627 0.046048165565798369 -0.0063934831072153852 -0.0025709558977334295 0.021783507207984939
leaf_count=94526 2819 446 15760 305 319 14100 3901 279 9451 43769 17020 5458 5096 106254 5891 2374 11692 2358 509 3349 781 2818 4614 7134 1605 5008 1304 4139 4279 170748 1996 3156 5740 3389 19387 5745 3335 298 1743 4163 3227 1739 2046 6124 1711 3674 1001 3131 489 1931 768 3787 50305 5244 2751 2315 2243 2095 3780
internal_value=0 0.792087 -0.817108 -0.34724 -0.805785 0.370288 0.0848549 -1.17474 0.416025 1.28119 1.04108 0.31381 0.0387215 -1.2804 -1.11291 0.713131 -0.431538 -0.178257 -1.21025 1.32692 1.34784 0.0844847 -0.574619 -0.21158 0.787907 1.04179 -0.107705 0.181924 0.264633 1.35769 1.12008 0.0385555 -0.350676 -1.24107 -0.85659 -0.108475 0.492169 -0.63431 0.118903 -0.0288286 0.650136 -0.312262 0.175054 -0.0492978 0.86448 0.457293 -0.793014 -0.0990622 -0.666412 0.152048 -0.528612 -0.7891 -1.34968 -1.0607 -0.888011 1.21295 0.262051 0.69807 1.43945
internal_count=695419 353792 341627 105262 78952 77546 61786 264081 47686 248530 26310 20368 29553 231821 125567 8265 32260 25652 58584 238279 234930 20556 29666 17974 6708 18133 18198 9290 10251 234149 59621 15852 7960 117302 22776 14910 6154 7538 15380 14076 8314 5972 12333 10287 2220 8682 11266 4132 2094 5158 8756 4233 50624 5542 3056 2594 3011 6234 174528
shrinkage=0.03


Tree=13
num_leaves=60
num_cat=0
split_feature=36 4 61 10 15 46 54 54 65 65 36 14 46 67 4 4 52 54 54 10 15 52 54 58 23 23 65 24 0 7 64 7 3 45 56 3 57 64 58 52 52 5 14 65 52 36 15 12 67 27 36 43 36 19 57 57 12 54 5
split_gain=99439.7 43710.6 29648.4 15937.7 8908.4 6672.46 3885.4 4203.33 3040.36 11775.4 2877.45 2437.82 2352.68 2253.7 1923.06 2939.8 1744.27 1714.01 1966.67 1605.53 1896.92 1482.83 1454.07 1075.68 1013.91 6589.62 982.433 976.298 969.707 936.151 853.264 785.499 770.145 733.03 697.982 652.71 646.733 622.692 615.449 633.396 1155.9 611.276 748.589 602.428 579.353 573.695 520.211 511.534 510.661 857.063 836.456 1024.7 499.124 475.161 472.584 1021.88 466.019 465.765 464.118
threshold=1.0000000180025095e-35 1.0000076052487465 1.0000000180025095e-35 1.0000000180025095e-35 0.99771444318839853 1.0000000180025095e-35 0.99995310207318966 1.0001403640836029 1.0000000180025095e-35 0.9999813708023525 0.99778636132109477 1.0000000180025095e-35 25.552738237769777 1.0000000180025095e-35 3.0000109061836335 1.9944194461464353 1.0000000180025095e-35 1.9997233864866684 2.0001958887595803 1.0000000180025095e-35 0.99771444318839853 0.98315921791498606 35.986008253010091 1.0000000180025095e-35 0.99555363742934222 1.0000000180025095e-35 1.0000000180025095e-35 0.13915003428494468 2422649.0095004314 1.0000000180025095e-35 0.99999746491708463 455.32025887692555 86.999778933104821 1.0000000180025095e-35 1.0000000180025095e-35 86.999778933104821 353.6098241832874 1.0000000180025095e-35 1.0000000180025095e-35 1.9999923869285381 1.0000570156007185 1.9999947159676887 1.9947856720541088 0.9999813708023525 2.0000215969207726 0.15138608045181345 1.9999282129479659 1.0000025350829158 0.99999471596768863 1.000003599622352 0.99778636132109477 1.0000025350829158 1.0002684024603095 1.0000000180025095e-35 1.0000000180025095e-35 23.798977799839484 2.0000094358390856 2.9791451738837647 1.0000644413860242
decision_type=2 2 2 2 2 2 2 2 2 2 2 2 2 2 2 2 2 2 2 2 2 2 2 2 2 2 2 2 2 2 2 2 2 2 2 2 2 2 2 2 2 2 2 2 2 2 2 2 2 2 2 2 2 2 2 2 2 2 2
left_child=2 3 5 4 11 8 -4 -8 24 -10 -5 28 -7 14 15 -3 -14 -9 -19 20 -17 -18 26 45 25 54 30 -27 -2 34 37 -16 -12 38 -15 -11 -34 47 -23 40 -40 42 -25 -28 -41 -6 56 57 -31 50 -50 52 -52 -49 -1 -56 -22 -20 -51
right_child=1 13 6 10 23 12 7 17 9 35 32 -13 16 29 31 19 21 18 22 -21 46 33 -24 41 -26 27 43 -29 -30 48 -32 -33 36 -35 -36 -37 -38 -39 39 44 -42 -43 -44 -45 -46 -47 -48 53 49 58 51 -53 -54 -55 55 -57 -58 -59 -60
leaf_value=-0.040936148546025827 -0.029228750262345764 0.045991468759032372 0.045730477616607132 0.045856987629404086 0.048967608588251568 0.037321594004918066 -0.029068356883915767 0.045680834944851756 0.047661554708285495 0.011342811322035582 0.045537945860907744 0.043059088901036324 -0.032043777358445102 -0.012390668486267138 0.039638176731908642 0.023603796019237698 0.04724470159046313 -0.027940082776070879 0.047215135298045767 0.032006067302577969 -0.026339035658156606 -0.026597731270698161 -0.044617382106504212 0.033743200681479214 -0.044238352057199878 0.048462348924951104 0.047361868270609071 -0.023903491713988406 0.0059454210911586963 0.04596704954181393 -0.01860395320457375 -0.010223410760504422 -0.030855531927334312 0.027937262995343441 0.033794570028607369 -0.037906939393669174 0.015376624897263094 0.049018841779420889 -0.033606093775097726 -0.030332229056551689 0.045860930495526857 -0.028209842350505877 -0.036694675207794861 0.01814975950101997 0.0071105151735737331 -0.041011642589077441 -0.047224906038869356 -0.010218455122906004 0.043983304732630561 0.024576051166334042 -0.016983982375174116 0.03791858524837792 0.027992296315619628 0.026036363560346117 0.03473872508234243 -0.033434927717233907 0.021109978803194745 -0.021578318987647685 0.042595002017724121
leaf_count=81037 3943 7644 13024 18889 280 4040 9725 6571 8080 1066 1052 6268 11840 2064 28297 3726 2155 4374 452 4153 3479 6748 1419 1692 93961 4045 5990 875 10960 77856 3074 1223 3054 1976 3188 35168 1754 1967 1037 3520 2274 4598 868 4855 2857 49653 3542 1662 5645 6003 3667 3735 1303 6835 877 22422 1000 2358 89599
internal_value=0 0.788668 -0.790981 -0.346868 -0.803832 -1.08067 0.495481 0.237168 -1.20494 -0.708869 1.11877 0.323341 -0.253643 1.27073 0.891302 0.451028 -0.43884 0.535335 0.350025 -0.0445063 -0.428717 -0.0716026 0.544514 -1.23948 -1.31354 -1.17744 0.64896 1.17954 -0.110117 1.37674 0.336309 1.2482 -0.122493 -0.260532 0.516038 -1.21428 -0.456949 0.561842 -0.404333 -0.0698606 0.677162 -0.496314 0.314495 1.13138 -0.445893 -1.35018 -0.987067 0.380163 1.40159 1.30953 0.833698 0.431546 -0.17975 0.629581 -1.2888 -1.02787 -0.523644 -0.368743 1.38171
internal_count=695419 349135 346284 103011 78262 283978 62306 49282 247531 44314 24749 21171 36447 246124 53064 23544 32407 39557 32986 15900 11747 20567 28612 57091 203217 109256 27193 4920 14903 193060 16348 29520 5860 18412 5252 36234 4808 13274 16436 9688 3311 7158 2560 10845 6377 49933 8021 11307 187808 109952 14350 8705 4970 8497 104336 23299 4479 2810 95602
shrinkage=0.03


Tree=14
num_leaves=60
num_cat=0
split_feature=36 4 54 10 15 54 54 56 3 36 54 54 15 66 52 52 51 52 23 23 53 21 54 31 54 5 33 65 65 10 13 36 4 15 15 34 20 31 52 52 14 58 52 31 21 27 61 15 4 4 53 53 57 56 50 15 8 4 7
split_gain=94658 41664.2 28280.7 15163.9 8501.68 6042.67 4948.9 4934.46 3579.06 2765.25 2540.74 2586.85 2330.48 2089.51 1870.76 3407.77 1758.73 1685.36 1675.42 7976.74 1592.71 1533.78 1347.44 1135.4 1127.02 1115.66 1727.55 1106.23 4932.98 1085.26 1349.23 999.248 1804.45 2369.16 971.999 935.479 907.138 1134.03 836.163 826.607 791.986 781.885 770.964 738.663 685.588 797.68 672.598 668.414 632.013 1151.12 630.359 613.892 611.948 592.132 554.182 542.227 589.579 515.849 496.271
threshold=1.0000000180025095e-35 1.0000076052487465 1.0000000180025095e-35 1.0000000180025095e-35 0.99771444318839853 0.99995310207318966 1.0001403640836029 1.0000000180025095e-35 86.999778933104821 0.99778636132109477 1.9997233864866684 2.0001958887595803 1.0000000180025095e-35 0.9999813708023525 1.0000000180025095e-35 1.9999923869285381 1.0000000180025095e-35 1.0000000180025095e-35 0.99555363742934222 1.0000000180025095e-35 0.99983507919222514 0.13403613932470318 2.9791451738837647 0.13244910009057545 3.0004881818030666 1.0000644413860242 0.99966306592900345 1.0000000180025095e-35 0.9999813708023525 1.0000000180025095e-35 16.654764115488792 0.99778636132109477 3.0000109061836335 1.9999282129479659 4.9996289579049735 1.0000193012391281 0.59915457654464921 0.99997914545648314 2.0000215969207726 2.9942316734169059 0.99975103482855565 1.0000000180025095e-35 1.0000570156007185 1.0000000180025095e-35 0.13404545909100143 1.000003599622352 1.0000000180025095e-35 1.9999282129479659 1.9944194461464353 2.0000053406197549 0.99983507919222514 1.0000000180025095e-35 405.00990852470335 1.0000000180025095e-35 1.0000000180025095e-35 0.99771444318839853 7.6192633491756272 1.0000076052487465 1.0000000180025095e-35
decision_type=2 2 2 2 2 2 2 2 2 2 2 2 2 2 2 2 2 2 2 2 2 2 2 2 2 2 2 2 2 2 2 2 2 2 2 2 2 2 2 2 2 2 2 2 2 2 2 2 2 2 2 2 2 2 2 2 2 2 2
left_child=2 3 7 4 12 -4 -7 8 57 -5 -8 -12 36 17 -9 20 22 29 19 27 -16 -21 -13 -6 -24 26 40 -10 -29 30 54 -27 33 48 53 -35 37 -2 -17 -40 -19 -25 -22 52 45 -34 -38 -28 -33 -50 51 -43 -11 -26 -3 -15 -57 -1 -55
right_child=1 13 5 9 23 6 10 14 18 43 11 16 -14 55 15 38 -18 25 -20 21 42 -23 24 41 34 31 47 28 -30 -31 -32 32 44 35 -36 -37 46 -39 39 -41 -42 50 -44 -45 -46 -47 -48 -49 49 -51 -52 -53 -54 58 -56 56 -58 -59 -60
leaf_value=-0.010125577221727387 0.036079367616282776 -0.031603120110580134 0.045129028798781438 0.045150850404529687 0.044299451312347062 -0.031403029648847176 0.045086437270871353 -0.02970297565021747 -0.03904756185212073 -0.029287860810801664 -0.03163489593739565 0.046973667321192542 0.045049523586318731 0.027090728215482546 0.043671622097365373 -0.034323639420546448 0.03197914546159622 0.015060808116134403 -0.04316028884778253 0.047065962393972864 -0.037720193566218911 -0.043483666936603542 -0.039326981930586695 -0.040281589930292523 -0.01410526544601531 0.043561753484642231 0.041198945081877318 0.045766442823303097 -0.035866862874914411 0.042662515717919812 0.038427554295937923 0.044760188146735595 -0.016103586481896182 -0.043423302637829599 -0.028135761347522378 0.024364440000280721 -0.028611958476894534 -0.012116755688091117 0.046830205768302567 -0.016116408140935682 -0.040165562578056112 -0.037740279660140041 0.045932574474872229 0.045019165522045865 0.0430150564656901 0.036928182153212072 0.0076609272076806033 -0.012124052157382697 -0.0063173776572470067 0.036109174236334855 -0.027871676593833147 0.04576439327520275 0.016355585952105737 -0.04627982167038492 0.028063465337577819 -0.036017111236867759 0.036174926606468379 0.036565094153347015 0.019266655937719541
leaf_count=1360 3963 3489 15939 18889 681 13613 7480 12242 96608 3163 6253 2316 5598 1213 7206 7370 10981 2048 106569 5737 1696 846 2801 49646 3036 143265 9634 3515 19577 3124 2178 6616 1663 2756 3139 1071 5409 3327 1117 2918 1952 520 586 1052 49004 3210 2874 999 3850 6662 5214 1030 1645 448 698 2174 518 2841 10090
internal_value=0 0.774072 -0.77582 -0.339993 -0.787469 0.336453 0.0443253 -1.09894 -1.20686 1.0988 0.364431 0.160684 0.315188 1.24787 -0.349017 0.03128 0.389754 1.27345 -1.24198 -1.07913 0.96783 1.17615 0.0570919 -1.21661 -0.113224 1.30998 0.749582 -1.20264 -0.790508 0.425644 -0.0583087 1.34816 1.15105 0.632573 0.0864796 -0.81847 -0.0749862 0.449198 -0.724273 0.0226533 -0.403481 -1.2492 -0.549695 -0.119331 1.3575 0.611986 -0.531827 1.19942 0.972394 0.659477 -0.594235 0.583745 -0.445691 0.32154 -0.72357 -0.226747 -0.734805 0.704577 0.549232
internal_count=695419 349135 346284 103011 78262 76096 60157 270188 237053 24749 46544 39064 21171 246124 33135 20893 32811 242219 232852 126283 9488 6583 21830 57091 19514 232730 14633 119700 23092 9489 6365 218097 74832 20955 16713 3827 15573 7290 11405 4035 4000 56410 2282 5860 53877 4873 8283 10633 17128 10512 6764 1550 4808 13574 4187 3905 2692 4201 10538
shrinkage=0.03


Tree=15
num_leaves=60
num_cat=0
split_feature=45 4 54 10 15 54 54 56 65 15 31 54 67 4 15 35 35 31 56 55 54 54 4 65 4 51 51 54 65 59 15 14 20 31 54 54 24 23 46 7 30 4 51 54 61 7 7 35 44 51 10 57 5 14 33 5 45 38 54
split_gain=90715.4 39373.3 29150 13554.5 8073.63 5434.68 4641.77 4205.71 2411.48 2273.93 2273.49 2045.84 2014.34 1817.08 3149.09 1629.41 5876.28 3062.53 1601.16 1522.56 1511.12 1321.21 1285.35 1281.55 1217.9 1129.68 2420.09 1096.22 1072.91 1071.45 986.46 2653.25 883.412 1075.61 836.224 952.955 812.653 978.159 809.03 731.137 723.956 713.033 654.791 647.831 600.621 593.939 4753.1 578.291 968.197 575.381 558.854 549.457 528.859 749.579 508.917 1142.86 468.271 433.581 425.694
threshold=1.0000000180025095e-35 1.0000076052487465 1.0000000180025095e-35 1.0000000180025095e-35 0.99771444318839853 0.99995310207318966 1.0001403640836029 1.0000000180025095e-35 1.0000000180025095e-35 1.0000000180025095e-35 1.0000000180025095e-35 1.9997233864866684 1.0000000180025095e-35 3.0000109061836335 1.9999282129479659 0.99841426825323865 1.0000000180025095e-35 0.13244910009057545 23.481402363918743 27.142834716474528 2.0001958887595803 2.9791451738837647 1.9944194461464353 0.9999813708023525 2.0000053406197549 1.0000000180025095e-35 0.99789412624123641 3.0004881818030666 1.0000000180025095e-35 1.0000000180025095e-35 0.99771444318839853 1.0000000180025095e-35 0.59915457654464921 0.99997914545648314 3.996983603173216 4.0004751589414838 1.0000000180025095e-35 0.99555363742934222 1.0000000180025095e-35 455.32025887692555 1.0001646906449053 2.999996221045691 1.0000000180025095e-35 4.9572274472127917 1.0000000180025095e-35 1.0000644413860242 1.9980166151591907 0.99841426825323865 1.0000000180025095e-35 1.0001521257599071 0.008648464873322383 1.0000000180025095e-35 1.9999947159676887 1.9947856720541088 0.99966306592900345 1.0000644413860242 0.13654799148958785 0.13661049288598598 0.99995310207318966
decision_type=2 2 2 2 2 2 2 2 2 2 2 2 2 2 2 2 2 2 2 2 2 2 2 2 2 2 2 2 2 2 2 2 2 2 2 2 2 2 2 2 2 2 2 2 2 2 2 2 2 2 2 2 2 2 2 2 2 2 2
left_child=2 3 7 4 9 -4 -7 15 11 32 28 -8 13 14 22 16 30 -18 -9 36 -13 -22 -3 -10 51 47 -27 -23 38 56 31 -1 33 -2 -29 -36 37 57 -5 -15 43 -26 -25 -37 -34 -32 -47 48 -20 -28 -16 -24 53 -31 55 -38 -6 -14 -46
right_child=1 12 5 10 29 6 8 18 23 -11 -12 20 19 39 50 -17 17 -19 25 -21 21 27 24 42 41 26 49 34 -30 52 45 -33 44 -35 35 40 54 -39 -40 -41 -42 -43 -44 -45 58 46 -48 -49 -50 -51 -52 -53 -54 -55 -56 -57 -58 -59 -60
leaf_value=-0.034454581384900068 0.035486962597085628 0.04454054386313594 0.044321567749352156 -0.030953955363564885 0.044553451517608346 -0.028959733171837546 0.04446557208274874 0.034894302707798253 0.046016931139844369 0.044468556573453104 0.044068519998325381 -0.03565313640073741 0.042364445858887781 0.038123725856611369 -0.046169758341420508 -0.042353191901341236 0.045106447515487716 -0.039888061012650994 -0.022874947974940565 -0.044580767589405365 0.04652311971621604 -0.038649107704197216 -0.031048257632093235 -0.0014920752013278596 0.045128729824777163 0.045449123805748823 -0.032447986689894161 0.050151132930191127 0.03264784926427277 0.029122191610497568 -0.039693532364573583 0.057008372833427703 -0.027634480933564576 -0.011372057924907163 -0.043325528278062519 0.052712622727152672 -0.01014567171077042 -0.042770112518328275 0.015591816874153867 -0.0098961141768671712 0.038366414142159626 -0.010127161333041423 0.032756290233298867 -0.0060615464797656839 0.049482764413830149 0.066403930351548582 -0.035608564380588861 -0.0397607349156191 0.031771608966495113 0.013980190533589872 0.0046671980862519865 0.0078750818957417246 -0.026428282610707374 -0.036274103091380697 0.041997326483039513 0.036611277152227673 -0.039435601136272563 0.012174852903240104 -0.0061046581368810098
leaf_count=5139 3969 7565 15655 3299 271 14080 3853 2608 9431 5725 17056 5107 4036 28232 3404 106226 5880 2386 12376 857 2339 2813 2437 5002 4129 3341 4587 1302 3491 1962 78169 1633 5421 3364 1752 751 2223 816 2459 1231 2035 1163 3682 9560 677 1938 30595 6668 1432 1299 1098 3050 5328 1036 162922 22031 48817 3576 2135
internal_value=0 0.752086 -0.77457 -0.323777 -0.757033 0.343978 0.0756228 -1.11437 0.384238 0.316896 0.991782 0.0242211 1.21515 0.848991 0.408605 -1.21588 -1.05398 0.673129 -0.409931 1.31476 -0.177025 0.066822 0.800219 0.9853 0.349352 -0.547298 0.061385 -0.113499 0.182857 -1.17725 -1.17483 -0.396834 -0.07084 0.444496 0.0984457 -0.0440267 1.32728 0.689834 -0.358957 1.19824 0.154947 1.08305 0.425387 -0.0601037 -0.524853 -1.22306 -0.983023 -0.819572 -0.576438 -0.728904 -1.12944 -0.310995 -0.493095 0.207578 1.35679 1.07053 -1.29913 0.931268 0.229751
internal_count=695419 353780 341639 105010 78705 77362 61707 264277 47627 21291 26305 29512 248770 52309 22846 231966 125740 8266 32311 196461 25659 20552 18344 18115 10779 29703 9227 18213 9249 57414 117474 6772 15566 7333 15400 14098 195604 8428 5758 29463 12346 5292 8684 10311 8233 110702 32533 20476 13808 5886 4502 5487 8326 2998 187176 24254 49088 7612 2812
shrinkage=0.03


Tree=16
num_leaves=60
num_cat=0
split_feature=45 4 61 10 15 56 54 54 52 15 6 23 23 21 56 65 1 67 55 4 15 54 54 65 65 65 4 52 52 4 53 53 13 47 54 54 65 37 36 56 7 52 53 4 61 10 54 54 12 12 16 1 52 52 45 54 67 4 4
split_gain=86440.9 37569 27872.5 12903.8 7706.39 5184.24 3172.68 3497.52 2397.44 2178.96 2115.91 1988.85 7611.29 2288.71 1757.55 1615.2 1414.36 1410.13 1423.66 1363.19 2307.12 1296.81 1164.81 1137.12 5250.97 1090.56 1068.11 1063.47 1627.39 1046.18 1037.71 1369.73 987.112 1068.24 874.977 899.175 841.448 836.787 1221.91 765.602 646.314 625.042 619.842 609.897 568.144 566.435 563.32 742.485 505.05 648.945 504.848 469.203 465.597 453.148 446.905 446.556 442.96 717.027 3482.11
threshold=1.0000000180025095e-35 1.0000076052487465 1.0000000180025095e-35 1.0000000180025095e-35 0.99771444318839853 1.0000000180025095e-35 0.99995310207318966 1.0001403640836029 1.0000000180025095e-35 1.0000000180025095e-35 1.0000000180025095e-35 0.99555363742934222 1.0000000180025095e-35 0.13403613932470318 23.481402363918743 1.0000000180025095e-35 59.002392057894504 1.0000000180025095e-35 27.142834716474528 3.0000109061836335 1.9999282129479659 1.9997233864866684 2.0001958887595803 1.0000000180025095e-35 0.9999813708023525 1.0000000180025095e-35 1.9944194461464353 1.0000000180025095e-35 1.9999923869285381 2.0000053406197549 1.0000000180025095e-35 0.99983507919222514 10.00025699696752 1.0000000180025095e-35 2.9791451738837647 3.0004881818030666 0.9999813708023525 0.58732731687454642 0.99778636132109477 1.0000000180025095e-35 455.32025887692555 2.0000215969207726 0.99983507919222514 2.999996221045691 1.0000000180025095e-35 0.046339394345180647 3.996983603173216 4.0004751589414838 5.9853473379864219 1.0000025350829158 5.0003235027851973 25.950563283415168 1.0000570156007185 2.9942316734169059 0.13654799148958785 0.99995310207318966 0.99999471596768863 2.0000053406197549 1.9944194461464353
decision_type=2 2 2 2 2 2 2 2 2 2 2 2 2 2 2 2 2 2 2 2 2 2 2 2 2 2 2 2 2 2 2 2 2 2 2 2 2 2 2 2 2 2 2 2 2 2 2 2 2 2 2 2 2 2 2 2 2 2 2
left_child=2 3 5 4 9 11 -4 -8 32 37 25 12 23 -14 51 21 -16 19 56 20 26 -9 -23 -1 -25 39 -10 -18 42 50 54 -32 33 -3 -24 -36 -17 38 -2 -5 -21 -30 -29 -31 -39 -22 -37 -48 49 -49 -28 -7 -44 -43 -6 -46 -19 58 -58
right_child=1 8 6 10 30 14 7 15 17 -11 -12 -13 13 -15 16 36 27 18 -20 40 45 22 34 24 -26 -27 29 28 41 43 31 -33 -34 -35 35 46 -38 44 -40 -41 -42 53 52 -45 55 -47 47 48 -50 -51 -52 -53 -54 -55 -56 -57 57 -59 -60
leaf_value=-0.036958108715496943 0.0411744546765095 -0.028798519360151209 0.043629360590096124 -0.03329990318157694 0.043905202780829447 -0.035329729189783332 -0.024698391367821242 0.043765343761222514 0.043885380890920339 0.04383902779816562 0.043516314459586466 -0.041729750606495628 0.045686686566924893 -0.035582644858661923 -0.030953272924513144 0.045280858829245978 -0.023377876355145853 0.043921033211324803 -0.043406244399983349 0.039187860091474375 -0.0446070086390307 -0.032507698231818136 0.045712029407257528 0.044241416927614699 -0.03452677933397412 0.032504912708199926 -0.016425138200506072 0.042277154514562099 -0.028029221582034539 0.044452844061682026 0.040241162635629421 -0.026100509531571312 0.036652367759357471 0.018639288032944366 -0.036727104251730681 0.049103652890082734 0.016821762154220616 -0.025551609212497016 -0.010833876567592089 0.01161806198135296 -0.0071937705658806474 0.045171056985547804 -0.034840220293934014 -0.0077108759881288893 0.048358735384569244 0.01232900008160282 -0.041257598794992606 -0.015228268940794135 -0.027269274496883811 0.022390367399612143 0.031552614905003398 0.043575561992073131 0.044531830845520849 -0.0060877939296231677 -0.038778172772767801 -0.0063039547264131515 0.043672979540636252 0.040331219749345865 -0.0079392932110325058
leaf_count=101029 3375 3662 12777 2893 271 318 10174 3297 7546 5725 16749 106978 6754 1764 12044 8653 7224 76092 832 26591 2608 3492 2055 4187 21221 3779 4104 4733 4424 4120 1517 6809 3091 3505 1969 1149 7763 5817 3414 2884 1165 951 843 1108 757 910 1212 2164 1265 7430 1028 2869 463 2437 48817 2203 18125 87256 7027
internal_value=0 0.738862 -0.760532 -0.317626 -0.742484 -1.05567 0.485687 0.259909 1.19446 0.309687 0.973839 -1.17054 -1.00024 0.951395 -0.319012 0.534287 -0.461296 1.2395 1.32437 0.920518 0.524141 0.19638 0.0143504 -1.13064 -0.729869 0.21116 0.836552 -0.132741 0.210577 0.412086 -1.15636 -0.481337 0.21825 -0.190446 0.229396 0.0654818 1.04348 -0.0689763 0.470693 -0.346857 1.23459 -0.410558 1.04783 1.09333 -0.481361 -1.00017 0.255845 0.127935 0.297 0.456399 -0.22834 1.17535 -0.238016 0.253558 -1.27748 0.237989 1.33684 1.25162 0.936237
internal_count=695419 353780 341639 105010 78705 278239 63400 50623 248770 21291 26305 241933 134955 8518 36306 40449 33119 238512 189332 49180 21424 24033 20736 126437 25408 9556 17906 21075 13851 10360 57414 8326 10258 7167 17244 15189 16416 15566 6789 5777 27756 7812 6039 5228 8777 3518 13220 12071 10859 9594 5132 3187 1306 3388 49088 2960 188500 112408 25152
shrinkage=0.03


Tree=17
num_leaves=60
num_cat=0
split_feature=36 4 56 10 15 23 65 65 23 65 65 36 15 67 49 4 4 10 15 49 3 31 56 7 54 54 20 31 55 53 53 7 35 35 31 49 56 65 57 54 61 54 67 27 36 4 14 15 32 32 4 4 29 27 52 16 52 30 18
split_gain=82516.5 36050.6 24701.9 13184.4 7359.12 4023.16 3896.7 11958.4 2963.97 2517.47 2575.34 2472.5 2057.04 2007.99 1763.74 1642.94 2523.55 1376.87 1619.47 1201.82 1134.62 994.776 917.832 866.39 825.664 1087.69 793.805 964.63 762.465 700.928 1094.16 687.362 672.378 5015.68 641.945 634.274 628.56 608.817 579.194 577.899 544.53 504.509 499.889 835.652 815.248 977.949 746.941 560.349 463.317 545.94 453.7 2102.87 748.089 517.516 438.781 859.248 426.637 428.119 428.985
threshold=1.0000000180025095e-35 1.0000076052487465 1.0000000180025095e-35 1.0000000180025095e-35 0.99771444318839853 0.99555363742934222 1.0000000180025095e-35 0.9999813708023525 1.0000000180025095e-35 1.0000000180025095e-35 0.9999813708023525 0.99778636132109477 1.0000000180025095e-35 1.0000000180025095e-35 1.0000000180025095e-35 3.0000109061836335 1.9944194461464353 1.0000000180025095e-35 0.99771444318839853 1.0000000180025095e-35 86.999778933104821 0.13244910009057545 28.924485682598672 1.0000000180025095e-35 0.99995310207318966 1.0001403640836029 0.59915457654464921 0.99997914545648314 0.99999746491708463 1.0000000180025095e-35 0.99983507919222514 455.32025887692555 0.99841426825323865 1.0000000180025095e-35 1.0000000180025095e-35 47.368858417882613 1.0000000180025095e-35 1.0000000180025095e-35 391.00790757703072 1.9997233864866684 1.0000000180025095e-35 2.0001958887595803 0.99999471596768863 1.000003599622352 0.99778636132109477 4.0001133896619425 18.772627033265561 1.9999282129479659 1.0002530485009515 1.9999531020731898 2.0000053406197549 1.9944194461464353 0.39771681747809901 1.9999947159676887 1.0000000180025095e-35 46.050552240305741 1.0000000180025095e-35 1.0001646906449053 481.02629496557989
decision_type=2 2 2 2 2 2 2 2 2 2 2 2 2 2 2 2 2 2 2 2 2 2 2 2 2 2 2 2 2 2 2 2 2 2 2 2 2 2 2 2 2 2 2 2 2 2 2 2 2 2 2 2 2 2 2 2 2 2 2
left_child=2 3 6 4 12 8 19 -8 9 14 -11 -5 26 15 22 16 -3 18 -18 32 -9 -6 -4 36 -16 -26 27 -2 -12 -23 -31 -17 33 -1 38 -21 -15 -7 -13 -27 -28 -41 -25 44 -44 47 -47 -46 -22 -50 51 -45 53 -53 -24 -56 57 58 -43
right_child=1 13 5 11 21 37 7 20 -10 10 28 34 -14 23 24 31 17 -19 -20 35 48 29 54 42 25 39 40 -29 -30 30 -32 -33 -34 -35 -36 -37 -38 -39 -40 41 -42 56 43 50 45 46 -48 -49 49 -51 -52 52 -54 -55 55 -57 -58 -59 -60
leaf_value=-0.03663612919880594 0.03387539180789919 0.043492038609444561 0.027238208149837 0.043435028686459543 0.043055416182159495 -0.031798326272103564 0.04538011625354034 0.020637809715738413 0.04393962022854233 0.045852127244591652 0.012954127098477191 -0.028158106139354312 0.043170485509688106 -0.013094994985958099 0.038187732832830786 0.036980902628105765 0.021612690083178513 0.030080796892682653 -0.027999721995374798 0.017301666945162511 -0.035959077319989444 -0.038432529699548884 -0.03274875144546336 0.043458638374499162 -0.02788520470252398 0.043246416474193777 -0.026508703414714459 -0.010725013365603053 -0.022995213801816503 0.041234547448525255 -0.027424272741786493 -0.0094681097043922587 -0.041657107649070428 0.044133057490663409 0.043153227246855434 -0.023128472932922344 0.03132572958187739 0.0022275373088967276 0.016127571111304029 -0.024052614468735283 0.006479100227749641 -0.025990844821068258 0.041484974404266427 0.043111868799506459 0.010953829362835456 0.038107078373967984 -0.039154174288642207 -0.037670581215235324 0.062803236884210703 -0.028649055331012828 0.041227273035093472 0.048138426458532509 -0.032390962295229975 -0.0028937574780133267 -0.017988078551863788 0.041473678171031293 0.020480208348517923 0.043129708919874506 0.02249147187191311
leaf_count=98733 3968 7604 1793 18888 669 11024 10422 1551 10244 11485 9355 3128 5596 2069 3641 28238 3772 4108 7982 1860 36390 48626 6688 77865 3247 2143 5423 3364 3067 1097 6487 1237 92897 3315 1061 9990 3179 2611 1693 1771 2814 2449 5707 15449 1868 4417 556 1846 407 696 75163 1212 1970 2049 10397 1080 7508 627 923
internal_value=0 0.737234 -0.737001 -0.317567 -0.742026 0.205057 -1.08238 -0.543276 0.393014 0.232898 0.783856 1.05005 0.292061 1.18724 -0.071041 0.82127 0.407133 -0.0520983 -0.408921 -1.21251 -1.08165 -1.15258 -0.525117 1.29035 0.329878 0.159601 -0.071949 0.419557 0.136545 -1.18355 -0.596743 1.16036 -1.25401 -1.13497 -0.105195 -0.564934 0.449657 -0.845912 -0.407059 0.388746 -0.503811 0.236169 1.31519 1.22207 0.743099 0.339828 0.968431 -0.46167 -1.15651 0.181214 1.29557 1.01494 -0.0886967 0.515594 -0.666074 -0.416485 0.390677 -0.142542 -0.422208
internal_count=695419 349105 346314 102814 78044 90053 256261 49466 76418 66174 23907 24770 21165 246291 42267 52941 23466 15862 11754 206795 39044 56879 19958 193350 22309 18668 15569 7332 12422 56210 7584 29475 194945 102048 5882 11850 5248 13635 4821 15421 8237 13278 188102 110237 14394 8687 4973 3714 37493 1103 95843 20680 5231 3261 18165 11477 11507 3999 3372
shrinkage=0.03


Tree=18
num_leaves=60
num_cat=0
split_feature=24 4 54 9 54 15 46 54 24 54 54 67 23 23 33 15 46 4 4 51 15 14 54 52 4 4 9 52 54 58 25 25 56 57 52 53 52 52 30 0 7 57 65 1 51 51 53 53 37 64 39 3 46 53 46 0 33 5 54
split_gain=78415.6 34597 25339.2 12219.5 5424.75 5338.28 4609.23 4171.42 3830.94 2331.92 2231.5 1956.85 1922.36 8343.58 1732.11 1706.41 1630.27 1567 2402.35 1496.27 1439.96 2779.87 1240.91 1239.29 1158.41 2179.69 1145.71 1117.21 968.473 918.998 883.08 1034.54 869.538 822.679 1146.07 3598.3 865.52 708.452 693.084 689.152 659.522 642.544 559.542 538.463 633.219 674.054 481.487 494.51 481.402 456.118 454.349 450.172 424.314 385.235 381.141 368.636 365.954 998.039 362.092
threshold=1.0000000180025095e-35 1.0000076052487465 1.0000000180025095e-35 0.99996981978524124 0.99995310207318966 0.99771444318839853 1.0000000180025095e-35 1.0001403640836029 0.99826573519790118 1.9997233864866684 2.0001958887595803 1.0000000180025095e-35 0.99555363742934222 1.0000000180025095e-35 0.99966306592900345 1.0000000180025095e-35 23.595075477000851 3.0000109061836335 1.9944194461464353 1.0000000180025095e-35 0.99771444318839853 1.0000000180025095e-35 2.9791451738837647 1.0000000180025095e-35 2.0000053406197549 2.999996221045691 1.0000000180025095e-35 0.98315921791498606 3.0004881818030666 1.0000000180025095e-35 0.17713983821481741 1.0000000180025095e-35 1.0000000180025095e-35 1.0000000180025095e-35 1.0000000180025095e-35 0.99983507919222514 1.9999923869285381 1.0000000180025095e-35 1.0001646906449053 2422649.0095004314 455.32025887692555 353.6098241832874 1.0000000180025095e-35 59.002392057894504 1.0000000180025095e-35 0.99789412624123641 0.99983507919222514 1.0000000180025095e-35 0.99998697572574446 0.99999746491708463 0.9983908003357056 86.999778933104821 1.0000000180025095e-35 1.0000885815822516 67.052838618681591 6223419.165475579 0.99966306592900345 1.0000644413860242 3.996983603173216
decision_type=2 2 2 2 2 2 2 2 2 2 2 2 2 2 2 2 2 2 2 2 2 2 2 2 2 2 2 2 2 2 2 2 2 2 2 2 2 2 2 2 2 2 2 2 2 2 2 2 2 2 2 2 2 2 2 2 2 2 2
left_child=2 3 6 8 -4 15 12 52 14 -9 -11 17 13 20 -2 39 -8 18 -3 22 21 -1 -12 -18 32 -26 41 -25 -24 -7 31 42 -20 -22 -35 36 -36 49 58 -5 -19 -10 48 51 54 -46 47 -31 -30 -13 -34 -29 -6 -47 -45 -41 57 -39 -32
right_child=1 11 4 5 7 29 16 9 26 10 19 37 -14 -15 -16 -17 23 40 24 -21 33 -23 28 27 25 -27 -28 43 30 46 38 -33 50 34 35 -37 -38 56 -40 55 -42 -43 -44 44 45 53 -48 -49 -50 -51 -52 -53 -54 -55 -56 -57 -58 -59 -60
leaf_value=-0.03088066801098293 -0.028321685985616889 0.042987172964147877 0.043066009397048008 -0.027368210551083263 -0.039090624765380347 -0.038212087625496868 0.036681554714450122 0.043020379789506444 -0.031127678485170469 -0.029331407514298878 0.044756461248257336 0.025833485802077602 -0.040815798705157981 0.044934288424638376 0.043015948050591953 0.042626932152778643 -0.030593072488475617 0.036553501457594693 -0.034140817428218465 0.029394072586729315 -0.037291746039028288 0.052621082192834553 -0.036771602425939971 0.045367106029865184 0.044320549725127216 -0.030368719411410641 0.04639762366873023 0.043954222373449599 0.014512414158442396 -0.034410794139536155 0.04829535082433585 0.048839984540578509 0.020411447823602349 -0.037019552627276825 0.055724556709345389 -0.033288753733343779 -0.026842429782736911 -0.0092638138558989863 0.038400967027727169 0.018469242447757345 -0.009648368210836757 0.011851299427043461 0.023228944218623426 0.028931051601996913 0.041812093057758633 -0.02072119151236881 -0.022257342011709206 0.04265596129924807 -0.018428119321136353 -0.018019045111109352 -0.026612969171070824 -0.028573163318144048 -0.017231740700110576 0.027353196371083875 -0.019037906774157447 -0.0059205191042232576 0.040437033786533759 0.036116081048398585 -0.038012206494876043
leaf_count=5485 1494 7517 16919 3748 7274 45752 2911 7959 5596 6418 2461 5566 106515 6142 21678 4144 10607 28199 4858 11554 92032 2282 2842 1772 4605 2296 1245 377 2520 502 198 2230 2512 13869 3108 8416 608 2099 617 3825 1197 1697 3353 754 2379 1919 5112 1093 4799 1091 1104 5500 6678 971 5913 5857 160839 21079 3332
internal_value=0 0.732568 -0.713972 -0.311416 0.330663 -0.806241 -1.03318 0.0545765 0.800512 0.346546 0.151996 1.18077 -1.1405 -0.968463 1.27404 0.173551 -0.295235 0.815334 0.402349 0.363213 -1.08708 -0.199742 0.0551739 -0.44055 -0.0551609 0.596648 -0.382249 -0.123279 -0.109121 -1.16071 0.0747247 0.337129 -0.558852 -1.14674 -0.811352 -0.334506 1.40127 1.28433 -0.756411 -0.1614 1.14758 -0.686002 0.0766276 -0.280019 -0.0206504 0.529016 -0.439751 0.601104 -0.236322 0.616041 0.195056 -0.802109 -0.949457 -0.135816 -0.453934 0.123615 1.31066 1.05642 -1.10655
internal_count=695419 344705 350714 101743 79154 70033 271560 62235 31710 48283 40324 242962 238457 131942 23172 17574 33103 52288 22892 33906 125800 7767 22352 30192 15375 6901 8538 19585 19891 52459 17049 12902 8474 118033 26001 12132 3716 190674 4147 13430 29396 7293 10672 17813 11936 5269 6707 1595 7319 6657 3616 5877 13952 2890 6667 9682 184017 23178 3530
shrinkage=0.03


Tree=19
num_leaves=60
num_cat=0
split_feature=36 4 56 10 15 65 65 23 23 36 65 65 67 15 49 4 4 10 15 49 2 31 7 56 0 54 54 0 58 35 35 7 31 56 49 65 54 49 57 53 52 67 27 36 43 31 33 5 54 55 55 55 51 15 58 54 54 12 42
split_gain=74868.9 33091.1 22701.2 12030.6 6715.53 3660.8 11137.2 3650.11 2731.89 2312.43 2271.52 2445.16 1913.55 1904.95 1587.42 1545.52 2362.31 1282.24 1420.36 1138.62 1065.91 929.077 839.67 801.63 787.713 764.585 1011.32 692.009 652.819 645.628 4616.03 634.536 593.428 591.766 582.508 559.768 540.071 512.584 505.145 505.125 506.894 495.257 794.718 777.467 927.761 454.274 443.751 851.137 433.897 421.237 401.113 628.171 467.57 396.241 394.86 394.356 433.303 392.553 384.211
threshold=1.0000000180025095e-35 1.0000076052487465 1.0000000180025095e-35 1.0000000180025095e-35 0.99771444318839853 1.0000000180025095e-35 0.9999813708023525 0.99555363742934222 1.0000000180025095e-35 0.99778636132109477 1.0000000180025095e-35 0.9999813708023525 1.0000000180025095e-35 1.0000000180025095e-35 1.0000000180025095e-35 3.0000109061836335 1.9944194461464353 1.0000000180025095e-35 0.99771444318839853 1.0000000180025095e-35 150.00065202191769 0.13244910009057545 1.0000000180025095e-35 28.924485682598672 2422649.0095004314 0.99995310207318966 1.0001403640836029 13295331.500000002 1.0000000180025095e-35 0.99841426825323865 1.0000000180025095e-35 455.32025887692555 1.0000000180025095e-35 1.0000000180025095e-35 47.368858417882613 1.0000000180025095e-35 1.9997233864866684 1.0000000180025095e-35 383.64437889375733 0.99983507919222514 0.013436310373124873 0.99999471596768863 1.000003599622352 0.99778636132109477 1.0000025350829158 1.0000673691838311 0.99966306592900345 1.0000644413860242 2.0001958887595803 2.0004263358380299 1.0000000180025095e-35 0.99999746491708463 0.087735009293059857 1.9999282129479659 1.0000000180025095e-35 2.9791451738837647 3.0004881818030666 2.0000094358390856 1.0649067678005977
decision_type=2 2 2 2 2 2 2 2 2 2 2 2 2 2 2 2 2 2 2 2 2 2 2 2 2 2 2 2 2 2 2 2 2 2 2 2 2 2 2 2 2 2 2 2 2 2 2 2 2 2 2 2 2 2 2 2 2 2 2
left_child=2 3 5 4 13 19 -7 8 10 -5 14 -12 15 24 23 16 -3 18 -18 29 -8 -6 33 -4 -2 -16 -27 37 -23 30 50 -17 38 -14 -21 -9 -28 -13 -11 40 -30 -24 43 -43 45 -45 47 -44 -38 -25 -1 52 -52 57 -37 -50 -57 -20 -26
right_child=1 12 7 9 21 6 20 35 -10 32 11 27 22 -15 25 31 17 -19 53 34 -22 28 41 49 58 26 36 -29 39 -31 -32 -33 -34 -35 -36 54 48 -39 -40 -41 -42 42 46 44 -46 -47 -48 -49 55 -51 51 -53 -54 -55 -56 56 -58 -59 -60
